function [y1] = NeuralNetworkFunction50(x1)
%NEURALNETWORKFUNCTION50 neural network simulation function.
%
% Generated by Neural Network Toolbox function genFunction, 05-Mar-2018 13:05:35.
% 
% [y1] = NeuralNetworkFunction50(x1) takes these arguments:
%   x = 236xQ matrix, input #1
% and returns:
%   y = 8xQ matrix, output #1
% where Q is the number of samples.

%#ok<*RPMT0>

% ===== NEURAL NETWORK CONSTANTS =====

% Input 1
x1_step1.xoffset = [2.36611163018097e-06;6.15967292105779e-06;0;1.44108253152808e-06;0;7.47331159800524e-06;0;1.40835754791624e-06;0;0;0;0;0;0;0;0;0;8.50533706397982e-06;0;9.55973791860742e-06;0;9.15758937480859e-06;0;9.86513805401046e-06;0;0;0;0;0;0;0;0;0;1.35915188366198e-05;0;3.27552606904646e-06;0;1.37224169520778e-05;0;2.3828026769479e-06;0;0;0;0;0;0;0;0;0;3.65026892268361e-07;0;3.3279630429206e-07;0;4.18571431737291e-07;0;3.46503412629318e-07;0;0.663781046867371;1.93242758541601e-05;0.00430006626993418;0.00398716703057289;1.94980293599656e-05;0.00522243464365602;8.01165970187867e-06;0.00399644672870636;1.20755557873053e-05;0.00510430941358209;8.3883614934166e-06;0.000268587027676404;0.000246082810917869;0.000294617697363719;0.000317060446832329;0.000283187138848007;0.000250171287916601;0.000293648947263137;0.000275280675850809;0.00800213310867548;0.000458560709375888;0.0100244032219052;0.000524006958585232;0.00770387193188071;0.000542004418093711;0.00977464020252228;0.00035087758442387;0.00264834007248282;0.00368258310481906;0.00333695253357291;0.00279042078182101;0.00377882434986532;0.00387700740247965;0.00293437670916319;0.00221307459287345;0.0132055329158902;0.000912936229724437;0.0150348832830787;0.000783838622737676;0.0133163677528501;0.00106638367287815;0.0152610428631306;0.000551369972527027;0.0042122327722609;0.00387744442559779;0.00372824561782181;0.00393587443977594;0.00413413299247622;0.00379088427871466;0.00384085648693144;0.00415701325982809;0.00585309555754066;0.00087124778656289;0.00542754260823131;0.00043481815373525;0.00512476731091738;0.000854048936162144;0.00544861331582069;0.000401832687202841;0.283194124698639;0.0394891425967216;0.00434286007657647;0.00302151613868773;5.60502985536004e-06;0.0025428815279156;4.05736273023649e-06;0.00298736663535237;4.1102321119979e-06;0.00265284930355847;3.95211463910528e-06;0.000303165201330557;0.000349115434801206;0.000362817052518949;0.00031202009995468;0.000332104245899245;0.000364368635928258;0.000376540061552078;0.000309702300000936;0.00789775792509317;0.000429089646786451;0.00778368301689625;0.000464009557617828;0.00808462221175432;0.000451359694125131;0.00817498005926609;0.000447223137598485;0.00606347154825926;0.00553627591580153;0.00546807330101728;0.00513929035514593;0.00575504824519157;0.00594909070059657;0.00548469088971615;0.0055074617266655;0.0223768223077059;0.00187817111145705;0.0243933908641338;0.00189876137301326;0.0225633941590786;0.00196619867347181;0.0253317225724459;0.00198186514899135;0.00172219518572092;0.00142325460910797;0.00138419272843748;0.00197454844601452;0.00186262011993676;0.00136789446696639;0.00142051151487976;0.00169416074641049;0.00254467921331525;0.00176818866748363;0.00245686410926282;0.00194969156291336;0.0025257000233978;0.00199950090609491;0.00267607183195651;0.00177761563099921;0.237952262163162;0.0213675666600466;0.00105298857670277;0.00182034994941205;2.65328235400375e-05;0.00193975516594946;2.04249190574046e-05;0.00177067634649575;2.43980957748136e-05;0.00197124807164073;2.64858117589029e-05;0.000218918838072568;0.000172364379977807;0.000209825171623379;0.000204868862056173;0.000181987707037479;0.000205440010176972;0.000183184194611385;0.000192584950127639;0.00536010647192597;0.000644800718873739;0.00538958935067058;0.000601599866058677;0.00539151346310973;0.000668296765070409;0.00528208632022142;0.000645075517240912;0.000332104857079685;0.000295662030111998;0.000599890714511275;0.000573139463085681;0.000321349303703755;0.000366411346476525;0.000575711543206125;0.000578435079660267;0.00992173328995705;0.000740892719477415;0.0113604003563523;0.000785790558438748;0.0105769652873278;0.000883986882399768;0.0111350808292627;0.000807232747320086;0.000176287459908053;0.000177754991455004;0.000186917488463223;0.000194943233509548;0.000203317977138795;0.000192126637557521;0.000185501281521283;0.000195048851310275;0.00159548001829535;0.000259757420280948;0.00162866443861276;0.000263892725342885;0.00160218635573983;0.000258980493526906;0.00158709706738591;0.000257060950389132;0.818251669406891;0.0170374643057585];
x1_step1.gain = [14.9674022265805;18.4346560345783;517.651857371907;36.2436296708712;545.839810618197;18.8234233544109;531.462747085656;36.5252920864892;507.914034510745;126.564782743634;134.012579867581;126.236563301403;137.395725479267;136.7562749001;126.844525289536;131.973542652238;126.93655216538;14.1804087633981;77.1547333702529;14.2750185570398;84.8077681742753;14.1708952933291;74.7759142212929;14.1142638016825;81.0275361396882;23.8792028495406;24.3740276192808;25.1431236879229;24.9617561828213;23.4635261161578;22.8171977807001;18.9619060838558;23.1791612669693;7.86120658359097;42.037960400899;8.90860128463667;41.6644318969255;7.848365237264;39.2887905985736;6.98909206976536;40.2958919005823;30.7493917659561;35.3038967447439;35.3317911279823;30.4164711310577;34.7277210795686;33.7143602822941;33.8207726988014;35.4206555769179;28.1745833336432;39.9001522070015;28.3334476692699;71.5228235314179;27.0956111382226;40.6649963498746;26.963940963205;72.3751904518349;5.94850463177504;3.40289114299019;6.12189143842815;13.9600910104754;161.354072948516;11.1361758835343;101.461054726435;13.5035978511792;174.945927498709;10.8517342336536;101.941722942169;34.2398589380413;37.1802019606617;27.0128619974099;28.4684420943605;35.6656002979259;39.8363412879175;26.983563023939;28.3990572347072;7.99494112757882;14.4160839724858;11.0515977579933;21.0165924196162;11.2638472938183;13.8167000995355;11.2587553571637;18.4464274460802;6.74432581063201;6.03667872034969;6.89769852593551;8.05661115191627;6.81701734219801;5.95021970331826;3.98251942729032;4.60549637794655;5.99345120532626;14.1320051425376;6.55638900640867;15.0458496785063;5.94994821122872;14.4420390183186;6.8521465706722;9.74940270436734;25.3601860009916;25.4441788188205;25.2937391567911;25.9107586137881;25.8779236560011;24.8966150536295;23.3845600167928;25.3010801151636;24.5912100795666;15.5134325417163;24.3345102203993;10.8223260128636;24.695902552297;15.5869357342893;25.270955518402;10.6740540961708;2.79694082596632;2.91355479640681;5.54069870337155;10.9157444036697;152.217929674031;10.7366940634063;149.465472045772;11.2836448464894;149.188260128806;10.499925632702;143.02894146976;46.4098755445485;44.7159306159459;44.1620191711651;46.1968068103163;48.3305773308021;43.072251283883;43.7021032706752;47.2738917742823;16.1916892248083;29.3576734519408;16.3724484002445;21.3098983925299;15.7293757400142;14.3773261810872;16.2882758092786;24.3517862640769;6.3338257375929;6.36313749578419;6.11014606171399;5.95751087535593;4.55463988674969;6.41462953146677;6.12613106998733;6.00580423239169;8.45022020595525;18.2498237760546;7.98190630232927;16.9562136735277;5.42014318938565;18.1293624535322;7.90342797927553;18.3955715050539;27.883555153735;31.7965554569908;32.4492950150932;28.0976222979666;28.1349529990322;32.4459787601944;31.7324680339358;27.6849276669033;46.8691123202986;11.2313948731078;46.1611818551985;11.5285740948022;46.2763000923146;11.7817044435769;46.8183216781441;11.3410954661408;2.63751534695587;2.78917679568966;17.4733882608289;36.581170555055;451.898932504354;38.751223044603;434.904998523842;36.9196622419168;434.092708363132;38.429472027198;441.112901813702;157.749059727412;178.26331607214;84.6315852954338;177.823925008699;187.301776984628;175.428583336391;187.63070883782;78.5686935791816;23.6242092024526;175.213640740766;29.7738076384838;171.110211935704;29.2728933199792;172.839770593197;29.602428677557;178.687741288468;16.9953097563863;33.2140074631728;38.377930915079;36.1181549684638;36.288744800094;36.9929875220831;25.7621526935931;12.622679104902;18.1826637450453;78.724079093099;19.0828027644336;81.8968758651928;17.2146645657588;78.1721811777859;18.4172341547845;29.2900974899932;70.8349534840934;173.383205848147;181.496916023812;152.692344062559;170.067432797495;80.385132895563;153.546085043789;129.911503562662;49.1920198860741;71.6129239548252;48.6988322257095;57.5673750026161;48.3773553460724;71.7217903260324;48.7969095221946;50.4105102342093;11.0482215042101;3.85850737280578];
x1_step1.ymin = -1;

% Layer 1
b1 = [-1.3564294077629819313;1.0718576358213363076;0.7937461380800702182;-0.63034463232141080269;0.50304727434128848618;-0.1573549959833214773;0.21123201251281828461;-0.42406846036387058074;-0.53570898754419082888;0.81071671887917418076;-1.0629108726540643648;-1.2816278949897086381];
IW1_1 = [-0.18501264751066601177 -0.223501813305659075 -0.31313233132225137823 -0.11025402632621553178 -0.13799417918498688151 -0.22379832665762394717 -0.10798289193886861925 -0.2423251890825528776 -0.16404150170627879168 -0.031612484511886800032 -0.21366043901708067776 -0.0095692111491955857833 0.029541197361508161889 0.016723634302208582186 -0.0080369759870088791631 -0.028306125354901002372 -0.263908251891049217 -0.15952339087478401014 0.02815330211332974647 0.044258744203797106831 -0.13241750497875542925 0.13589332720430316592 -0.074016172684206238408 -0.051739967072138702553 -0.088780584366787859696 -0.011861152212236237072 -0.11081963328348623521 -0.0020639310120253431466 -0.14943359647657686318 -0.046308304395199638426 0.14340871341696714847 -0.076347767140298783417 0.048209774583790998559 0.23678310736005925285 -0.01723914260475108845 -0.078078031619276025421 -0.085329709178087159716 0.33395835954078539887 -0.072563424313889887673 0.094582665251567513143 -0.061187598504899784468 0.087995053648835905302 0.11292110626369754323 -0.021430239573332239555 -0.11791562854758239065 0.057031461465611429928 0.051521967197235285507 0.11574964750982000283 -0.091174179802188975996 -0.051544469540338845592 -0.20748439997797152312 0.069449118727430911302 0.045231802981162902433 0.062859083407762805784 -0.20480625104175162465 0.074359872809080462819 -0.0075184631099485229114 0.057884306691303975823 -0.10713037734365478404 -0.30193281094966623046 -0.24178748687304343901 -0.055193132540178199696 0.023574935603470001388 0.052863225709759660564 -0.24906480162435376546 -0.028069312361840032671 -0.051209752782151729544 -0.17590709545512689393 -0.084148794254947784088 -0.16932746389954286825 -0.1691928491307060356 -0.04335485367558487152 -0.022508239862209393489 -0.069461126486531091229 -0.10801222276245164844 -0.082570400812828029236 0.17475039524134941549 -0.088162785604252433269 0.16766066336211893351 0.069673411636896775967 0.17780183504125984806 -0.082065155727170449595 -0.10493217478175050072 0.17106909098828781968 0.071968953971111637724 0.13493234939328560551 0.15672843700705910153 0.022771450635193778156 0.10699833915720440014 0.010162386582558184667 -0.10134052079102706667 0.014605071303953911371 0.14103042550135330702 -0.10130873673961508785 0.24379162263056239346 0.031915121304067532726 0.04717598621585729346 0.048915163074151911393 0.24369918204790794181 -0.0032554270203028626632 -0.02028462136834733448 0.1369589574804084553 -0.14769216741482033006 0.042705838818020432079 -0.071236612144399719115 0.00011877130971534987508 0.19460233263853371488 -0.061739545382664226536 0.13671931111808202641 -0.038799745515369993276 -0.065050719768157863609 -0.07044798603552915317 0.018351476708562620282 0.028968715481799519468 0.013646753176438240068 -0.01155825732071362813 0.15468105995246791973 -0.23878635427601441199 -0.012092536159364763657 -0.37317437702097894237 -0.023972103495846990018 0.26312864169446964491 -0.23348726008088049877 -0.13254624333800724134 0.031205016355347003909 0.10361768249153033294 -0.10561558914660684749 -0.30646981682255980406 -0.090269434459939956739 -0.145614948312382253 -0.33941951555967952991 -0.16400056839880819415 -0.087096354083101026888 0.081429714627773847058 -0.46339162508917725036 -0.11957682339399534899 -0.007169988093588069121 -0.2005090273770101239 0.046375592720130177915 -0.27457180706975958806 -0.23953043119547604012 -0.39612672469796844643 -0.12583482241885929342 -0.30325105380683248235 -0.35728864965510787055 0.13532274545224304285 0.033649968217330808451 -0.12921743289861087334 -0.13604281864071998687 0.17183742004411026172 0.21593328484846519011 -0.081395522456213106888 -0.1118996107190759759 0.3358748101372964201 -0.31864767076364208798 -0.10693588846134265136 -0.24332401010883977777 0.38972554397677566795 -0.21979480826701411345 -0.069369058009486353478 -0.37411108740053145016 -0.38588497341265165508 -0.0063862083769296064395 -0.23673828891387632689 -0.16250338446702292106 -0.17128626083783843326 0.027080370496854223872 0.14361251638624808469 -0.18707336590771536655 0.094334099819923342145 0.20141352400890927266 0.084169636004681053221 -0.17015003160029221196 -0.090789154952456763148 0.27942852496454428923 0.15539824860336851065 -0.1975183561788141362 -0.30928705312343718337 -0.25793424658925229176 -0.28233812641498978735 -0.13444978862341885884 -0.2549442974235296977 -0.24999127373444141043 0.020080828917469154687 -0.14199047317387400446 -0.051426554565759584337 -0.12383557867633918081 0.12967787382762255288 -0.17555408294680646675 -0.0046509051299450862582 -0.087816851180971863822 -0.078645996997602468648 0.089000734148111743105 -0.063921015758465371537 -0.13820624579871884641 -0.094006793507197664028 -0.081286752023910363585 0.014509025156442749427 -0.11120709558575694875 -0.027944334825963104696 0.0048447582324642000234 -0.13705274751926399546 0.0010427586672169465894 -0.07248969458496688778 0.063173189430934792443 0.1313754999456650252 0.18355483063748515016 -0.14838938391269268502 -0.06406931329910975359 -0.078996088570046071875 0.16943488850458118811 0.10977343988291929366 -0.029610584128403009269 -0.12680669690612589307 -0.11903104623381723093 -0.19616612884913045556 0.018847138877555399267 -0.11149687952302320126 0.019453421603834297055 -0.25203817529194466607 -0.1370066456670706867 -0.035450443817825902371 0.059472534174893253167 -0.11038564702194829381 -0.17002364850487525216 0.16321492964148390237 -0.082733491639850165189 -0.20986192548579371553 0.045045582662549064901 -0.011992287177993221636 0.1467589655206897048 0.029047298923785321717 -0.085767666157813296501 0.025767894466511075818 0.18889176582409430982 -0.32046077696199426477;0.10448558488488449147 0.33726809826262632575 0.029581978350411465561 -0.089006266392131605514 -0.052442904739546020165 0.50652643571039013271 0.16005336327350608294 0.037167157907432392394 -0.088727486931027499395 0.01274960725895717302 0.060121806211705625111 -0.078141259579899133292 0.061732762344995584236 -0.024393534848910023577 0.12668998199593090037 -0.0049773993480695926522 -0.059934809605918841491 0.069563975031152011641 -0.32353548285683964014 -0.01469586298284201141 -0.11689444781407788698 -0.0055699973856643096581 -0.035261932780449110891 -0.027408693849021021488 -0.15876845242218187715 -0.0096561016513648408044 -0.037260037888903460579 0.041492808043859394362 -0.081473843093106082525 -0.11983349954062751108 0.05328306425334341373 -0.17589232454096073721 -0.073930272669625388127 0.24988339808060103242 -0.041136243069304065378 -0.36750304986027837462 -0.16727056953687072238 0.28388470377694352553 0.096483776324818054659 -0.14433228030715924972 -0.14750513995676386991 0.11721500491362407681 0.015927355360433669701 0.018275621017480335462 -0.0056459799097897502354 0.032139769472581763976 0.29992444832393522214 0.14235196398264718387 0.27876699429469531388 -0.09969677637120039071 0.38530656363337839609 0.012888744326750739902 -0.057702466981389678724 -0.28109954411548548903 0.3215369141642117623 -0.12477830877922341246 -0.060715677362930105254 -0.051124485106760819697 0.29168804433220613115 -0.15855619033198811718 -0.071425367292706362643 -0.22305011372942865067 0.2468505132050622386 -0.32699981234147823539 -0.04972170634588579663 -0.30186086044886967228 0.13895531629213908609 -0.20923700321376292877 -0.11519428439653890683 -0.013121759886520952335 -0.15783827820366055916 0.0018364547165184920592 -0.054036397878811405493 -0.24968790467642162922 -0.1124058851165523204 0.059644621600325700705 0.18497856869457737772 -0.38595043274858142901 0.13691175246732714688 -0.13641822037108200516 0.019939381408448780819 -0.41005564028853624947 0.028720295074916139116 -0.09216075077976740304 -0.068719976749547620476 -0.23372737730447021298 0.16739725363124408064 0.40034520425688085998 0.022771925140615278255 -0.21630912900824844636 0.28008155234641746167 0.24387947940561482962 -0.34056073810410769642 -0.14122566688447107941 0.23315337673514147099 -0.011747213961619103195 -0.0048661651835519596429 0.015723890351985691377 0.22582731896766722324 -0.12871090589205982924 -0.19782024134246184444 -0.18946568299879923414 0.040983097526458900361 -0.10675348668574491384 -0.037253359039324404622 -0.1173597156585158563 -0.017479302448158390987 -0.07316954826112835597 -0.17842152170208144812 0.032013463561280729175 -0.27333068353113210147 0.17283383097585230948 -0.24958505647009651685 -0.029141029120173165406 -0.26431119233883670905 0.13343378272711581278 -0.10165943633091902021 0.059871371965304523433 0.23305798413548714509 -0.14504818420790616118 -0.017393618922549876349 0.21301650878714767368 -0.12277671661779114565 0.024815182775254487207 0.10701076291728625622 0.41895871793726946475 0.33375389730043403258 -0.19359072774788638194 0.05901940777827196366 0.25687476038276330081 -0.31903114751291633544 -0.67379093616158136637 0.56997922751492868798 0.35421345833938633341 -0.47693288351187274055 -0.31580678557154440167 0.071094532042019528695 -0.33162677855828304185 0.62486826931794425821 -0.2207356148875682933 -0.045289995751043997385 -0.47677028471433330337 0.51407356012171578907 -0.17680889101032887245 -0.31303085351978970907 0.2930662020115501476 0.2858020985699245009 -0.27190005767629416011 -0.21329247352983313202 0.14753738582194139695 0.17940538028650254709 -0.064899315279017322222 -0.18215183732693029928 0.68690004116438296844 -0.16967906524835277282 -0.083254005187142210431 -0.1428948708753459973 0.47777026110900566724 -0.067088327084317639359 0.27059718012856259772 -0.4211300246618657761 -0.5254607347618645008 0.19837085900772885583 0.093802219223054802977 -0.25407181335854506221 -0.24034944144143446931 0.36630432619064517974 0.0024734750347976154627 0.057831516958331816158 0.085878983223412114212 0.42817274003675276361 -0.048273991859462003773 -0.035528023263100970419 -0.13478035984294045591 0.4721123073158648431 -0.28547800506281539867 0.10721944705912125895 -0.096445654730681285027 0.3876417103587969093 0.18915666980284698284 0.27370709901474621351 0.03991697665885815538 0.4583826636003845989 -0.1049621618154339131 0.19507232002809274385 -0.10850431621076248034 -0.41672687467236096959 0.092009831485615214963 -0.014022501104515723916 -0.092091768443217439377 -0.39429270503898217193 -0.11000344466735451077 -0.065252910893825524785 0.0007143709970003791522 0.023680033869419633147 0.20530775023226735532 0.078629083808009189727 -0.26169282284462330734 0.15074491594061353861 0.18709460813411030178 -0.019590086724344563107 -0.085392315591704195943 -0.010946265364046695728 0.099658911106202938135 -0.04877218928129622294 -0.22188087522900559745 0.010818946499515352117 -0.20924488729765455819 -0.0024170344855038760137 0.089323893865005526971 0.43276031304760204099 -0.21495810350999924876 -0.22120633080151491656 -0.2625431603748333842 0.3231107442385467432 -0.036273237616822245899 -0.031933274567519667753 0.14094531427555856418 -0.09806003986991120025 -0.22872394336490026179 -0.2669105251559702463 -0.05311231461651224478 -0.031781828462264030688 -0.097402871967185861157 -0.088976543337378616316 -0.0027678053764404642219 -0.022161576972649723455 0.24995656146956896082 -0.2134449233478797614 -0.10433940148536927084 -0.16889759786754238169 0.29361009691760181495 -0.27052600468408199985 0.16888724517003536607 -0.30550799054991906178 0.23409172036643807746;0.0015697232039496098865 -0.13786697567637409834 0.28245111727622085329 -0.23116824050214945796 0.30803738465853436335 -0.20536010740936366803 0.2265433640428532458 0.060682627334051254808 0.24439168218530438192 0.034832112573632341423 0.076851612685612066822 -0.0094063110894078930807 -0.0062128099655216987435 0.11762605456078963073 0.11080978951152796463 -0.070867255984428209614 -0.030785618371385992109 0.0017379946117089418306 0.10810299625347816188 -0.12034339518414918779 0.061644779942706971754 -0.25210169270624921412 0.233868642632572038 -0.085829100784237513655 0.10045062835433941906 0.13572411261838801533 0.16392065724389109915 -0.11779071324733007831 -0.072585626734424563145 0.18439792031892104918 0.24873142010540916225 -0.021255099304290543671 0.021644314896585400976 -0.37443152726379957951 0.11795579422515679868 -0.015673175108979604114 0.14528110172601524375 -0.45765260032161642068 -0.016590333881616504269 -0.0062882786558696559046 -0.064948241650957222459 -0.20260513083177111859 -0.07977748454444935633 -0.12179101750259137271 -0.068074590159957440449 -0.061015459280285462562 -0.25593175778768006978 -0.32760700008970883301 -0.054669610052453826432 -0.17857455012695278018 0.1228454436095175184 -0.079373918059528855706 0.0091845364331672001146 -0.079000783931533591353 0.071362147185521904169 0.1393313112059779979 0.11847902887781862347 -0.00013955615547279543506 0.065486122293648613146 0.17495020411762474133 0.035048111760200666154 0.13898215412488998388 -0.071417746857205588462 -0.16279113469509043366 -0.048528641070585472328 -0.034070145118128537798 -0.034109833411972954875 -0.094443362062892374786 -0.091798475432952483799 0.0017349924829322973217 -0.086637346333807693788 0.0048880762932710028479 0.30465099373429266327 0.014400960730248144048 0.11506209002277459352 0.06637018054156192115 -0.060221850434289743437 0.15331556558909939514 0.019864799154372749651 -0.14919801297556600783 0.058758342189657628007 0.16822820083822950799 0.11105148813782708683 -0.075796976017961190109 -0.069065691204143866977 0.34960844019913178693 0.059576185964969899378 -0.26310039074863705855 0.020027685478322260204 0.061169465544630444165 0.10291922178102543006 -0.065614650798886745009 -0.06947365253822314346 0.379464238122418418 -0.41621036784168652378 0.19864505709811616785 -0.22701486536996767773 0.30451337904187630867 -0.51599246503044560175 -0.020196423350811312097 0.025584041050086041291 -0.075531362748721908584 0.068311876333383009241 0.011587211008470137824 0.092881390016565895662 -0.17588104246108610118 0.096939442698717667724 0.33233582999192284868 -0.057815911524014607092 0.17038638199113520511 -0.10655433127607591426 -0.16458965558733398837 -0.2553892638331787257 0.07492969194317414261 -0.20666560038010173272 -0.14373648987383591535 0.058724853277785399319 0.021555720687120701051 -0.25647002003973201623 -0.12327589779564895878 -0.063643843297079435994 -0.3196176228005530584 0.014031610882873553695 -0.02782745104098425723 -0.17236112859730293168 -0.17675878503936257036 -0.070451778561712974369 0.28226704501788102419 -0.32521927728884597597 -0.26806055632884484563 0.12097370464467366302 0.42580030276257552213 -0.69036196933052040858 -0.53932847105177328384 0.41993749623384829528 0.3205226167783430391 -0.29776230153051536087 0.19204347488695666657 -0.19466522755305820658 0.29539860778775794969 -0.084801273656711889659 0.22843640084698721426 -0.20745297143151339436 0.42088920494647241721 0.36035423526210813572 -0.11798061114156735418 -0.25039343612061942812 0.18503607976150493464 0.31808845750828113053 -0.27008087644565836882 -0.24986054339108001998 0.0030503708638086909737 0.0032550923236690744098 -0.6320607525092669654 -0.023306841126180918161 -0.092621393584132738486 -0.1141460105400451952 -0.75008394362536401356 -0.14401922595121652293 -0.44169108451709293561 0.44745799538042457799 0.58802021205482390975 -0.28259477165310337154 -0.52474490329441547676 0.22456735548285186588 0.14331670087066444852 -0.36758269512584312855 0.11952587788949713132 0.084485164713899316147 0.099503342947811462826 -0.34345980879013204845 -0.015553791140161097109 -0.11929406063495047452 0.0052815838445935863257 -0.18570985226986988503 -0.62724388671426145603 -0.39615459833141319912 0.34559966318411750041 -0.29471888795436790298 0.21773942134479420951 0.030570521319266876631 0.33155070990348700644 -0.086705948585999614853 0.27474912738752271801 0.053763766756360402421 0.15157544942855721848 0.40312085858880125633 -0.22493936434941821934 -0.1765962225433852506 0.20704655967503415859 0.043532630401787279772 -0.072678975527130790235 -0.066134449807594600235 0.27215510040595414232 0.18976531864405302152 -0.19866374087030896911 0.064744851608521156172 0.06255759234732126417 0.086998489659780603445 0.0074168828703764042715 0.060670194215763646739 0.0032028876246737946441 -0.14252272301107057895 -0.19427814420521485883 -0.071941896664839299902 -0.313418731403175721 -0.17610820987885852928 -0.19747139751856476741 0.031233289039626230266 -0.11131819526878566906 -0.071465669357407848872 -0.1445074021373781159 0.10820595650060911563 0.023418903978054347176 -0.23900464942152088721 -0.089876350367564583621 -0.069519709632392304166 -0.062271466178409437542 -0.009241329826367487843 0.21094619024333347013 0.32748109768455457846 -0.17287145144225429805 -0.12020417717518522283 0.15431970446427442645 0.25511251115129335298 -0.07947311312076903167 0.35033020345625359715 0.090188518775805304184 0.408818709945024783 0.12771466765404593247 0.3669167258091037831 -0.0093094720881645963428 0.58975730585994690092 0.079616331576841933848 -0.41315005591606834834 0.203359965640372925;0.27817132685183126872 0.27619660902733217389 0.20561500411693592327 0.30595329361690803971 0.2732459078931570029 0.039058552590010786609 0.3411049183916752825 0.25566298138391058137 0.26940702884348416424 0.030545715940665820604 0.14182039552300512719 0.10184306281597485522 0.048111222731967398514 0.11710111414223277337 0.10370390952229305292 0.15159056556172811892 -0.025033807834304033779 -0.26129118679680651827 0.063737435898014088709 -0.23081198884938741722 0.055138291365146196998 -0.27622843664169816069 0.175676981120555048 -0.11359026155170705297 -0.0050621221091133594694 -0.10396164409845026766 -0.13369673045993654692 -0.049626264214758630811 -0.00019554199806810936392 -0.050501269118811191461 0.081351041108357405318 0.090790970935764325755 0.019587232992852556673 -0.19418326297737117936 -0.058674311878523059682 0.10065326338232473413 0.063996541913380999844 -0.245091194596701617 -0.12549998282667915173 0.06093624664629571086 0.015108270046032473005 -0.15183034852049140384 0.056768406055668088617 0.076112064718345945336 0.018914812903882912559 -0.11623756342791675966 -0.20604232562988317179 0.022485673936935828693 -0.19262877254768312474 -0.04145754319115812353 0.1233246759385126512 -0.097367901341837537199 0.15660222767752327022 -0.013215802665414453157 0.14561606542167404577 -0.20713511900037204216 0.152715310215434108 0.097015851163348862385 0.17808788422379628891 0.38854036035019984263 -0.30311351921539964049 -0.036444682400450095772 0.11397257419029580006 -0.20835876951528195522 0.048950625530846558764 0.032698818562331130599 0.14880160221835997403 -0.20997871277231860976 0.0012207980308416410253 0.10005341978963000482 -0.14845401082660980574 0.095722240420358026269 0.33852406120120515087 0.02239715549767680447 0.054125999001356929485 0.098316916999512088404 -0.093838062782609241164 -0.16203438498783426236 0.07715326456900993557 0.16316850887553810412 -0.02452050344801711898 -0.15403238679975170267 -0.082976835637549192781 -0.0071528980337250613539 -0.40913324609339568605 -0.2744403827184876965 0.23805951097823618845 0.22774252770543623736 -0.37274223494716884897 -0.32104957213573770414 -0.13838987067043356793 0.041627836442428532704 -0.52086036592062923134 0.22378225668334381093 -0.23199367934228268262 0.16333728738984817919 -0.48703215322213472271 0.21521571892602620046 -0.31109067890242309007 0.18086443115890205036 0.0064460106657400605829 -0.21562139867139992755 0.069373233009465837262 0.13251090453906946842 0.047064437194530912845 -0.19466615197618053479 -0.14683221708221003143 0.097534305701461501692 -0.25834995397660964755 0.1552482689897564383 0.010166177739115673379 0.17067308359125593631 -0.20622894094279184407 0.23514014144945938334 -0.18747738110223294283 0.15961915653142827454 -0.02561664979222914168 0.28561144077256317431 -0.25126939115529728364 0.063200041505129811448 0.068988438769416571272 -0.27432817228970846068 -0.18722591301365404393 0.19545524952600892843 -0.2069980400100077389 -0.16669353529673469616 -0.21504415061078405169 0.13088772608822712984 -0.041146960969649870599 -0.13188985127377006457 0.085370300270742507931 -0.021633133647553013518 0.068802443568885748859 0.016538110595415579651 0.21816215480819331485 0.0539836639897697812 -0.022802412005597856581 -0.03295976538948873491 -0.041237442691788507576 -0.021085827469719310018 0.13575454629095934367 0.064081852825634819104 -0.0097063188852206886553 0.1723521647647118793 0.067573332871309232939 -0.13481301248193428011 -0.19733940614746658948 0.21745005640152720305 0.089520260485696584452 0.10886488740761730842 0.0062141894446557177992 -0.52277470362494060652 0.078496394037120317821 -0.46995744223959579067 -0.13340565103510029776 -0.38283408899310855666 0.066500697912824660585 -0.3562055244431595602 -0.16641577869823934166 0.040158503532408990067 0.22418319538434242078 0.22454683375343598151 0.046001121826505536605 -0.085346246182981894135 0.050453489193033364268 -0.0018361524334105467846 -0.28017194470440193177 -0.21200388754267615599 0.0010344487153658545389 -0.44690661257711633558 -0.25261320933938657962 -0.22556859159666148296 0.28869890568343070658 -0.19727956889057957079 -0.098754413043123115412 -0.43628986200352148916 0.014310499623912134592 0.10381269173524312888 0.071306726436748721354 0.098924095707215775608 0.044079041685477486634 0.11932915312696398824 -0.074684976464327923473 0.11900857180166383997 0.046370841473020833756 0.13152766634265558587 0.036662764352689870828 -0.060677052960637301027 0.078742554342124002065 -0.1413943475406467809 -0.24537934274251685385 -0.039311280371282855683 -0.20012191129956127811 -0.038316752130612738436 0.0049758087037001024963 -0.089261691875076834557 0.098096781423216775075 -0.39081204300248117978 -0.051460411190150857907 -0.13423268830142870423 0.16353672022600654334 -0.095113016433105546099 0.080349416217775110338 -0.064563260364008404069 -0.098486560219998034449 -0.090823134735425026243 -0.15568598012796033836 -0.079648426988935330795 0.19692058200745210517 -0.077993373413558109153 0.17766001845292178629 -0.020062655010739980505 -0.073111965199730941101 -0.020311086272076932929 -0.04296841045195576303 0.10433241457034946043 -0.11101215638985019452 -0.075681121529092232336 -0.030975911104138515589 0.15646891487315300884 0.16820045047118423187 0.1720963357465426502 0.17173287055487729269 0.12519772511465382392 0.21397201107594571168 -0.02522297849842013856 -0.24227755551746865681 0.23148259205634882929 -0.16590909971791961697 0.23482246327490380322 -0.15678090072915096265 0.13017573099896134758 -0.036305372846835305689 -0.019241869134357211107 -0.53925476572518737939 0.39420318356129713244;-0.084413856517214655439 0.37958467627516517817 0.05639178561610856677 0.075044896728597043634 0.087483559017822620785 0.3088666004280768429 0.03593773110842288232 0.10847555674012893112 -0.014505776134077818032 -0.15708046000938510889 -0.092176766702144030674 0.10906281482621880963 -0.11500054174615846614 -0.03522915429029857548 0.029351580229899407182 -0.16239610142648269742 0.13060286102972068489 -0.069014271323443662776 -0.029484857425735779696 0.087906652435550944324 -0.0038198369229955771685 -0.098467045366888050761 -0.23409099416998485621 0.020862892621156158696 -0.10101328853102960192 -0.10469233416018770833 0.11397689664621910022 -0.20496648966605440778 0.018568143562417989412 0.041996945721896786208 0.14498863043332785305 -0.10288143838187883972 -0.2490174428324543332 0.22126299610475819168 0.059789661341183582277 -0.40353500839431466485 0.038789832982682626028 0.25896193861043342865 -0.01031615008488780301 -0.32205559394549648777 0.047657123583986153725 0.14481770574415286923 0.078250122008836547893 0.12910512591218203937 0.13150014214203345486 0.081303860546748665805 0.041439167891140687994 -0.0033410483464893898052 0.31548482470907368569 -0.11925021640729591144 0.1966328714389809218 -0.045822345867103909944 0.077552329751614898501 0.019000292762804116969 -0.048230230572777296749 -0.18292385588620027614 0.074603350461479561728 -0.042262458417049876547 0.069351409413098974444 -0.25689109354151412612 0.08818204427794570921 -0.30512031990826499195 0.15219835695425648625 -0.30846630189511864417 0.13193320588259180304 -0.17340384829913427223 0.037351221069198345393 -0.35962793620511179782 0.16205979323355729216 0.014397236648999254399 0.023272633214699987858 0.082964626057639753731 0.082245182046448719881 -0.16107170421064198607 0.0375302613975186522 -0.021989197521370233701 0.11256216620237492754 -0.15421479185205058671 -0.031785998839142251549 -0.053228408435261505283 -0.1788532659152837212 -0.23867558306677011393 -0.16227046964731584033 0.1172436179771132736 -0.0082431882976566530491 0.073036929651821916321 0.25668441137171477129 0.32537109449345252843 -0.05798404697329288815 0.069123041499027676471 0.18128826309997506105 0.21648674207535742453 -0.15429219093600632373 -0.038541708601599458661 0.088870873430021757322 -0.091651393414881709987 -0.33531151352867760718 -0.09946490806693338016 -0.013975591803496478435 0.018427939719865744223 -0.028366732746361769668 0.060808598639692949817 0.08151005306391388705 -0.083953576302904966977 -0.17844303281189144439 0.05814752573288320403 0.12958054236299482165 -0.099014692927604119888 -0.21004905368166684743 0.060935342393426579488 -0.33096553136901901704 0.032800647657587424233 -0.41076629527222280336 -0.19324311866288193529 -0.19744194349418089929 -0.17476340814286220327 0.055307540633487313475 0.022287424946768448486 0.39365651288365616223 0.018896495090621329149 0.013406705981399272276 0.30015399240899603983 -0.049486694449293745779 -0.16128872389210538452 0.081545173196593781495 0.13338541638147197177 0.29157707515607067528 -0.34536148752121259564 0.28370340388586295921 0.21263022295506600612 0.00027969384987927109172 -0.27172116983395772083 0.44376550571512263232 0.24917127545171421921 -0.63698767813834988871 -0.035268552473476565134 0.067253717191345777082 0.019519787525358597152 0.2324321397562722491 -0.17103046331867366447 -0.15779993826036989302 -0.0085114367425057450844 0.15616899629475478051 -0.26597482160440499843 -0.43708877375360655204 0.047723968536774519222 -0.18070199178002482876 -0.25930899490923015049 -0.17929376771177216177 0.010343145778134365739 0.039439091790241277702 -0.27117000552650566414 0.12478322367579630647 0.36379171149422873111 -0.076261214033755297947 -0.20116382437743535183 -0.15822053123239393502 0.12098697776848853225 0.023728435887911989571 0.43042747898057859279 -0.023765372601347416193 -0.23922603696941091567 0.31233091280092900588 0.17958062489074974599 -0.24377770439375143208 -0.22328668190661588033 0.29525742332982035654 -0.027134433257789657146 -0.042557986767367689263 0.098967221116627118738 0.09475651615483585144 0.1730831972361973059 -0.14979298817875774663 0.074502046985857051098 0.074204015011551202607 -0.21819248087913203915 0.35612801453908238258 0.018383512849673766532 0.44719770768746547329 -0.19245316572511925179 0.36355896510061186389 -0.040808047825427871957 0.56807817958172501793 -0.16452817676806860692 0.32221065863259495954 -0.018447965430398779313 -0.025161356917561480961 0.31735713190278130869 0.15163231787331599154 0.11916333584249708122 0.051882594751390481713 0.1304926061678301219 0.16912721450571602255 -0.046905784621713922378 0.10256138912664831964 0.39702503680854162038 0.16652513418774242404 0.024625208386306222247 0.098276354563795090269 0.19642273502614360225 0.27743126323286099177 0.13600120003093160714 -0.080782111703885578491 0.022763694777573641875 0.028726587711243246198 -0.10854957368696334374 0.045199498660004867878 -0.058378107633683118394 -0.28574279547115732925 -0.19357415344603795537 0.22029644406720802485 0.07290589289464363687 -0.17258683596821461359 -0.054827771293771775107 0.17087867000496062553 -0.00055484248186563652882 -0.1209483371961443815 -0.097800892984859735813 -0.021065473250581109171 0.075637540532340716282 0.0034860724352404341871 0.066209276696379992799 0.21096021478543919292 -0.090790155782369319493 -0.027503640715160645319 0.17573779662252669853 -0.21483191086388284119 0.15164230199686964951 -0.27714394806499087487 -0.074444606506177388172 -0.066455205193230365568 0.070381915222636856622 -0.15235720908209876567 0.031248980119566747982 -0.092208905549045760974 0.020084401513795091532;0.095335037534391903202 0.089354618353194747993 0.16107617535787249752 0.16071482717832902276 0.093792353979310419398 -0.15142859198875335824 0.051691597700161677487 0.13925264911926110711 -0.025991620228721000474 0.0022604198095491070605 -0.040545071520985437319 -0.034674564341091201891 0.098616967836420571514 0.16170103828259846379 0.012718334059927007343 -0.037886364052922394396 0.058153338009700440703 0.12372471652617750282 -0.051054481238900037421 -0.12755010881261985567 -0.079983822310113833476 0.1804992078930621191 0.12871383433831576348 0.054240956889506718175 0.10476768449917470138 0.092743672834642687519 -0.096137969968746975202 -0.051080985698227200642 0.18700822339159361984 -0.092536180730826672614 -0.040331692243687745913 -0.078967720826354420582 0.12503919038304839306 0.077805627075004601956 0.0054666385015589066126 0.11680328207162107845 0.050147300976595005073 -0.2355221799244668901 -0.049294356503514581702 0.0095071664828459828689 0.010122285348714852096 -0.10360148630812079928 -0.035634400474470882825 0.12980031191446325667 -0.10883236994973465028 0.044160744638609618351 -0.066976674499773791727 0.056984909739368524995 0.057950214499190522144 0.10792257658976413259 0.14939675607395844215 0.035165326316817090146 0.063747459916672966074 -0.060039308168200848648 0.15952224249509996956 -0.11838942926138706913 0.16454596741540222782 0.030111659043419867349 0.064842395831406093865 -0.034932422158136501589 0.088725752120619214014 -0.026371409996834287159 0.12798260881152209723 -0.049141424088028316797 -0.1220648388928896183 0.25219920229811426671 0.1043739886105963105 -0.091288525520584640205 0.25935380694733767282 0.0078080016591809062176 0.10659061896967758631 0.17307424098765125664 0.10121909670913149804 -0.023351581142730309937 0.20906324514360699607 -0.0043065910997285433703 0.00017963781034291724037 0.13583167730200851331 0.21884220470889600985 0.044832463534880996614 0.19423272441432642976 0.14715488530447218274 0.21886903563496562519 0.21131649856981743474 0.022428639091206761108 0.1226548847256243302 0.18719040950332346829 0.068537310738660747744 -0.0048319530691446907836 0.20431258487495812526 0.084442602330062760396 -0.025801263813248181966 0.030537723856694579116 0.27722704988942548088 -0.14796970620772520455 0.072969695640428045014 -0.032505407918639851739 0.23226229477010548741 -0.098143912945384104152 -0.013400939149464207237 0.16234116189573730149 0.0028313077424401401037 0.11297304155083993937 -0.082010038919341415875 -0.040089166226581610109 -0.089041049209614489546 -0.071872682877646712485 -0.047628889660234798031 -0.01427540114288317237 -0.00012669798970967494252 -0.027695916956606444342 -0.061679773378248675675 -0.20704922698064548436 0.012199781603623052403 0.050922948265761339148 0.012927237423848041142 0.06654795587228863607 -0.1506645030920376882 0.13393429029134587549 0.12668123152816468391 0.19986413292543378506 -0.22389840064677365983 0.13010760146790195657 0.0067865894186823517986 0.0012106392115947862964 -0.0026200694879044655709 -0.031149849999400569533 0.064173156682450202548 0.011320144415775312483 0.089546494052266667474 0.14674718154657018232 -0.079326140468100075909 0.062591644803688104015 0.11955765717414801319 -0.015524376310575974114 -0.055476766773937861987 0.034666540606042635375 -0.22486313070827523841 -0.044792439181210688681 -0.12690412224705602262 0.071883099795361643514 -0.10553489136942471871 -0.050871122502169949242 -0.093855903203666490864 0.029038191070325149873 -0.068678785635461397918 -0.21931781800605723576 0.07497084572196008323 -0.018978876289806840411 -0.078380627431389043869 -0.24492069721440595798 -0.1673643585140272283 -0.12485747942554582812 -0.23876027192841950408 -0.1739616602491416697 -0.1416351464326272569 -0.13408949115208360081 -0.41332706634849686322 -0.23012127916900321223 -0.1409707155438945092 -0.18095615524326086332 -0.082573612998246948003 0.041220038779987172584 -0.20160008157302630738 -0.093939527787758894672 -0.12339626426093749934 -0.025879441340308152741 -0.11836988008280831253 -0.029397786359189815447 -0.025129611808957546398 0.032165191781499097301 -0.2660944761788281987 0.16794890790587488349 -0.12807248017504693771 -0.090987293112598774392 -0.22693795042884568058 0.085305778278923674596 0.0014889932427816199821 0.03955768224586493631 0.11176101435283411489 -0.11401393179404821498 0.067189141076526445739 0.054846459742085497402 -0.091349242606297967328 -0.091787757315353671328 0.0021396219293279890999 0.15324704221835730444 0.1136852503412913995 0.070414686742647655815 -0.14064996402863402802 -0.1020833085076430502 -0.010800070699816281469 -0.10012231247355811437 -0.033052097198511119769 -0.098521042240824377445 0.02221637342885316585 0.080347814112726220759 0.017621678249696948876 0.061399668475692621705 0.12573417123724942024 0.15011269763328261018 -0.085621031019878710011 0.16178519741504865381 -0.10333373681731761184 -0.040074862151984108616 -0.094044464691688520186 0.13339855063089031684 -0.035915021431997512513 -0.070341077355478634492 -0.088229347575118119429 -0.21378066909907539328 0.10627605783481784696 -0.064564414987348522912 -0.039418908387223408618 -0.010108693486715315812 -0.10090136523490557396 -0.091437312588825037096 -0.049323850514638493958 0.15248930458925788467 -0.098742586127555723174 0.17165550084300651434 0.15675467870213546928 -0.099194917376461369529 0.094796612393091284066 0.031387040519754931533 0.057152480337457380044 -0.073192639976357193321 -0.14632976051897181313 0.021710300319258673402 0.038927744839655227527 0.1347921321548996576 -0.15749190498836238006 0.093017403766099321372 -0.14050699984360184858 0.0094170417546287216171 -0.18002705848739861128;0.074017794694815022827 0.18840355466277358687 -0.21013546189123363805 -0.14254641634726475385 -0.074833758522201546115 0.12681897166170350011 -0.18081629672494792249 -0.011539788648343299662 0.022740030761366027134 0.16363229482589630726 -0.1073051416166120875 0.18394717276313851673 -0.030478852391665409161 0.17148217161019643773 -0.0094570637119828319939 0.080672032948904709437 -0.082432230013324447881 0.43207363821516547864 0.049241409405828190371 0.14414746624423258048 0.039430019263094820414 0.31879268699135165921 -0.085961023997666058394 0.23792578590512949988 -0.048517050152754016834 -0.013963755934620670357 -0.16023196987790661039 -0.34587151855833353498 -0.2857406142701627294 -0.27873170728483487313 -0.093355039317909074836 -0.053397119771200554639 -0.29352894007568708368 0.41001771860656927027 -0.018033687476162432034 0.088633677059225035588 -0.10856306793447223491 0.37671002273918441361 -0.018758680859645045919 0.048964188868617211647 0.077952256613754461467 0.031145398395631858357 0.093947159685805067819 0.061820243230429922088 0.14786087010017692767 0.046616598177384747925 0.13819403488167489313 0.03879023621037809566 0.069805908593014942554 0.23124888979067809158 0.17342541952858891996 0.12268995122216196092 -0.16098071255451559813 0.22932247982850861856 0.051703028530821065756 0.1802108760558663314 0.060833756366540071847 0.1141976559704232369 0.042862344247362162142 -0.28088445625698460484 0.13344413572938201851 0.039083711530145240354 0.13661229595387222591 0.044778542542779874169 0.20665143842853819778 -0.215145896695497163 0.064386786048730479393 0.039695806134373498586 0.1352786673436916498 0.1557834938391333135 0.050291574921362422468 0.27405709763833280279 -0.066824340610828161791 0.049227424619609189138 0.058533028164455956632 0.22207238782294291823 0.020409734343152158287 -0.12158568861572970066 0.139141445418376003 0.16308431434305994956 -0.1747527819883787914 0.045878009708376583931 0.098070971247384813863 0.31337359595750369223 0.18281707221473886271 -0.14161732883922245607 0.064799674636533466376 0.16327109663161121222 0.22572561824705453248 -0.10181163075454070788 -0.1148280295461181072 0.27200598075101933837 -0.074195129767982634372 -0.23585088044678645391 0.098727514704195939998 -0.33751338990968421383 -0.071310319931688889716 -0.26421793183811487227 0.16474397583886149499 -0.241873221849536163 0.10255820633900843142 0.091693068689364526369 0.098755243196631967151 -0.17651607274271322034 -0.1402627478314638354 0.28945700118752776264 0.31467397243443767652 0.083353035797971722354 -0.070109914951484678114 -0.24898077810377278185 -0.22708867050716413649 -0.15950520596113595961 0.026729626233473798708 -0.039239357389687784528 0.071256780567246366664 -0.13870533707192334028 -0.012026920521117846763 0.061641351670627626824 0.4998234463379461201 -0.2803843776700459256 -0.16807920680113250245 0.056150838936229408027 -0.0028311456247725515917 0.031951070549799467924 -0.1464983747910985068 0.031703595765432884823 -0.21814507343994415933 -0.50154656782468509668 0.35030922578934275968 0.35347438570928035872 -0.22708154755474635467 -0.26203310926064171671 0.42732241966695305724 0.42218039005043056511 -0.63560903106627864023 0.3123283300202229773 -0.41937606801343713103 0.15565896121504946281 -0.27377663482618908031 0.24087242359482677334 -0.21259994803935308716 0.32391268229694175629 -0.39356592263399320375 -0.29113430433614750914 -0.35619381420141849048 -0.26604854314478715294 -0.1322015092513158796 -0.21692031599102179484 -0.27612144263739751837 -0.11312334094547901731 -0.017054507747908960458 0.2396173278820403485 0.095059103685576087917 0.44613232671533226137 0.29291632982076437619 0.1035756907004681121 0.184391517184173237 0.51687173490137416909 0.33386416978060334815 0.65663102295552933096 -0.13144249046648434631 -0.34239116063971747339 0.63244484003601331157 0.5399659605575791721 -0.23462398908526585495 -0.16684952303837438659 0.63952248838272507392 0.20592877920403132586 -0.04774806565162709876 0.46889030490173611021 0.12677385602469956605 0.38422773799018433705 -0.073026350255232921893 0.28201410548849348281 -0.022831135404783597931 0.7291858443477858831 0.37722889206974036247 0.23678956797864733619 0.47580742322931940391 0.061685385561003225341 0.091490768401928435072 -0.1122351718296013684 0.53677913394784237955 -0.24756606156237728755 0.36545678440528883701 -0.036633811193200679912 -0.24446842744098429279 -0.10262768428566687584 -0.10021213044561615158 0.14305955457099031602 -0.031835350283802486826 0.2072641593971152052 0.29067119812694236503 -0.22846771391250753069 -0.059571573551085575671 0.2085443309781220278 0.18983375188014223189 -0.047248092050216364268 -0.17310824022360760122 0.17884500333225067381 -0.00039821235411113473091 0.15998095717958421558 -0.055708649061793770463 -0.078001563860728900801 0.051136464984506850573 0.15260264617288341049 0.10786042749248526962 -0.067337467033772177571 -0.25530406760912899289 -0.018786406534932430235 -0.14525772449035292966 -0.1464152700198401158 -0.3043554609678065237 0.020024509438032994657 -0.13107558825497489519 -0.12895249566187338974 -0.205269443093020032 -0.1814104838496721217 0.011164141494029399676 -0.18498752878332630489 -0.29648319931576916364 0.045542132428311100922 0.059010190668275376569 -0.01588765880802966643 -0.08505938971528546888 -0.14688258579740076648 -0.079392143846231152948 0.1431223938852786981 -0.29207486242875452254 -0.09968002002981209142 -0.11759730790339550932 0.14673596541902675372 -0.53342106445324100061 0.10036343746781936637 0.39477820575896371835 -0.10933190035193091072;0.0029677471947805811672 0.20842870764298757069 -0.12504597223552579854 0.077470903124250159455 0.16984139523521962767 0.061754033451044833269 0.12944174374201283806 0.1525593155184244154 0.0048502458384493199461 0.1807260374660687452 -0.018849937291127546318 0.013249310259335645226 -0.044035263318427372847 0.21333034414528542766 0.17605113515023718129 -0.11983720628619948245 0.1233056482680008753 0.077660998851705714818 0.039319558031484964922 0.15484792395886434746 -0.11523621359801777819 0.12581520103474214123 8.2997394114510576746e-05 -0.0095501840518201520924 -0.12320711335030876121 -0.13851101770508716937 0.058043035785619818967 -0.052117672308809134818 -0.0033422256498876227668 0.11427738178583836393 -0.09911965033680872339 0.038708086894455845384 -0.081594929610055655367 0.035521941757158552455 0.13274167072716355764 -0.087454676751147611413 0.12786536999900138811 0.00097450731183287668535 -0.019263941395180981392 0.020655716657078149884 0.01869637967385668828 -0.12012591816479070705 0.21026138305019628771 0.16061348043477452485 0.16002085218335720951 -0.0066842593209561667125 0.045647434505122215509 0.13978325348312906073 0.020430733006314788502 -0.12661204262737577042 0.0051707964999011830215 -0.060026308251937665617 0.10141628821833897911 -0.070122828023778296935 0.16816701318502313978 -0.0031331437895904617162 0.12786142908016534525 0.078293035960370446769 0.13724842904682318934 -0.18986278651667901074 0.035333209230072680496 0.0029259777463722415336 -0.1109689534176972886 -0.21800912273698405675 -0.082981960701351276111 -0.10686330677310541815 0.10504967409779636389 -0.013222537839761175013 0.071185739653152751982 0.032585892538510276284 0.099455583298054053842 0.096788762278829196251 -0.152904749048637989 -0.11477337416221296273 -0.047525021317563607981 -0.0068703377260041446212 -0.073004142020527490464 -0.01745659079583394141 0.10600809988557513552 -0.11708934268871569462 0.15108824352303518168 -0.03794781514654903265 0.13545964383622427496 0.0856314945271329786 -0.072468178349553324935 -0.037414310750064780353 0.17734005334301283785 0.035365239848192751848 -0.066871060741207383193 0.14654970545863801878 0.23369852481904965225 -0.019869679920931037492 -0.068757673198074797938 0.057645458067048668815 0.19139935852732387067 -0.13062876428677866469 -0.085297949430984384978 0.17265705409916171087 0.071491743030808241333 0.09301190432206785097 -0.12708448921191561887 -0.23307012262830800742 -0.20858250355168322931 -0.20388209508239102385 -0.11838097231458545588 -0.12512725297055474205 -0.096576301116665611013 -0.12013634834056097223 -0.082919071346507208786 -0.063207906986564296736 -0.17707352648285015762 0.099909606541370390986 -0.040840463213464524295 0.008280124102505399819 0.04763799849830613331 0.01503247717571360581 0.19169310857894761302 -0.23977708895924967902 -0.0084255917373826962058 0.0017539229380015188952 0.17216342722522842701 -0.022877367849053552307 0.21360856498991015462 0.069166298117359553688 0.21887112406840480983 -0.043659465742829077495 0.00042260713639071315062 -0.032461763700766144147 0.13348480880224045109 0.14123047796812163157 0.17583894266783622884 0.12644537401651395614 0.14029726861677438432 0.24216215880157729301 0.038266707599470983769 0.016743651756976764278 0.20738492031923580483 0.051454749349820742832 0.1315184187939859306 -0.083742741364219802636 0.024663228627234690116 -0.1496979685029266316 0.16122148863363255922 -0.095882125997757791658 -0.097135173806774971483 0.10039617595906319414 0.10100064678784499705 -0.063587623782891608548 0.037029178137353395417 -0.036698461432296825002 0.1233657338832521988 -0.16309686891493216376 -0.14769482838854630646 1.426627898015497874e-05 -0.034526084142953508693 -0.020598256612303657981 0.08210528742936190616 0.014127000916266530331 0.062369680726908842405 0.17306479269087174377 0.04601315019021808006 0.021273815875433862294 0.09389723997291758717 0.22663659193619825616 0.017638036092232516061 -0.0067942936144437101817 0.097251749207310861367 -0.13510529908204638172 0.025784312012755675192 0.08538922172592046389 0.19287849842426346703 0.013335976772387372197 0.10241950459494202075 0.064915151989717895242 0.16493864587224493778 -0.086264501169488375099 0.07127930334989587835 0.035039678977365630586 -0.14737343835931071556 0.04634179734471233908 0.087300926452363536434 -0.073768589927719896426 -0.055891386357697504794 -0.062163780971494150829 -0.008154927280710372664 0.11368204662652613146 -0.19955439747751213542 0.00086748085039604970296 -0.016625996342457430993 -0.10397004235213000434 0.14361933555452266464 0.076407268025782529297 -0.10209901004738972108 -0.11251972820020762767 -0.026341929466257400783 0.0043083357308680422446 0.014914158518108027243 0.027614210060246783401 0.0027244787425955599262 0.11476207325909811019 0.12034307984075830189 0.12258149091586911794 -0.030380298522407568618 0.021862926915446865422 0.04660687699231980119 0.066461417860039853633 -0.0063948113094485555669 0.032216595397914778165 -0.071577578200942473807 0.12262221084536076288 -0.03536516192856256624 0.085802021879257631132 0.11537522122082807807 0.067009356888025492505 -0.068494620342361339782 -0.050619242210907390567 -0.016366888233486628912 0.14055163275203791384 0.15209602291800913831 -0.044173933951159580213 0.12177417618736334493 -0.10507875421986483111 0.14961279901768151368 0.076595869666619104121 0.060151535955037076231 0.013923738384421178657 0.16179553770739477092 0.0054752092428286226397 0.035117407671731139251 -0.10264446575114559435 0.15103451645469972986 0.20405493161014523484 0.14191094793857367273 0.075914425718763028916 -0.11387918620809528436 -0.19032301091260692139;-0.05110093855607246438 -0.083718576196923424892 0.14531864625934287627 0.059974057364867459918 -0.070174201426452087471 -0.056837859906525158016 0.12769826834140779459 0.08970542847458268243 -0.098620949630153262322 0.021911140413728255605 0.08900614132393415423 0.19163869625656390627 0.20960355805681513131 0.030670283131067625076 0.095871847515897876124 -0.12324828135091393799 0.021483506533058579352 -0.10105472461568142106 0.19313975649350378916 0.027093068341162269974 0.1123883120535647262 0.01532285112777455327 0.14129605164345365731 -0.090768685633068182939 -0.0018540019853939171575 -0.22363591506577565338 -0.17545424615184201933 0.016299473361918000863 0.012451719671407283918 0.044276908990530321197 0.047682917933310496605 -0.13536677971170651968 -0.033072588652094295214 -0.28454891724407438414 -0.026355494848732483743 -0.21813935032922304735 0.030267465909467421853 -0.19444471835587406883 -0.059863775457598418506 -0.069788546769273929193 -0.064659755440195282317 -0.079124413577304181233 -0.10086123642317272597 0.016242943970206553256 -0.042793409962125050772 0.016966081194980216912 -0.1393984555188796659 -0.19161063256172167213 -0.18769173916953596493 -0.21403005342577566261 0.0072516101119652438475 -0.25116415568427302718 -0.066600443298288167226 -0.18273427106810627429 0.0086847749528814466302 -0.067253449743204268829 0.15802728971503565703 0.10201862140008881308 0.1658119595131476165 -0.28190112316957660621 0.051964975662521672994 -0.0072240633939644289738 -0.038754038518466878138 -0.31930944298925628688 -0.17224533825764307138 -0.26978265965515052516 0.014230583476555777253 -0.30090525865407746764 -0.099710923814987320601 -0.051456862766658853503 -0.15783606328034238686 0.04151458547463018206 -0.10375184293226850929 -0.035510373931366225053 -0.13463009646388870988 -0.1149495851777650457 -0.063308058958664231719 -0.0079308754991793597305 -0.03514982921258628934 -0.14177019501162907433 -0.033201021346092533804 -0.11427200582549949803 0.121003113255443287 -0.030346563866976181828 0.039990490466282210824 -0.047329445363170935535 0.12426573135391963398 -0.077207144890880916033 -0.043830706264807110795 0.026487244895164571007 -0.041772759727390113005 0.059067902365637851847 -0.11327906448270973205 0.1111691232478489999 -0.076509245876396153596 -0.13379335915572643234 0.016205224211731959066 -0.0080318931412545844367 0.16382191513752539236 0.010748075785703024507 0.013574889602751764872 0.077055422562580036527 0.11855154833240792722 -0.042334408522031796718 -0.15760816157615056832 0.017693252723097172008 -0.024506353049405966982 0.053360079006186209027 -0.00051398142804605308123 -0.21886812709869343796 -0.012629425262942913649 0.030142301419076467789 0.039844373307687731833 -0.085751911922569590274 -0.16747922270119289245 0.034281663797926180404 0.071255628050076555424 -0.083339498802807401856 -0.012678913719387395129 -0.045552842307516945575 0.15842452972265627653 0.034323154026878403833 0.00089824964360950200915 0.14573392342061006199 0.080064454060762527132 -0.13824229109622809819 0.17541229917355977141 0.072343386326450195845 0.17412814768675430321 0.15013507556646368823 0.095155970895530364584 -0.082773154240802546133 0.031146283761372243332 0.27594932580887926443 0.065787514233262983643 0.011669058236580336432 -0.02937946145584081209 -0.064387963942822909469 0.055772789951171644618 -0.168118103603774105 -0.15503428317696374417 -0.038104824605354435663 0.0080491157593140828796 0.10676483533404645954 -0.13911521814818328391 -0.048485859714344561877 0.10576653532881907793 0.017652673340941449354 0.053025478731235496654 0.046032073506496302973 -0.088711580685137722546 -0.09609674595700404276 -0.014821293780045471933 -0.28796786505743321438 -0.091188467253759106224 -0.002087754389598904612 0.10311144196870673795 -0.16442801173835364104 0.070736991233915164079 0.062737727179325797344 0.061536095775084259651 -0.041194412522244379382 0.14284642519797660642 -0.089064368319889730685 0.046699845248735827319 0.060144052756945044769 0.035784193839839162354 -0.28168947285578738171 0.072773625439105468771 -0.29462186054248973299 -0.099806696776028616669 -0.25420615512870592401 0.041277366531822720641 -0.2388519938692679756 0.088918453128972341215 -0.41134507919704782486 0.12685886047943639721 0.10324584586093665806 0.03125613614729205042 0.036645457699804324936 0.07257142445205551351 0.11030819950808544438 0.10095970945674785646 -0.022775754197237263465 -0.075065910750835102005 -0.034361408136265501889 -0.050198185587039971522 0.23499747961380193506 -0.022898427497748390091 -0.10734418054428460088 0.12157244984514097019 0.0092349741606269838967 -0.089360303988621408999 -0.047757711791384008237 -0.050549888464385406284 0.12968061594831495342 -0.024519576056329980135 0.20471099118175489773 0.016187778094630719816 -0.086054505893061170041 -0.13547748980916338168 -0.039766158785449888524 -0.15659928434337219705 -0.11916324009038298248 -0.07400965708523331299 -0.01229460624994221582 0.032177021692463309011 0.02808962767087175294 -0.063284437680201310883 0.12623673277674643534 -0.1490343134625524979 -0.0031812996167548115642 -0.28217546344444849327 0.16055392458223438634 -0.14622186989190566475 -0.021421864336092222292 -0.32244300585915819379 -0.076452036209898835417 -0.16847949269860601484 -0.10894838735027986831 0.10378360934577499086 -0.14445618989801059517 -0.036173482121253146271 -0.13937689616533321946 0.021640593703646526097 0.14208843247224137163 -0.1634155427821711859 -0.21519703860819749952 -0.11293111361191378317 -0.049868536342796650207 -0.30209284256847823702 0.054292084856695552175 -0.11001463094153106359 -0.016820155569571376003 0.079343375650184025383 -0.047180749841169170034;0.0030560912211495178982 -0.11913028794828232904 0.11649152005678875543 0.11124981972796314789 0.016364945619374803715 -0.035045264882098234316 0.045926117330488097634 -0.031813441516784363161 -0.025212570038048633808 0.027671142855433060459 -0.0061359421451226024355 -0.10615165250710495437 0.02936913471586658636 -0.1125372310700390871 -0.12818108949711884414 -0.061548287048261568488 -0.0085377416584840465363 -0.20394791740877615815 0.040026421679502433015 -0.1956765506548985567 0.039745720213245371022 -0.054834039581241181271 0.10206749922107874462 -0.22766195596443794535 -0.047178523667238896067 0.15479406093182296322 0.058180678824911846725 0.22092167757681394069 0.073030650003647071267 0.085141691704530092499 0.10692185601637214931 0.11704884571865699361 -0.0073335708556500770264 0.068270588024841760699 0.13303554458281599548 -0.12147197562333282572 -0.020994773800323038304 -0.17819702128313855138 0.091423047365816675902 0.067224893134430627195 0.1814426849591986024 -0.0035999537986439785614 -0.11844029862805977027 -0.059847852232413185913 -0.077167884087033039586 -0.1182836165240923193 0.087181826932915040818 0.086202768061161463842 0.033653469811260598721 -0.091664268763561568276 0.15633584685293924754 -0.19238497199969697982 0.032671139735840425133 -0.12157694990594547502 -0.11693936348391811841 -0.091823872044624499367 0.14883457321291054809 -0.12238953717049054493 -0.14103864810147875852 0.16564130934759449532 -0.22937321358532658522 0.03539472181894654651 0.13787102378719226503 0.23839629531430309162 -0.11000250554602462871 0.10947080851309130833 -0.11035398000516340178 0.037226548415685435656 0.018861683424575306084 -0.11921002359086212141 0.039887356931197943954 -0.092601574453088572603 0.11562134317714124754 0.018728582471729759984 -0.019132176110721509088 -0.017526849656116276488 0.057123832644489037913 -0.12958704369542295431 0.17324404390734682302 -0.0058227814839970247138 0.28124702630124942537 -0.08073268628313967632 0.24330932617802464302 0.060140349401500071969 -0.082887855650139605213 0.0050043522190065534497 -0.1889835240636787983 -0.11124352049764851813 -0.25687447643461669422 -0.16340700970884619592 -0.092944617479620628142 0.048551155607455070973 0.14697213328368333163 0.10423442077911410086 0.17618583369433457597 0.23870050715128038332 0.17414874427386117794 0.13326922943286972911 0.24156732518692089484 0.074442466982105687245 -0.040319660076627031331 0.0024739226138705519738 0.1448314770207259905 0.14321087788065089974 -0.010955698989267933022 0.071716299892298829288 0.0075800543233934137427 0.071708176329416922767 0.15242060377809882321 -0.11032245223723445571 0.17873994975001689101 0.041791220352862937237 0.36934373742692444553 -0.052693267165410076491 0.090552066328731820044 0.16836067717373173758 -0.13152484254625565474 -0.023446387716894827313 -0.42506080805596413441 -0.03544329918801179119 0.095741796694200909101 -0.053346458468663184027 0.035598825928371158334 -0.081207851334188202452 0.1113863768701155027 -0.20975477752125601394 -0.081791313943583077162 0.047549881927231474332 -0.16834172143725253945 -0.008521860790655474277 -0.17846408647279940474 0.074857805060797227847 -0.32509531897140842016 -0.29806288565795158174 -0.073642624173465717763 0.099027231137851168263 0.085145671376834430877 -0.23850416768304377735 0.21389288114353907644 -0.27065389046857146749 0.022145757335984547765 -0.11105326363334551421 0.15499398437053735211 0.28723684311226233001 0.24859704574821134271 0.31917423136638017889 0.1325458998904974206 0.03282633636723444881 0.23951749778994999018 0.10664206304364708122 0.40112943340261064673 0.20823755080837347275 -0.18525392253873526616 0.22713496987696621399 0.081723802189362565462 0.12823846835861477111 -0.19413069502191951377 0.22257718363245831972 0.03653156038345140022 -0.072009127428521196856 -0.1247603863133858737 -0.041977309313544215741 -0.13192433936191361177 -0.33417055788799077121 -0.098825379425813777989 -0.026982242144334638023 -0.30023150193038061762 -0.0099555342372344771129 -0.12524219972360597919 -3.8607101480350996398e-05 -0.16758685679974516525 -0.23933602298116785079 0.15275097771125065171 0.0093021327839260571635 -0.16224889360678970696 0.066097851600316878673 -0.1491065790151160364 -0.32829130765288777605 -0.20230795506087489999 -0.15304293455829920401 -0.35286582334304217312 -0.085641153309880410638 -0.32456818223705596882 0.16053363521831959249 -0.14051433864195206347 -0.10344973328188866724 0.0098651950153049311476 -0.14787003732320211369 -0.097131296992299956394 -0.1997645042736014287 -0.33133745254257185309 0.010003177087290371361 0.00060564163912112459198 -0.043649130680762704415 0.15429260961086585513 -0.20033339519557277764 -0.14295773461186589426 -0.33201774158678742932 -0.074318529725137999487 0.0050765242137807984127 -0.033067176337989938328 -0.032335091150286987549 0.062337076986450329352 0.17810804044209305186 0.051850144688025200101 0.087261489269157055393 0.20056959319436420963 0.019840653437940853482 0.19660289476653622365 0.15296261537093785998 0.25546195466536170127 -0.076666116827127137046 0.26689107120746469182 -0.14512478854773286363 0.10468577082469178452 -0.058661222843140396754 0.31915880765878984482 0.20924699428203119567 0.12284873412726055042 -0.1080041560183732513 -0.10913308407516128518 0.045006054752820018328 -0.041674902162203104894 -0.082100263073455859164 0.032783223440968081719 -0.11704718703482741571 -0.089550233546819901775 0.020351557974864365602 -0.017088242456631794891 -0.18108239023296854309 0.12161763530477859296 0.01294075719637677313 0.097789819787242798776 -0.086483366629964919525 0.10823106315497729724 -0.092652598110116349273;-0.1033931371603212801 0.0092054071241468703873 -0.090134404325136655012 -0.36554837481434721003 0.059549199986236388271 -0.015017906612362064839 -0.038159116011842270089 -0.39985650243929760084 -0.030112638247668632729 0.10938387560771976881 -0.032749343061395361221 -0.080367275715802918845 -0.10152865364193311426 -0.078608775401722508214 -0.0018042770329515357784 -0.17248452538235775622 -0.14618751423967504821 0.15327043038928958585 -0.12171426860090481248 0.20031668786604597821 -0.25261290037441119782 0.1036956188606283219 -0.21296297620163526232 0.39569114295082619126 -0.20704413993953207918 0.021981775503606002659 -0.058487191712160324641 -0.32167355984545487058 -0.23962743038096889769 0.077547590684936884564 0.0021366713981115404049 -0.14025926366012500535 -0.12395806623509723898 0.4519010092006351953 -0.13006027033109307522 -0.22768801940526600669 0.01036582037930877144 0.41673673546431450054 -0.12662603374126171762 -0.12529174543332577407 -0.15092967265811524369 0.21954578755481776731 -0.0063257184786137902327 0.24306905601096337466 0.20763061725126788493 0.14562038325160203689 0.10548492180040508481 0.10178316258560315966 0.037557454464612616274 0.0888427145038313687 -0.064010205648184742566 0.30155376312271081618 -0.31577021220479850605 0.088031654142448262368 0.11527978989155354683 0.19674185216609998972 -0.197602969951518187 0.10863147323365440755 -0.094604003692814825355 -0.15553405041643966755 0.35813406303204359249 -0.0013996955297233141038 0.15881659623099045331 -0.25399985062557861593 0.40826650806950037786 -0.20282301031011798487 -0.068706088062731054955 -0.18049927676783422692 0.27821095255029038018 0.28528189978769408208 0.13931285519656400052 0.056067463929591145055 0.066430304516929106207 0.027185235962589041764 -0.14646143843009987173 0.084831567811289407266 0.095158919914837519771 0.051128745835471257897 0.19577398583261623743 0.17064982622982516336 -0.16132342175023903219 -0.11256157698989531502 0.013492972687243830199 0.3217815760238861289 0.17582298660391956768 0.30840561882967404417 0.21212771285557094347 0.10848243596502449293 0.18976662133390470588 0.16974217824181500602 0.14440479057492364157 0.17478390607735003193 -0.25584154556209637299 0.19659222730539702151 -0.25061131552129695121 -0.1724053076417399466 -0.23850809742175052564 -0.13220720203196670295 -0.14893169320250149168 0.033123846440595912377 0.1507192939208117366 0.11842091376721647356 0.11316059838943298699 -0.37065890285710878516 -0.070217998149198462832 0.061198140783313328961 0.04772518135590908539 -0.010317938732275601724 -0.34925265871713312427 -0.017516356747247857628 -0.54041415704440709522 -0.038636692419412893562 -0.42562906640740150177 -0.082980319849815631361 -0.18114689482602180925 -0.090004183816857416534 -0.11743010462903878677 0.2387150701677808462 0.63208495045218771047 -0.30900189011436096642 -0.060480456216847680584 -0.062494692527147059635 -0.069724204076884080394 -0.22910324530915035512 0.2626777770432939807 0.16636194691014657976 -0.0058057338712419947688 -0.55654504666793480627 -0.038796933275483044823 0.15656261342980573592 -0.23164068316557784311 -0.37637550236357020239 0.37583725293317321592 0.2351119132158585312 -0.6395778660093328627 0.14319131305823179501 -0.40261424964826542094 0.31544819853036654145 -0.22835510919116616679 0.073123392114411225884 -0.1561396897287215535 0.14271066020218781123 -0.30773466160146356607 -0.45625280529028017229 -0.44304199759993967422 -0.082025444691802201769 -0.12955486501801938282 -0.27817629450210662467 -0.35163863351561863713 -0.041187908714196912185 -0.22317941297549209745 0.051766782403184996575 0.10551457386515356029 -0.0013501066134999450789 0.069460860014386491268 -0.090569465145448779797 0.0076251187833630447444 0.00090384561171233260626 0.1238228647976613167 0.34558506353127094179 -0.08008319361957134952 -0.31448748714555541106 0.37976278673412905418 0.13954910390034566681 -0.071226610995616557176 -0.12331375950080419868 0.37947999400376331014 0.36172336257464865472 -0.36437037185684911789 0.46825258960288096421 0.13560742629695796135 0.44845593418151868947 -0.34338655245057370102 0.37736960289225185416 0.19018857437458955295 -0.34392484252381344545 0.22681802491707173108 0.20471356149445793515 0.4469471558395894939 0.073371673186379590681 0.45754357518857380338 -0.070824597004359515773 0.53313207292685005356 -0.057483797089964101812 0.34757734217591573778 -0.076209158847810473669 -0.24369280656830938359 0.25686374489083430017 -0.083213456809534611103 0.33657786516850674019 0.33770213764487566621 0.28703484031798848219 0.26320103177110504289 0.079318210689264090352 0.12734055375004579846 0.11132222826259852155 0.42444294798485926457 0.40553495702821135138 0.32482789419596147518 0.35326309407189093736 0.12349850284906199738 0.23524576096756666388 -0.33930448664734341735 -0.14870103623582558994 0.02998523618248380429 -0.031428551230273223116 0.002361747310849559179 -0.11382132165787886557 -0.28935558504717406869 4.6174321061799063204e-05 -0.12971832105812561298 -0.12660733277421809539 -0.29022550681453107568 0.030307341115428113043 -0.013619149950108886196 -0.16716449269844280145 -0.22579246621049975374 -0.24307072401017096319 -0.029756637195402318302 -0.17040540941700138555 -0.19270294156728104418 -0.096974815826549640163 -0.086875798628127193224 -0.17479054153782849768 -0.19172931753456309845 0.0001767103556497254431 0.0047458087281271469152 0.010878334514510947656 0.13620862754499002412 -0.068366516555151968237 0.17026940705410426036 -0.051381228093989372852 0.10694875475793949593 0.21389669059217802927 0.14538575533962486142 0.13863171923774747496;-0.055980774932543102274 -0.10094866721773186613 0.023695992520397515801 0.033701665201477090661 0.12725625099162113374 -0.016069419305375795548 0.0062222442815799538368 -0.14300552545380737501 -0.044670775681940791402 -0.16480574327235231191 -0.17115502558025749713 0.086155245299886232258 -0.050577478437508240072 -0.025151323691179026942 -0.18935397490922040165 0.081717086677046218979 -0.04096979913483231317 -0.18818128701091094146 -0.19859276968310068945 -0.29394882175174463779 -0.080368917697855882243 -0.30857328754913165847 -0.14568365805450553263 -0.44509152535378154747 -0.091889562979580383106 0.057794943351104750839 0.0095887148422582595825 0.085661321034558757237 0.24739250371847273935 0.21521882660559352174 0.2071491419445909421 0.21139829558209366489 0.11379114884305253919 -0.14930758139967847953 0.12032720105644485742 -0.27165195259574426156 0.10939130502513529086 -0.050168807775118423598 -0.053923015069716896674 -0.29091321962505978238 0.053303127536742281323 -0.18847309787400320924 -0.16037873528886831265 -0.19128662596063653045 -0.059797095258896551528 -0.21155354749908644729 -0.14543904340354657512 -0.01886232637125405398 -0.02875728793877275688 -0.27614218127920886481 -0.12830242971320338086 -0.37516694690161117576 0.063605369352604634869 -0.39769930160218153192 -0.029188287043750114902 -0.4093917600611732821 -0.079597538594161479364 0.21255676882747298606 -0.026674465662289936069 -0.052951592500302062383 -0.15843151314502237903 -0.18361410148346632432 -0.023380996433271176993 -0.25497956854956538297 -0.18577469316934047683 -0.030610156898896415112 0.019463059872595247363 -0.26884209262883912439 0.10421432561490139024 0.14737427620663970385 0.075207378163951676964 0.0073941167120640917745 0.32822399522098372193 0.03043813734090111689 -0.15191151827609938874 -0.049524646303388104862 -0.038826146030322944425 -0.21239308959000702259 0.13724179890669263582 0.18117369899895990892 0.044894069140428476128 -0.43704443797912501113 0.24703404021383593148 -0.085159241001973945417 -0.21710523091179281807 0.031133330024376727058 0.59679620495898455523 0.33329680635562314306 -0.074987603812549694093 -0.01240584055760442575 0.063592387337225317334 -0.068163303148816953292 -0.25501365703091521953 0.47410013529214101169 0.0067089968073315549638 0.57331431792471054809 -0.14766430546253903056 0.4304491445902953739 -0.13678121376318116975 0.20101544733754836414 -0.025703008155564137371 0.10263194595778803164 -0.0025024968742326245477 -0.014156684509139514511 -0.19088793608897941523 -0.062965362165988886245 -0.098355334181360096202 -0.16496345736700765428 -0.18626381149628501444 0.14397235944503383731 -0.040433296080902347835 0.18308264110605021457 -0.23315271285892785746 0.087932120398527907623 -0.10122050955883037104 0.25029648306789592516 -0.068029671569697525157 -0.10636304113293923446 0.21633503664695885593 -0.032293008343317330944 0.067431185413537333972 0.12895097506335947979 -0.024287805200716008902 -0.050470873702354819568 0.31834566501228755975 0.087585352798033880295 0.076424961994408277532 0.15668229708637279596 -0.044368589270610582498 0.10459771448580705566 0.078020311035204792383 -0.17448930261319117729 0.13816673294032899566 0.22821927981169079502 -0.30998934222176321995 -0.2584158704221151126 0.30056280409773816764 -0.18978018156778103664 0.44821611679279477203 -0.22241947219383328971 0.27312430520851466165 -0.18019324239232853424 0.65025894436419984235 0.12945412887608570562 0.14079678795005115544 0.47696547817459961083 0.40022978524468288963 0.046420758334848218063 0.32681069694696446293 0.4770635675386277752 0.3827334331581441762 -0.68258870287080852801 0.17478493384573867697 -0.26138853301281256281 0.075889912820117977343 -0.65294746654804325381 0.17923130919148513862 -0.18831470256568846877 0.024545981484137953388 -0.26502348534929776047 -0.021160924625976802738 -0.13020866143779052937 -0.12922791415163623063 -0.27758575027648302314 -0.19864419469891136938 -0.010489535732803440676 -0.26066600005324674916 -0.25335589725647417181 -0.014897524319131272286 -0.3693185348658215017 0.21314015322572629763 -0.46013309385269113294 -0.093193667231431728815 -0.28484412432845018781 -0.027838435263748975701 -1.6016525677358202095 0.1568742022182311735 -0.36477175089252505957 -0.1338635214521736172 -0.13962759633511739876 -0.0034824936184824268649 -0.071997965003118891136 -0.30306349380806135718 -0.09925474411115974005 -0.39225294500117097174 0.099422626201155758774 0.23357962762693859626 0.073476572808587395369 0.12654455712486092911 -0.014932877670977210208 -0.011099439602643510622 -0.074309629271204866163 0.14798772624794997999 -0.10206958667211679659 0.18600322378660844036 0.069233772724671308052 0.05915108022443014979 -0.28319191354279082962 0.13618994144967219717 0.070361447440308588774 0.16096116752507325098 0.01223767533201003746 0.25446986528020354434 0.20458936613533154625 -0.0090527698841228847193 -0.039361937094116394853 0.13351391313735230804 0.094395163750133570524 -0.019907797191158947692 0.15899217877037544189 0.25872183858732195061 0.17590113766627718528 -0.24115485343376144578 0.024540574177464954952 0.18504304570965979249 0.077994206710535807225 -0.33870348069028982652 0.00027782530746006802932 0.045576448330615151883 0.025304638215971390902 -0.059671195845863396479 0.20359922423498408306 0.14309245315480870198 0.17744345348841508714 0.18450857662243508317 0.015580759734380172574 0.13806114275564734806 -0.02922958782743806036 0.18792468361748254635 -0.07113434565073292748 0.19925967080945741761 -0.13593533199282076263 0.19084439155879515115 -0.037339532934009649068 -0.01151545662352874283 -0.066141826930791194905];

% Layer 2
b2 = [1.2375429506449029393;-0.05803769856065486149;0.38790483052285723575;0.70408326248135133518;0.029241241724702722593;0.59743543677660282398;-0.23599340546494487758;-0.2019178126934512707];
LW2_1 = [-0.52312642210400606135 -0.9973887804039400784 1.6914932810991643031 1.9519026533986594263 -0.94212122496339534283 0.55167443424759754489 -3.2170562722266313749 -1.1742427835849740259 0.96643216567658307703 1.3120346991789249014 -2.615289790147361515 2.0791293890541941991;-0.58400574483477352139 -0.50542476964905413972 -0.95874259894881430633 -0.63291340244211657939 -0.72271158296372628449 0.14680299737353300071 0.079384311721266545558 0.14622027865615225273 -0.43079771166293751028 -0.70143054157448569974 -0.096359345055511372302 -0.41710728424455584262;0.82837296029554519095 -0.4451893482835119209 -1.4968048059863725552 -0.9534122808098677293 -1.1934222394269700107 -0.28096735614872064835 0.89105623055804428212 -0.87509167504896578915 -0.37754788978645215103 1.0481282144978936177 -1.6754211064053134983 -2.8055922518847711267;1.2022672819346964523 1.2640255946668073062 1.0664937560507581349 -0.99910138916074275883 0.75980148589908402812 -0.44457640800889136612 -0.21821647314422754071 -1.0528681328433115993 -1.4623623696975609487 0.45449469384366869562 1.5232228801435492294 -1.5021817676280384557;1.7803739502502280434 2.7273969859961333384 -2.4635796544073915726 -0.049844842691791797773 2.5674470645265228264 -1.037546762304347725 0.6035065043630786219 0.20599740017297674122 1.3334566925785746871 0.47211118081089120668 0.55051158511351627745 2.7937100873655626998;1.2972353536666396678 -1.9536424257954398964 0.86981923434733143807 -1.2538958567502405117 0.50330315092334565463 0.99629012095008118166 0.19866997837626099166 -0.69852362213448493389 1.3322865862250581337 -1.1519135211399200713 2.3593488032582183855 0.94278767836169496963;0.18462520690151604241 0.55194904367708752524 -0.55364586495214318518 -0.41282779944444297771 -0.46799002246131249372 0.0041383665016462168468 0.12133225673880408679 0.43140789691781200599 -0.53475216910524581149 -0.48751527444982861725 0.10378730236798573705 0.78756808634893538112;-1.4222974855786827408 1.3256938211463371591 0.74130003440646963231 1.0724644288964579886 1.24374330092105434 0.29596694007134810578 1.632305100424694233 -0.33611020385501755303 1.1744189962588735821 -1.3973284450653411515 0.94866976936482105831 -0.76809065039935819907];

% Output 1
y1_step1.ymin = -1;
y1_step1.gain = [2;2;2;2;2;2;2;2];
y1_step1.xoffset = [0;0;0;0;0;0;0;0];

% ===== SIMULATION ========

% Dimensions
Q = size(x1,2); % samples

% Input 1
xp1 = mapminmax_apply(x1,x1_step1);

% Layer 1
a1 = tansig_apply(repmat(b1,1,Q) + IW1_1*xp1);

% Layer 2
a2 = softmax_apply(repmat(b2,1,Q) + LW2_1*a1);

% Output 1
y1 = mapminmax_reverse(a2,y1_step1);
end

% ===== MODULE FUNCTIONS ========

% Map Minimum and Maximum Input Processing Function
function y = mapminmax_apply(x,settings)
  y = bsxfun(@minus,x,settings.xoffset);
  y = bsxfun(@times,y,settings.gain);
  y = bsxfun(@plus,y,settings.ymin);
end

% Competitive Soft Transfer Function
function a = softmax_apply(n,~)
  if isa(n,'gpuArray')
    a = iSoftmaxApplyGPU(n);
  else
    a = iSoftmaxApplyCPU(n);
  end
end
function a = iSoftmaxApplyCPU(n)
  nmax = max(n,[],1);
  n = bsxfun(@minus,n,nmax);
  numerator = exp(n);
  denominator = sum(numerator,1); 
  denominator(denominator == 0) = 1;
  a = bsxfun(@rdivide,numerator,denominator);
end
function a = iSoftmaxApplyGPU(n)
  nmax = max(n,[],1);
  numerator = arrayfun(@iSoftmaxApplyGPUHelper1,n,nmax);
  denominator = sum(numerator,1);
  a = arrayfun(@iSoftmaxApplyGPUHelper2,numerator,denominator);
end
function numerator = iSoftmaxApplyGPUHelper1(n,nmax)
  numerator = exp(n - nmax);
end
function a = iSoftmaxApplyGPUHelper2(numerator,denominator)
  if (denominator == 0)
    a = numerator;
  else
    a = numerator ./ denominator;
  end
end

% Sigmoid Symmetric Transfer Function
function a = tansig_apply(n,~)
  a = 2 ./ (1 + exp(-2*n)) - 1;
end

% Map Minimum and Maximum Output Reverse-Processing Function
function x = mapminmax_reverse(y,settings)
  x = bsxfun(@minus,y,settings.ymin);
  x = bsxfun(@rdivide,x,settings.gain);
  x = bsxfun(@plus,x,settings.xoffset);
end
