function [y1] = NeuralNetworkFunction70(x1)
%NEURALNETWORKFUNCTION neural network simulation function.
%
% Generated by Neural Network Toolbox function genFunction, 05-Mar-2018 12:57:10.
% 
% [y1] = NeuralNetworkFunction(x1) takes these arguments:
%   x = 236xQ matrix, input #1
% and returns:
%   y = 8xQ matrix, output #1
% where Q is the number of samples.

%#ok<*RPMT0>

% ===== NEURAL NETWORK CONSTANTS =====

% Input 1
x1_step1.xoffset = [2.36611163018097e-06;6.15967292105779e-06;0;1.44108253152808e-06;0;7.47331159800524e-06;0;1.40835754791624e-06;0;0;0;0;0;0;0;0;0;8.50533706397982e-06;0;9.55973791860742e-06;0;9.15758937480859e-06;0;9.86513805401046e-06;0;0;0;0;0;0;0;0;0;1.35915188366198e-05;0;3.27552606904646e-06;0;1.37224169520778e-05;0;2.3828026769479e-06;0;0;0;0;0;0;0;0;0;3.65026892268361e-07;0;3.3279630429206e-07;0;4.18571431737291e-07;0;3.46503412629318e-07;0;0.663781046867371;1.93242758541601e-05;0.00430006626993418;0.00398716703057289;1.94980293599656e-05;0.00522243464365602;8.01165970187867e-06;0.00399644672870636;1.20755557873053e-05;0.00510430941358209;8.3883614934166e-06;0.000268587027676404;0.000246082810917869;0.000294617697363719;0.000317060446832329;0.000283187138848007;0.000250171287916601;0.000293648947263137;0.000275280675850809;0.00800213310867548;0.000458560709375888;0.0100244032219052;0.000524006958585232;0.00770387193188071;0.000542004418093711;0.00977464020252228;0.00035087758442387;0.00264834007248282;0.00368258310481906;0.00333695253357291;0.00279042078182101;0.00377882434986532;0.00387700740247965;0.00293437670916319;0.00221307459287345;0.0132055329158902;0.000912936229724437;0.0150348832830787;0.000783838622737676;0.0133163677528501;0.00106638367287815;0.0152610428631306;0.000551369972527027;0.0042122327722609;0.00387744442559779;0.00372824561782181;0.00393587443977594;0.00413413299247622;0.00379088427871466;0.00384085648693144;0.00415701325982809;0.00585309555754066;0.00087124778656289;0.00542754260823131;0.00043481815373525;0.00512476731091738;0.000854048936162144;0.00544861331582069;0.000401832687202841;0.283194124698639;0.0394891425967216;0.00434286007657647;0.00302151613868773;5.60502985536004e-06;0.0025428815279156;4.05736273023649e-06;0.00298736663535237;4.1102321119979e-06;0.00265284930355847;3.95211463910528e-06;0.000303165201330557;0.000349115434801206;0.000362817052518949;0.00031202009995468;0.000332104245899245;0.000364368635928258;0.000376540061552078;0.000309702300000936;0.00789775792509317;0.000429089646786451;0.00778368301689625;0.000464009557617828;0.00808462221175432;0.000451359694125131;0.00817498005926609;0.000447223137598485;0.00606347154825926;0.00553627591580153;0.00546807330101728;0.00513929035514593;0.00575504824519157;0.00594909070059657;0.00548469088971615;0.0055074617266655;0.0223768223077059;0.00187817111145705;0.0243933908641338;0.00189876137301326;0.0225633941590786;0.00196619867347181;0.0253317225724459;0.00198186514899135;0.00172219518572092;0.00142325460910797;0.00138419272843748;0.00197454844601452;0.00186262011993676;0.00136789446696639;0.00142051151487976;0.00169416074641049;0.00254467921331525;0.00176818866748363;0.00245686410926282;0.00194969156291336;0.0025257000233978;0.00199950090609491;0.00267607183195651;0.00177761563099921;0.237952262163162;0.0213675666600466;0.00105298857670277;0.00182034994941205;2.65328235400375e-05;0.00193975516594946;2.04249190574046e-05;0.00177067634649575;2.43980957748136e-05;0.00197124807164073;2.64858117589029e-05;0.000218918838072568;0.000172364379977807;0.000209825171623379;0.000204868862056173;0.000181987707037479;0.000205440010176972;0.000183184194611385;0.000192584950127639;0.00536010647192597;0.000644800718873739;0.00538958935067058;0.000601599866058677;0.00539151346310973;0.000668296765070409;0.00528208632022142;0.000645075517240912;0.000332104857079685;0.000295662030111998;0.000599890714511275;0.000573139463085681;0.000321349303703755;0.000366411346476525;0.000575711543206125;0.000578435079660267;0.00992173328995705;0.000740892719477415;0.0113604003563523;0.000785790558438748;0.0105769652873278;0.000883986882399768;0.0111350808292627;0.000807232747320086;0.000176287459908053;0.000177754991455004;0.000186917488463223;0.000194943233509548;0.000203317977138795;0.000192126637557521;0.000185501281521283;0.000195048851310275;0.00159548001829535;0.000259757420280948;0.00162866443861276;0.000263892725342885;0.00160218635573983;0.000258980493526906;0.00158709706738591;0.000257060950389132;0.818251669406891;0.0170374643057585];
x1_step1.gain = [14.9674022265805;18.4346560345783;517.651857371907;36.2436296708712;545.839810618197;18.8234233544109;531.462747085656;36.5252920864892;507.914034510745;126.564782743634;134.012579867581;126.236563301403;137.395725479267;136.7562749001;126.844525289536;131.973542652238;126.93655216538;14.1804087633981;77.1547333702529;14.2750185570398;84.8077681742753;14.1708952933291;74.7759142212929;14.1142638016825;81.0275361396882;23.8792028495406;24.3740276192808;25.1431236879229;24.9617561828213;23.4635261161578;22.8171977807001;18.9619060838558;23.1791612669693;7.86120658359097;42.037960400899;8.90860128463667;41.6644318969255;7.848365237264;39.2887905985736;6.98909206976536;40.2958919005823;30.7493917659561;35.3038967447439;35.3317911279823;30.4164711310577;34.7277210795686;33.7143602822941;33.8207726988014;35.4206555769179;28.1745833336432;39.9001522070015;28.3334476692699;71.5228235314179;27.0956111382226;40.6649963498746;26.963940963205;72.3751904518349;5.94850463177504;3.40289114299019;6.12189143842815;13.9600910104754;161.354072948516;11.1361758835343;101.461054726435;13.5035978511792;174.945927498709;10.8517342336536;101.941722942169;34.2398589380413;37.1802019606617;27.0128619974099;28.4684420943605;35.6656002979259;39.8363412879175;26.983563023939;28.3990572347072;7.99494112757882;14.4160839724858;11.0515977579933;21.0165924196162;11.2638472938183;13.8167000995355;11.2587553571637;18.4464274460802;6.74432581063201;6.03667872034969;6.89769852593551;8.05661115191627;6.81701734219801;5.95021970331826;3.98251942729032;4.60549637794655;5.99345120532626;14.1320051425376;6.55638900640867;15.0458496785063;5.94994821122872;14.4420390183186;6.8521465706722;9.74940270436734;25.3601860009916;25.4441788188205;25.2937391567911;25.9107586137881;25.8779236560011;24.8966150536295;23.3845600167928;25.3010801151636;24.5912100795666;15.5134325417163;24.3345102203993;10.8223260128636;24.695902552297;15.5869357342893;25.270955518402;10.6740540961708;2.79694082596632;2.91355479640681;5.54069870337155;10.9157444036697;152.217929674031;10.7366940634063;149.465472045772;11.2836448464894;149.188260128806;10.499925632702;143.02894146976;46.4098755445485;44.7159306159459;44.1620191711651;46.1968068103163;48.3305773308021;43.072251283883;43.7021032706752;47.2738917742823;16.1916892248083;29.3576734519408;16.3724484002445;21.3098983925299;15.7293757400142;14.3773261810872;16.2882758092786;24.3517862640769;6.3338257375929;6.36313749578419;6.11014606171399;5.95751087535593;4.55463988674969;6.41462953146677;6.12613106998733;6.00580423239169;8.45022020595525;18.2498237760546;7.98190630232927;16.9562136735277;5.42014318938565;18.1293624535322;7.90342797927553;18.3955715050539;27.883555153735;31.7965554569908;32.4492950150932;28.0976222979666;28.1349529990322;32.4459787601944;31.7324680339358;27.6849276669033;46.8691123202986;11.2313948731078;46.1611818551985;11.5285740948022;46.2763000923146;11.7817044435769;46.8183216781441;11.3410954661408;2.63751534695587;2.78917679568966;17.4733882608289;36.581170555055;451.898932504354;38.751223044603;434.904998523842;36.9196622419168;434.092708363132;38.429472027198;441.112901813702;157.749059727412;178.26331607214;84.6315852954338;177.823925008699;187.301776984628;175.428583336391;187.63070883782;78.5686935791816;23.6242092024526;175.213640740766;29.7738076384838;171.110211935704;29.2728933199792;172.839770593197;29.602428677557;178.687741288468;16.9953097563863;33.2140074631728;38.377930915079;36.1181549684638;36.288744800094;36.9929875220831;25.7621526935931;12.622679104902;18.1826637450453;78.724079093099;19.0828027644336;81.8968758651928;17.2146645657588;78.1721811777859;18.4172341547845;29.2900974899932;70.8349534840934;173.383205848147;181.496916023812;152.692344062559;170.067432797495;80.385132895563;153.546085043789;129.911503562662;49.1920198860741;71.6129239548252;48.6988322257095;57.5673750026161;48.3773553460724;71.7217903260324;48.7969095221946;50.4105102342093;11.0482215042101;3.85850737280578];
x1_step1.ymin = -1;

% Layer 1
b1 = [1.516710432855273627;1.1752954892755358429;-0.83555884680491998573;0.61281540443672466445;0.23252350256472828494;-0.028581110141230284261;-0.15920919043442796625;0.3845786234723969077;0.55664981357162990339;0.79822929858570690342;0.99808258909450031648;-1.2351825651488579361];
IW1_1 = [0.002026589178493863868 0.095423073233355540368 0.033736600986230942667 0.2415968969638963848 -0.021631595542475613031 0.050337026473615952005 0.021225103988587998294 0.18961740668912005492 -0.14123241403884567724 0.010395269901661789019 -0.094429073259423901288 -0.056068266426280460868 0.042724452346695473981 0.19585896169535885192 0.04045655557993964313 0.1584669228080587966 -0.025450224533127126236 -0.055637334833690557656 0.13868999202846538088 0.089273123140253887731 -0.084520336779712879061 0.11923724423599511846 -0.14330383724357625974 0.16898716840972774489 0.11618893017151164793 -0.10703303929074972634 0.030552060033230420827 -0.077723968964446193963 0.17112216930114518276 -0.0085164815358006670798 -0.12401179798877352833 -0.084564879225316719191 0.052082119781514370216 -0.18884032780976781063 0.043104466521168491311 0.13359468956367981374 -0.13048755012932236608 -0.096664737845093384738 0.091224177761754760008 0.019477617931033312099 -0.084566225328463098809 -0.18658208103934190158 -0.10425344549445177134 -0.062298767564500701077 -0.1366594170933858321 -0.059502184911917513355 0.04032332953163390854 -0.060101346713607659011 -0.13125878331832177559 0.30182132901079578025 -0.10712512078239960767 0.23418702804491417502 0.25521129840300849079 0.23776839734293361839 -0.15134147329697206219 0.21407559003964493627 0.016457831488024862732 -0.046078297418770571003 0.083322159462313777345 0.247749886076923026 -0.19393003061436997481 0.069355114054581668004 -0.018479233603344885628 0.11269815195929602791 -0.23009695541285221654 -0.019965040959228422257 -0.15997587007584276875 0.014450249470502690707 -0.061863920644514708291 -0.057218365604115875578 0.06494756395424464146 -0.013944800456680915557 -0.13216542941739545247 -0.0018603155987183227216 -0.11766271170678169189 -0.18786818173240094065 0.1210490567740952067 0.15495866736151411858 0.090874543343749503155 0.3434527885561585725 -0.13472923568985437082 -0.11940910289947737066 -0.098967496237326604835 -0.0018825294276500191028 -0.12035360743814321749 -0.26779417559008422689 0.012057313319444713795 -0.010970105251041329178 -0.030906747311887649426 -0.18490969946643082134 -0.068211525951054910455 -0.22242139364282956238 0.085557567731063224881 0.080942765428675983452 0.0025091997398639896699 0.23812262259000210873 -0.062987878948647074706 0.031440230776432875892 0.1634479645622841093 -0.049189269532321625022 0.18539285602954447274 0.07957316967120370288 0.2073738364980932114 0.046962927139101044716 0.091910837708674503199 0.013066884300722340223 0.035660830771295871922 0.21726158853829280471 -0.1612054318059399638 0.11835064267534581295 -0.045529427510015409164 0.20205760529047694929 -0.099323443966497559909 0.03356579292803366088 0.0045450542071260799371 0.0314200982715610172 -0.18296873147829725847 0.15126271438705490846 0.02737781742790069972 -0.087174014839966951218 -0.12446259656567716656 -0.12136763704185930812 0.029549543038527126965 -0.38009208852977205417 -0.018482393657357321093 -0.14030899827189668994 -0.20867531464200209101 -0.0058326946187955740555 -0.10541403873985860651 0.006010206290789518041 -0.11818402998400671933 -0.074507255810238814941 -0.13690733765192925064 -0.073565547343415527148 0.0066959925953249156694 -0.09879038889280614133 0.15620508934873281182 -0.17653296411014607337 -0.090541674987134446173 -0.030036054352129182982 -0.093463128451687790821 0.081712567198112068256 0.075256969863614880945 -0.16167331564930631504 0.085925868104280905824 0.091562187754515036997 0.089115045838844580972 -0.15813594029724747925 -0.10420506990256561686 0.014603504260620934346 0.062736832832652356107 0.027581809499109086192 -0.28686499603664733504 -0.20949803650753798245 -0.17517259906333565445 -0.074969121058113305511 -0.053896312072665507331 -0.038861302091618067645 -0.21424621545895514152 -0.15192953477381465621 -0.10896862429909667802 -0.28492051056514833274 -0.17738590486378200128 0.026606597393278960673 -0.14197259338060985723 -0.2385150300668780754 -0.0097933215012769355562 -0.16105650765388479506 -0.27195725026404971025 0.050869755687670395461 0.041964938169486501462 -0.12250689499915677627 -0.063069654411227402124 0.040003334904553045082 -0.0048990765400899255119 0.06441023529552221405 0.20005940176024086807 0.33851406507918502253 0.3209029163917105909 -0.089473618719160014079 0.32566675270892186944 -0.025028962419979507853 0.17978820158842034882 0.25665270386742033981 0.28416437069135652704 -0.018194032996925992018 -0.045105779654090842612 0.30617768575101073081 0.060930104648530249156 0.10043380026949039197 0.25077556736308997953 -0.016474738510670182412 0.11355643262979589481 -0.018954898389291961053 -0.074331238062543339429 -0.018115636913525735158 -0.35093286895717779039 -0.005815696949088780196 -0.36454924006162398031 0.033915406359435414096 -0.21820666305198102575 0.055718032546589461862 0.057300750014309904945 -0.099893922336494855863 -0.14424762343632877015 -0.24632242603760617916 -0.283506254823475079 -0.20783155775107634011 0.10298553313616803928 0.029015317843389443891 -0.48139972025808669409 -0.049066641083622013209 -0.23041909865269633029 -0.22642147942160179008 -0.35393262416306903173 -0.21260497920337276256 -0.30286630971388522893 0.025835389353526465317 -0.023429810589430902223 0.14324542460098216301 0.14586587422843999562 -0.0028635691264189810229 0.090241377142081358187 0.071250091451084976435 -0.029682579664467398373 -0.055825528971719648452 -0.087004474417351540527 -0.020987332899807635556 -0.11361121529012546683 0.19711661607287736531 -0.013119002569438899947 0.1241459523955831673 -0.061423627503052372067 -0.079619920345662328898 0.10054896511734560949 0.060623897481153141142;-0.25497879430785358457 -0.17036117811210102491 -0.10655087896086225252 0.026697431520145049194 -0.06209883737581002594 -0.1618143676663522379 -0.22189539674681638126 -0.0072283348878250698599 -0.12532102252735374814 0.029463478052661987161 -0.10211786341827032432 -0.022530539326649594994 -0.067977377654141704633 -0.2019702486987008383 0.015474479176918357753 -0.12960390760960757706 -0.071081392233750498311 0.1828820643291413639 0.071102863111111316852 0.10480989957941144741 0.089224001184035256484 0.027768619968888387517 -0.062528570885602000051 0.17703221681793199216 -0.075356375322133031802 0.0065353324398986605004 0.1900665621999191035 0.074255953956593540033 0.12775782288099762907 0.13360703378171573386 0.081165340940301297645 -0.034221253784495656025 -0.13567954365942766493 0.28343949581542859928 -0.045535461685789910269 0.21418690990562497256 -0.13923746472491765891 0.34192050327624740058 0.10190840637259619694 0.11070702409821936429 0.14707584579459806462 0.20358521907986060206 0.088146847299507127826 -0.0015406630969612715356 0.1256365909039784956 0.074811930616577065889 0.13635609278969659797 -0.12610714772465719813 0.053997569554134774994 0.27199242976485971113 -0.023014611880332266208 0.2431307622822633796 0.036862078282330817958 0.28441394711146616991 0.033814168795709718951 0.068644473721798313082 -0.12490426969949555702 -0.10342281052879913339 -0.055681610531321014401 -0.1162996856933732337 -0.017332668123308553332 0.018582398471944733265 -0.10237383042054114257 0.074578933143946826712 0.10399784610988600797 0.16895856202415723835 -0.048975285896212222836 0.10009905436469060391 0.015563024326750496407 0.022773773879383590879 0.021719392577243677028 0.033136597786609184313 0.072180736276434051546 -0.1979146839117346679 0.031124371394953376929 0.066337254059139913465 -0.063039966430889840532 0.10179373909059075132 0.018923137220589050095 0.11704449772418801246 -0.00026692690742501762585 0.31219209406961234698 -0.029490928722558325259 -0.082368814981459814728 0.061043721978618244173 0.054327472373179232223 0.10004731995808990863 -0.14261196696606595613 0.14448000400764229867 0.26585916277651250317 -0.15730984193887617706 -0.025885110005411313128 0.30225973289198104776 -0.072036684622241095588 0.05460119751455144721 -0.07808560188780089284 0.020744089136434034487 0.092859631498153100138 -0.13009622748400911929 0.1442827317035980661 0.089498357844480347367 0.01458950866483549845 -0.044558236454239737168 -0.040441976776646917924 0.041070317689198769517 0.17820596378370870405 0.038089361506479957331 0.1231918587680993632 0.15353251755576957649 -0.02457795435154790098 0.14428655769781256746 -0.19074220502925195997 0.11512071936985761311 -0.023410192801389492767 -0.041579152144979904249 -0.20290472739968551386 -0.0011776963005738698247 0.0048576910705665395096 -0.096472344959370168183 -0.20159900517418546939 -0.052320619279756584719 -0.13701303418130264533 -0.16315829141485932441 -0.16592423875728945504 -0.042889974789129349519 -0.064789914938884321516 -0.107540283175985657 -0.087689689471877746429 -0.010305067614490020719 -0.22573213208911085959 -0.03238960465806355743 0.28357949762080686407 -0.020811964940808919122 -0.26986736056133803219 -0.045829678634691992101 -0.10582531898336364207 -0.094463395209958694876 0.097693662531181335584 -0.24372195422118980712 0.014360687903675718041 -0.2046427807065512583 -0.10715780657461991543 -0.26628906610566521751 0.11814593706693347908 0.039554248273513545331 -0.10759309820515845779 -0.022968229674649766336 0.11506216772168166573 0.15572408458301598144 -0.16811290675030607367 -0.11764300166055526031 -0.085610663520098939649 0.0084059765065902548875 0.065722773675367676671 -0.11079313019468671475 -0.071972745104834617846 0.021365693898777359666 -0.014009651300321761952 -0.058852618217393494471 -0.073487807039091287975 0.049690281429614742426 0.02310232046866277783 -0.071039080856114114604 -0.20096506506262892811 -0.0052646347652892345678 0.032867882914058059451 -0.17274638066845754425 0.088368409203628636717 0.0064206832767133899947 0.2360219827743526011 -0.13758739190589519552 0.23503869142507630152 -0.17950189796827092925 0.2185495677539506798 0.019964434449322669002 0.084847553998369518169 -0.26038433491520085461 0.13529153438859031766 -0.055214158061605178585 -0.1576085375233595709 -0.14467280738016574659 0.044489144540748912227 -0.10557523843865376789 0.043785011718906668987 0.13271664602906169117 -0.042175903436014676451 -0.10051112608125803427 0.0053226785002465897695 -0.10766339011075172494 0.085393472388667471251 0.031461543429390267934 0.11950720422322959335 0.0015683229647688594517 0.13671392427678483172 -0.25228087119258579829 0.028088608862484123335 -0.21836467480227189641 0.20311193084624368232 -0.076980836003056649086 0.031460285485179470544 -0.26061877791536486315 -0.12966018493443132176 -0.22187660970118469606 0.042722323512342424978 0.071744319844980405931 -0.030251645615531858741 -0.074458306051992870223 -0.09136653086858838313 0.033270007260259207293 0.018072442480198201709 -0.13106365782746853821 0.038704835504231448196 0.11171559578460119044 0.022515814418342328107 -0.24498905141701526889 0.062447924395407972131 -0.096609601951845439083 0.10269728321634694068 -0.14629944416195891921 -0.062692149770040103696 0.24936673729507277675 -0.040713195253690062647 0.038218211141885151394 -0.15008424114441187847 -0.023130467852304274073 0.12046099166498820676 -0.030408816888762610353 -0.10766207856080928229 -0.1241407979500029346 0.017527989351303844417 0.10487571419950568463 -0.16114286628387736178 0.10076688738796100997 0.13006349502227965154 0.11861558618676568133 -0.26884925876149184942;0.30440339046287340219 0.17038521314214419289 0.095554996467654473857 0.27720183456552782708 0.27352478887003150998 0.31133659654099643532 0.042894793131576708367 0.070342052023320195131 0.09412944565974132316 -0.0020254283360444510706 0.035960391166565047749 0.20204976252625050925 0.085722023676636255329 -0.03250673062480133324 -0.010874675927808040779 0.0045467387655421971637 -0.0085717625889397131012 0.064897423853583477427 -0.070955274751677038791 0.26898829545782920736 0.027985329141610091469 0.22090697564037994893 0.21366411960278267057 0.25226205078418284522 -0.044440933125230355771 0.085966891031418815605 0.18461456897421410495 -0.13513223387572254053 -0.051928472207518228121 0.12338430957071638838 -0.081841880827794213915 0.095863055340490832545 0.0021431540942259603467 0.041739243135693437914 -0.14000889608105979156 -0.050303730686030029284 0.030390868393984138418 0.015874148763412313651 0.14743224113402444986 -0.11294528294824769665 -0.12013853061907882325 0.1329448306062899765 0.029104159147654844186 0.0081539641667576802375 0.24506806752929374826 0.27514074717946557236 0.027163972654203609458 0.19580493927890377237 0.2179468612487305279 0.25157665642045340393 0.22344289282647997186 0.29098937514421902018 0.069001402730323679879 0.13829033279838587323 0.16164370022883287059 0.063584839319102096078 0.20828534956991590077 -0.052793901758146348502 0.25967279608891530307 0.29491248301307698698 0.039517206885795068405 0.0014850806203377019468 0.095476709508176063612 -0.075913049122411119241 0.15766928739586011377 0.14231500266038157876 0.084309078221626643224 0.11817280198593553553 0.16962475904779578117 -0.023710195056000089864 -0.096265409557152695208 0.055290577918051503348 0.19042111924967769498 0.17045794419954485299 -0.0042976341384984026797 0.07273343323450860709 -0.19880516934003361618 -0.10678758921627641565 -0.2395896221116744218 -0.047628921622232922584 -0.17323502791845013515 -0.14706795419810084202 -0.007986324248559557859 -0.083441645317511775604 -0.082640561944028120833 -0.070324300978997389411 -0.0044109175474434346442 -0.25327561307152224312 -0.030026382261961661463 -0.22265399458749199346 -0.013228331920894047941 -0.0026449195611568847644 -0.19737767695018909597 -0.087314043697891793872 -0.28740301442613697125 -0.26320808609847851089 -0.19047296239387936923 -0.016541858882571001954 -0.13703349464607214592 -0.18991656168360784851 0.10883704186926328183 -0.068148691322139243187 -0.020454589500509701844 -0.11394541338759504867 -0.058858179996298172487 0.091046003290672028463 -0.12995888845097247621 -0.12652347138714284402 -0.08998827335282394424 0.0074885380333638146277 -0.0024478957248723841843 -0.019560947580553808556 -0.068781111334477187946 0.1189946940130451325 0.011510717918989195677 -0.15791507838921040041 -0.21413881933234713006 0.13864997270029347232 0.01826149455881161815 -0.087094769971069366243 0.010531166359373378069 -0.017342888096918980534 0.078095323357217319438 0.012731454427318400838 -0.10936144961910763962 0.096466381151252639237 -0.042375808286679611525 -0.060128895654136399473 0.14913649914225360349 0.10386070044087720998 0.042805957181458506589 0.10098992602298535737 -0.0035649770376209011756 0.14763645392628671482 0.14746410856782898868 0.14021922611962289729 -0.32248766733743539081 0.12519479309164449621 0.041669651730699121261 0.24454397468167907159 -0.014089350603673571685 0.099969109179894419248 0.049445741764133063767 -0.27523831431096446032 -0.37841412502911281335 -0.26781211784516600893 -0.11828781125158494003 -0.12641715769925307433 -0.3784170585261869002 -0.10171699820504585821 -0.044911006655973924329 -0.0085867167142334669544 0.018893293808419066304 -0.10312694577211346803 -0.11233946489897038423 -0.18662790726354730464 -0.16654803993623434888 -0.21422686521173300855 0.074391343604979065507 0.34565756910138439872 0.22127903233515947012 0.16367004615242153331 0.12966976966988028042 0.16589536658462095131 0.14093857844234386478 0.059394799557392845279 0.18642160488461614887 0.086760254388241808687 -0.11972297315495872283 -0.024043396047250482905 0.052125121308828237243 -0.019682419792417648469 0.0099334032094671887575 0.027786129449365985083 -0.030239043156942008173 0.018696014691346941883 -0.011484951584837099076 0.25223900743069815888 0.43358730915166043829 -0.06428897546469289348 0.25908924567156177421 0.20312778930744426753 0.18465940396824098713 0.015725237553739324775 0.24963142283139910793 0.081483398930177933228 -0.042049603519636824522 0.072652133412288974479 -0.13525549617691251525 0.091488851436392584771 0.083040067675466761044 0.071471966468079128898 -0.05480303105759922605 -0.1683706730767284554 -0.14311246275555544738 0.067716215818271266458 -0.11941163726719583593 0.037953154845745032397 0.10017118629852653222 0.067748205272608746919 -0.080807989746222622096 -0.015474370666127224005 -0.12769729079178157582 -0.20153445636539060737 -0.08722919626307414076 -0.0032111362799978815027 0.037489075987940052859 -0.22863198665240566654 0.020693022960522652887 0.028572705301750291745 -0.12520467573315460785 0.076902680362750067133 -0.15944819068630702863 0.010633255408740303199 0.09443146001234850595 0.049103605200220654114 -0.16510123194808171143 -0.011284540721987843664 0.041306445289404074284 0.061671019650713622406 -0.0080880223624624075773 -0.12500887844241953539 0.062115020542577073503 -0.10311554016309842918 0.12704975599958381882 -0.097384331499910575802 -0.03368681552983109756 0.37456017997098511874 -0.11798866556909766434 0.16265936841415296055 -0.083731708031662757663 0.37885089594156512449 -0.18897838365034985708 0.031231240700591439419 -0.41874994522817732268 0.22968092189779759638;-0.22276734624629171422 -0.0097218538578672294287 -0.12143705108485361444 -0.20145159453042715825 -0.2280984167247555594 -0.044120945359719568324 0.0026662460887109701475 -0.0067809961541079894626 -0.043629783978056120575 -0.016592751890602792236 -0.17867010944121330951 0.05849510333319588723 -0.031400432745826718783 0.0003826291664358069753 0.052070949629921217672 -0.034716480645810350592 -0.11067101429460121653 -0.30348443464323904273 0.078788450498376669251 -0.26192147908471874462 0.025115987169518686623 -0.26414185628582531606 0.085356071425228954852 -0.1925369817675016415 0.093048299793839939209 -0.0028783063852353477086 -0.082686960893246772009 0.17716780421949779312 0.14814737856210782874 -0.042543210258431975179 0.11227124785213056513 0.17829793022246087641 0.0098550065227862027051 -0.24132546991060549457 0.039264360858316964265 -0.14497514601231437092 0.025506363901809159245 0.023739531972392046572 -0.031106018299956135487 -0.17450207143899751361 0.14897497725613190189 -0.047725852106941392405 -0.10698159126548141551 -0.084873199329548301706 -0.15018329661446602752 -0.07076192702539974011 -0.0035229212248434993264 0.044864867598486062039 -0.13877679340983029022 -0.02922274715327334918 -0.07601339169531279305 -0.20233099755136838005 -0.15138812357494388361 -0.1689138775561535577 -0.1370713733627997033 -0.18396067081938594079 -0.086238281571919456203 0.20487433833425267027 -0.16928426033497057102 -0.18046279027990894117 -0.15870643912421497634 -0.23980518993609539757 -0.048393561512928548463 -0.088867129933111965734 -0.14149478701022857874 0.051309041354578421856 -0.053647855033794607238 -0.2078424946592906386 -0.12142520118321765976 0.037792086649681061461 -0.017129773737623754659 0.06571514206543896397 -0.010324690083304265478 -0.019763764992964436007 -0.089834953870919789787 -0.057177596974260440355 0.21964220865351094525 0.049936762043735601069 0.11240959551384283044 0.032888302762167517801 0.14162456526981365146 0.026840669837313414076 0.20711645358173669251 0.19043819469858194737 -0.0064474849420045150447 0.19887403697026145855 0.16612732639986604877 0.20349497916571848699 -0.034173827826110295125 0.049929581254516144928 0.15973892538859615908 -0.013417308888960997881 0.031140944755547277784 0.050137852189584282414 0.020262792824413931175 0.25041134584816643338 -0.020591338078723559618 0.0040929205078012245722 0.09167944258932482493 -0.035730473707020787844 0.098582487227611440006 -0.0073275925344487985447 -0.066012193731173771094 -0.076415360034828599956 -0.084844180001831345783 0.078566092740798787464 -0.0097815097843901646635 0.10225487594843778172 0.081541273021996596437 -0.094847316476166981802 -0.21247487863890685 0.082663433067612548943 -0.16246416280091141582 -0.07848519854369719051 -0.14202159520142781934 0.039446195656910675031 0.18771604106768841058 -0.37705064012535804974 0.28004055331597882406 0.082804749758359511014 0.0014209883666512379986 0.11270536732012823022 -0.016196591888674734261 -0.17876109010643065345 0.042055632706945011989 -0.00025569098933856564734 -0.022014411379198732532 -0.091405877084181866299 0.12680776473484589584 -0.099554972583361253657 0.032798619186671422454 -0.0073718309797371822309 0.18902922820904377588 0.12926050950765860525 -0.14991869683023034687 -0.13355127337311428759 0.14058514609097777504 -0.23830262497620258166 0.18938637135763425334 -0.12988518244121319278 0.052458039079046406283 -0.11008683544017830447 0.23491467290004969248 -0.13189413512774902926 0.00050255487946147857706 0.3722911847615297809 0.26651078003809425265 -0.12104582513816686262 0.16672105924879956906 0.34367329255995915371 0.26147586268773670426 -0.031178200771163958743 0.085120685278031654741 0.24903451526564221452 0.047783644831982982626 0.073806375575949684231 0.15846397237094642096 0.2811983294341736106 -0.135709665088413034 -0.03539056003329496547 -0.3417299804287061149 -0.22265695361090090398 -0.093870581444028114437 -0.2312097899677584556 -0.21704831714071270987 -0.060050026655152861921 0.085402737069917314394 -0.024222500182970244098 -0.0078008433141526787105 -0.11352156909078151004 0.22911340507640506892 -0.10863324227461212956 0.15124514896324453561 0.050402431626581187252 0.13395392281407136892 -0.16147419079045954859 0.021452215458276177595 -0.37454276619103743506 -0.062582868374411348977 0.049531379237512912495 -0.2261651057735358239 -0.22501010881765881599 -0.25292210903485107254 -0.10938107945229617879 -0.20973980170489464614 -0.20148345374314396983 -0.19034657237543389785 -0.05925791199916628782 0.03205189598186915928 -0.045892124629674083125 0.012414273244387300302 0.1145885777418700624 -0.057087389674489529001 -0.017096399370237533311 -0.1064042525334864403 0.055843838546488430707 -0.14813209954172601446 -0.023609114030685912633 -0.10802284825604764606 0.17089867210010722953 0.0057778113900263947458 0.086085071174030913799 -0.065478209051390914852 0.19447917073593923298 0.19336680806670575317 0.0066793300298989763397 0.047357493490350170695 0.071098483997334177564 0.1001244792001383388 0.14258765194876230065 0.10534795765369611709 0.048681759865450618951 -0.14721010722445268537 -0.10518477098089916433 -0.1083409324729253248 -0.13141525213572979869 0.061535201842088389779 0.17928944896605952808 0.0099480170984079484275 -0.15303225576657616958 -0.18303090580665354326 -0.11024228809647683425 0.1195083265208074369 0.087562095186700175664 -0.19482098738588915499 0.032442247378905275657 -0.04825687881355470582 -0.33244277313818171304 0.011405941997696898357 -0.26329464840746846788 -0.010794297638767018019 -0.31168403091096458235 -0.13795043723023653337 -0.15962539536190084588 0.26025143219573065867 -0.16450496091926564146;0.065772228959146514238 0.0051682971649256587154 0.049468447823844026445 0.27349834832617575531 0.23943261084389727555 0.121524692710684043 0.13511491623172566801 0.081765066075322440087 -0.017306148488616796693 -0.020064623781475131314 0.1507798323394120843 -0.029879370362128468419 -0.00082652918544548936892 0.027419013963097465386 0.091244007266479368323 0.088783893232838501097 -0.059944088701760323001 -0.074059648078872206134 0.050500282719730907321 -0.20368642493851912834 0.040831956256385859572 -0.17151443141465680386 -0.091848010587030709528 -0.096040225453305400061 0.2118228852460906364 0.051275420350838395167 -0.064393967404304100488 -0.0035917574077734357868 0.18702757370864461772 0.10346902641346733542 -0.10502107414071029656 -0.035616403912689671707 0.020678778415083750447 -0.09947011158769882011 -0.027339625803330519505 0.1183617074099424793 0.12481699516967384445 0.039063258315247324781 0.0056916801774415182527 0.073070097136355968703 0.16833261970959545462 0.11282683039887182741 0.025539881259490707088 -0.03587527281406528018 -0.013096683728790697518 0.10686880472062276759 0.05906311724856172507 0.14320892306791088711 -0.15819490563475574474 -0.31714333720491055812 0.00055077893938535816068 -0.22722070044325520799 0.16163090692751616584 -0.28117592422229298332 0.096790458541363671996 -0.24432741886630449102 0.24203338798457185721 -0.025780510716797266912 0.20230069493753996546 -0.052054234230684552631 -0.16142381466180846794 -0.089036251265765212204 -0.062181123177003402858 0.03987824760880387398 -0.35248320136929217616 -0.28757764768973487213 -0.089528803883673221953 0.22025711756036203681 -0.25392949574692280645 -0.32044952669572196458 -0.16748610281524356491 0.057017221994811344288 -0.050240575562922121233 -0.14684752992690655593 0.078296054607901358069 0.04047273448038263971 0.1074017807153412607 -0.38607052701286936891 0.20936389957883569379 -0.18076040809954710409 0.23501631398518318949 -0.28186247375098649748 0.40738899542152207101 -0.12276025554467791256 -0.14793964408946921885 -0.100165816135307853 0.11688761233073247103 0.24943302130766964453 0.18029426792209579666 0.00076373669213616077016 -0.069571952301048567424 0.2808392992223834872 0.20412595815097264729 -0.010023960605795996862 0.28787905033858168791 0.23600384191937748279 0.23051928063487189813 -0.0023559459000262595978 0.25440342383665243142 0.21629844211853771485 -0.13067661809182282151 -0.05192166355351712087 -0.047400003354128222854 0.18437561449714875983 0.09446206737313775359 -0.14413352857483480163 -0.18126063752383198002 0.088395974068114752109 0.36503439298792411671 -0.13370824228506875131 0.56083310343228498507 0.13607914223318273717 0.55126370201605690013 -0.0033044557504536592636 0.35393765114067160527 0.029924517760840763092 0.042481749169433868918 -0.13278583601888171994 -0.4404296279214515164 0.2777940492888742452 -0.31208640655007618969 -0.069056201112403459152 -0.15543824325069768855 0.07395809302648662098 -0.30817304438564413482 0.065059571614459008049 -0.075013316058209919546 0.27025401196861059683 -0.11748988178382409331 -0.044089247308696982719 0.13578959465247264493 -0.023043877841297633058 0.088366230384394464648 -0.04674698932685861924 0.19026844816392296522 0.040760145697380810448 0.42407405653531921041 -0.060225255756498327631 0.51504838558328325249 -0.029648616204580112432 0.23876997113722484012 -0.0990953419204849556 0.52240969719870866683 0.26864602083149646816 0.029154068480096748811 -0.02964569910280288878 -0.0039351375016352801994 0.24031784063216965475 0.16994936240910496483 0.2570771659586798541 -0.045266451173822164211 -0.012933631561128929033 0.028203892803201638384 0.29424402369223362497 -0.067583447119696368754 0.074145000764725299547 0.10150945238284476979 0.24474086261354982552 -0.15107904106821284929 0.13556919518204030295 -0.0025004290288456552244 0.20772506448392485945 0.10441353023113450482 -0.032975556420347953979 0.075357821323514415091 0.039884207816316429029 0.14127855528993241152 -0.24728695261509309189 0.23520219007191248139 -0.36035093339387958 -0.13260800724996896216 -0.20302439571037086963 0.25068039719534912502 -0.26900101773398060745 -0.19862339610507276366 0.24227198985069695047 -0.34033396098804391539 -0.23261764124085757 -0.54249744910019415123 0.010387437420564143639 -0.51836990286170259168 -0.019059865933230286938 -0.3316482390832937166 0.0018888701511740515343 -0.43817526495458092306 -0.17548893672257762089 -0.21275385180137235119 -0.21129504039590288333 0.10120192868275255937 -0.036524320093766868278 -0.34987959502947379997 -0.20762475966707832908 -0.020022584701827522702 -0.096136751213008561634 -0.22888058611685715982 -0.12685577214078164188 -0.17745110597341098857 -0.26866769635886111889 -0.18850665752982925794 -0.031142582943502992998 -0.15718288648995112911 -0.35673514729975025483 0.072966256442572846597 0.12772898578622260413 -0.0073759540110393435886 0.089977884430910246016 0.18047739653903802082 0.3190366324590067082 0.11743716593812039695 0.19100529991991019307 0.23173906784694212058 -0.11999848199082978339 0.33460844290502472775 0.041998706117932355086 -0.038612380840730958775 -0.05516833052403773141 0.37387159849490159136 0.061122488594788602911 0.021952945040485827982 -0.040258382746442625266 -0.24776908919715706636 -0.11719857453559102967 -0.029800248188326518978 0.063860823505847735815 -0.061393186277938070761 0.022875123727533169804 -0.072284004223803502431 -0.022546982887039303256 -0.15295694555364625078 -0.2112439365581188222 -0.15047750255593558832 -0.078848991990296560251 -0.12484361150735828749 -0.19710411693123019994 0.036430363619249471474 -0.15357520564881954606;-0.099636580164170776563 -0.18134928383717066613 -0.37489201312158071389 0.026265504524721566826 -0.29061564026301106578 -0.19336981956954107931 -0.22742278377805116851 -0.22224872224996328196 -0.092809526146056114948 -0.08140806959177174229 -0.11753032225778015096 -0.10759424602069395105 -0.062078000081308579161 -0.26361604994199699936 -0.047162090688262998939 0.025480674968602682468 -0.065159221409894302335 0.061478795365952104701 0.056647464522239288076 0.26704713990631767651 -0.054941185349256065062 0.31913532842967645697 -0.097684531692767098687 0.23675924702657649701 0.041788480576426631496 0.17756434425302575209 0.076284722078627770214 0.10979042983286953217 0.093855954720171649863 0.12220985954160806797 0.1270131063484687961 -0.13440939369093504729 0.01968533218627912737 0.3639052806282075947 0.017403033883594057341 0.19768918373268337674 -0.11572588431183494784 0.35624041007305617956 -0.076531345483914436922 0.055616970997644246677 -0.085140479784407058217 0.0092404379576806541796 -0.12592120942399107064 -0.059846908733882007991 -0.017305518820347910031 -0.0036089466553731611512 0.11417813171283258677 0.00036490259186529512038 -0.041830855217397572288 0.16363725581774518636 -0.091830830745063291021 0.27499592758346824706 -0.072332993364373501799 0.14539155785228538575 -0.36884259319129020227 0.29310687255951994867 0.028766792263440268962 0.17958322399351922538 -0.18247253208427768878 0.053571617409138676258 0.14399493132803919959 0.073632307916210421039 0.052820408902194207479 0.10357059303360194313 -0.045852648154159590665 0.1585537294685835652 0.053348590474422488694 0.17511930527395391799 0.15963754033214547223 0.19892410833202706089 0.10727797655520814046 0.035733133947823042531 -0.15998550056999763513 0.21119039193395458542 -0.014705641270707205115 0.13718152399154326382 -0.019364173363586728582 0.30038335566568585833 0.17167251951658496489 0.09551649891476450549 -0.13664101994873803503 0.33181791463724835678 0.15705520069155390339 0.21713726817131170921 0.35347860563021660241 0.13223650166015704643 0.090262692625929272228 0.2437284597149083909 0.39770032740688726625 -0.0040311371222084124016 0.14234550670287873797 0.16599257811640918958 0.24757877146311330074 0.37487759544215437657 0.071929402122348107262 0.12857728409551755222 0.074438172401138522072 -0.025578960778917497754 0.14541456529325988423 0.13822274101163173343 0.33579337077383569765 0.26368646070811213589 -0.13763570998288088276 0.17652274903765974301 0.15181113964631223756 -0.0033453061651413608033 0.21217166949648891272 0.025941954504715272756 -0.033362793542495196297 -0.0052364394327033634419 -0.13748590997954740489 -0.10079528713163339593 -0.28066981236117843901 -0.005515131716387477491 -0.28913469146072773297 -0.012205429236669307694 -0.050258684780192311448 -0.15262364012890250464 0.14406983284755378594 0.074663893853731844175 -0.08312034656624825435 0.15818776440568302344 -0.162773158325781514 -0.03047575183953624145 -0.012300534660725812725 0.15530782243885754568 0.038234293320575450659 0.16771228045352692959 0.13922967939439898077 0.09394912129038548998 -0.058763467277154680934 0.20617296650178856821 0.0013367572082220449074 -0.056858082220968227116 -0.06973234167050923471 0.075113159864303155611 -0.092035788445833724425 -0.0087444001063930344025 -0.13039660920617823781 0.10226042850134987872 -0.15230173082541037521 -0.099981631985164437504 -0.090548029665361309815 -0.015067316856062723182 -0.018492159470935180809 -0.059363562117097638804 -0.059550280732605181955 0.030929266301797170985 0.098003964515054498019 -0.037609702890903720651 -0.11468006485963877505 0.12046659062692456621 0.071890204477367200542 0.096542123905341087342 -0.10148078391870110626 0.041119751882035003587 -0.024551525704327049199 -0.07946384481761077645 0.014919448462995412927 -0.17232586439374869558 0.0057346551455297800279 0.096032523386475582283 -0.173350154292915698 -0.096409470322176657464 0.10830851382814228601 -0.087760254239740875803 0.053443072306681625727 0.077482416666011050266 0.037866226893529260356 0.069184620940919927534 0.16099479525364163157 0.012292071160984298708 0.077007228614486444851 0.045066657283063173145 0.07963635988886468009 0.12894804773503257267 0.15294453604918806233 0.13859664146406969198 -0.056733560012215515644 0.051300613677620982012 0.058717922309368481004 0.043435725535312462442 0.10065645847827178749 0.069255903827513856652 0.11113851347434607064 -0.099363542641732055527 0.029720610943999341974 0.069950779010995264851 -0.046383134146933818753 -0.0041515011788079859284 0.15796021429222140142 0.0079641522903858442267 0.064403758029837027133 0.063370747605476118736 -0.012357897375434597972 0.10872062434398364894 0.15282844239445797507 -0.067676377717810459744 -0.13999660797143290147 0.16207652987988457882 0.0042297507710712563267 0.16557887617903996325 -0.19811323955374354755 0.030755180272049386508 0.18224886051159114309 0.1030866457998735608 0.14034460309218332874 0.02457290246271195272 0.14755884142462283304 -0.028029787285435502076 0.026205822928136009164 0.057481144229531717926 -0.13518968606617820516 0.035432307813433969179 0.063401387279498080951 0.097801658620920606246 0.16186036088226621321 -0.185985838976796658 0.090383714013633167927 0.0025208529925129252204 0.091450034932780796537 0.13675983372638150781 0.12215490335884772455 0.0073210380077004897498 0.010007940948811884854 0.040840080030519781973 0.19892630844677655633 0.096939351523726111082 0.022885402803389843368 -0.098778749333100449026 0.16943772474901896974 0.064083959618162766869 0.20657173550777435667 0.13585363543461215219 0.19870715571249944476 0.053907451642646209145;-0.092396890615126126001 0.1638663966820907425 0.12474096901651758607 0.081695186112001022538 0.14182661918611871865 0.27915204195095399964 0.053925124753411782241 0.0090822891869572867918 -0.11352459402957208734 0.13765613075933411102 -0.059350455145275746172 0.10369786316056806008 0.21688840930914435323 0.0081747880169544002299 -0.095586616199915375169 0.11181967070430262612 0.041579914930904023074 0.0069028310431971931158 -0.22724826245926871282 -0.1714985191546682386 0.059529187573800289301 -0.063049905139058393111 0.072025041146944621118 -0.1897595938167652152 0.022196284386982040315 -0.20871399877272997503 0.0097412375537708102702 -0.18485363115071576368 -0.17360271803191917872 -0.065172312138930918457 -0.11568473430474295049 -0.13319353071729936322 0.070071711366390176945 0.18067761919418018346 0.040824303252579074996 -0.013925562958029383959 -0.014505821172823712278 0.21188946579179149254 0.021558435102960394475 -0.13776164909576385509 -0.15911577532325046902 -0.13887394364379473943 0.072406356625565548857 0.1419394527900572911 0.11347822576492301583 0.074523436158521624839 -0.010481138154244765484 0.19638928819648052149 0.16375517080794110836 -0.12414992811231308212 0.28399413242308574334 -0.13543428347641897624 0.10224577487939989773 -0.20995838081299406097 0.020956202493532086889 -0.053979190484627549707 -0.047242624636513450009 -0.1580322181137625015 0.078646690189021692396 0.036569128892283253585 0.080525557134463396358 0.038201926972395348903 0.0050447620347582426692 -0.080917906140034148721 0.072049800882733244789 -0.17992704590530592124 0.18856010253069682703 0.1956051101185044272 -0.075952926956931246516 0.088671615658579935881 0.052254044788501222141 -0.046138265441451678517 0.010015205864303600158 0.14041016839711598085 -0.03899665525953509293 0.018220231117597386616 -0.070411126804178575389 -0.17046171752244843045 0.079083373130818215846 -0.16203311552295859843 -0.046943245596698844613 -0.28205585578637742961 0.21420102012744351994 0.15970603615763959149 0.019491641786543837528 -0.081368008122580465225 -0.097099205067217975174 0.1548369337861683348 0.043278568748387653831 -0.07299643858675475272 0.067586183278749170644 0.10928191804574512169 -0.11989491004587800316 -0.32280054601621693822 0.038701128636927199789 -0.23998262823080923622 -0.0025986449267668891398 -0.26303408823010593354 0.33438059969052252862 -0.073107780230786151288 -0.031781128221223725605 0.031008014653420332141 -0.13493442958265411402 -0.0074169950855214727276 0.092704380588508744632 0.12109734636086903758 -0.13393142218608494742 -0.20079908160617646051 -0.071735415964249621412 -0.056371724665115294228 0.14223357378923684458 0.18162565376947004125 0.27014651788291954571 -0.020344705393647698893 0.10879865644449525364 0.17562961181433980884 0.065176838402218301161 -0.060160841096389590377 -0.14235734769389879473 -0.13473674819271228009 -0.23995123151820121898 0.25471528379330410363 -0.053859272744035430192 -0.12802911522360518881 -0.089649863501559567958 0.18543492857003998631 -0.16965037748430328302 0.01907129537074937764 0.052690496481990915789 0.27201078460084737731 -0.089004857564525752256 -0.17948332134091135592 0.30824042388172023799 0.062674822705971536263 -0.33784116023707405629 -0.24787077087793854546 -0.1416852601069885087 -0.12232493378572070752 0.24640540857036755118 -0.024415733569886764742 -0.20457049945591326834 -0.10165619483822829761 0.023233919213272592741 -0.36270572764486408435 -0.40662541602037011179 0.049295268868323860456 0.034332490930024661679 -0.4415008293389144356 -0.28290264919677654554 0.14035004065380965455 -0.055706771599463557332 -0.14700818221560182919 0.11653910420630449185 0.39840487324167839223 -0.17982747947621288698 -0.16723796447543551325 -0.14634022634935564544 0.3854477835344641834 -0.082088879473695419708 0.35426799493625504844 -0.069573474295759885067 -0.12968349616539256997 0.31438393948579407278 0.20191862509972086093 -0.25298642182358987984 -0.17035372465431539157 0.29149567651055557915 -0.087403112773970018101 -0.10102676779859424971 -0.019831026292828714264 0.18915187437224104117 0.06980284350361494472 -0.079945080873539339783 -0.1674456044842208835 0.14393088439864920591 0.49175961471715906592 -0.079973295644749559097 -0.40434214333930623697 -0.21245542433760497558 -0.086075244955212903974 -0.30485573900388424073 -0.16956629201765646697 -0.038980173128888434553 -0.12798762367850211041 -0.1621902850097479698 -0.020479769138180715232 -0.3080424370405033252 -0.16555359951902062776 -0.12162999748259771537 0.010501883179309248056 -0.1057994425000814559 0.071091533173962453973 0.061628806516905360047 -0.13473560694189626319 0.020190284519769976374 -0.11550787600305406633 0.1219182661014677066 -0.067340398444846780168 0.052512413830528133218 -0.055082462519964216219 0.048743651505574074612 0.013171352717036823032 0.10576955715616356835 -0.026865511093047994562 0.2275916749460245303 0.30076220377262369299 0.055718113954673062493 0.12414450591861561635 0.30935683988506423869 0.081204411107324986352 0.029773079682773949395 0.023954023122522056372 0.094698578272027253422 0.12482314124346452489 -0.0094510484900834461353 -0.084689122658618151696 -0.038201483210429321158 0.086634879826377880763 0.13471022099721155496 -0.025560122799356981005 -0.087028343576049507768 -0.097796556165601983279 0.071366706066403190478 -0.0073855525554559773097 0.01477228596943131779 -0.046412765737056799198 -0.43173935767319526757 -0.14327687260261814939 -0.28614367548460484247 -0.036312598555667978395 -0.47167048339214806552 0.015864756497933233531 -0.18734707313131804263 -0.10245501887117848538 0.17623724657583519915 -0.25927263549253382058;0.4658539854705802119 -0.10342725816515131732 0.47079712503235310317 0.58049843432678860378 0.49551695790727873225 0.021232029056686758939 0.28355507596935936032 0.29468062868451044833 0.35478522499283177138 -0.13930574897677405755 -0.020971863159630278056 0.04474385402645785631 0.038449762526140698893 -0.10466495916733124794 0.09651489721468728411 -0.032560911659381214234 -0.15569786934511486987 -0.29370117536822110127 0.069004714018128104902 -0.49167874096320440813 0.23223501402869756172 -0.42483379808399002187 -0.071221111462317077123 -0.45892345013638941031 -0.00801472419409770577 0.12572170602607862788 0.064823990648567975104 0.35928925758633573073 0.42116238117118487416 0.22562180373171022985 0.063163929977618549216 0.13632299894332192136 0.10398718803338991012 -1.1912402771315222516 -0.026862722968579076654 0.2592966386947560542 0.039543736769131032638 -1.3357794867560481844 0.097099865663246451297 0.021483900686816020942 0.074828399306037546301 -0.47429618575566812044 -0.42469595105811680513 -0.3779605625720809936 -0.40087518243374270499 -0.57131245348761761083 -0.44462888408685558028 -0.13830163232303793741 -0.45327830126236856589 -0.1444019995122157729 0.060010297877797616484 -0.24268093359512629692 0.36520310948977025012 -0.078236602393087148477 -0.0053418747116654174967 -0.05874177478044897982 0.21455579474010627594 0.35157944089568043955 0.33007425527633948992 0.398487555674727989 -0.56006615445079199755 0.16611335149335751393 -0.40609033483611467474 0.083509798669122087267 -0.67105475050528029524 0.25200551521082098505 -0.44569484152307581315 -0.021618944509858122049 -0.20277358292111991034 0.11334986802610905188 -0.17624694602189525106 -0.055567916213050065621 -0.1002561162649997506 -0.018884266182452986993 -0.16974180148706879967 -0.14144255531285984673 -0.19920496487307653988 0.014384852082813632743 -0.16677253703190028644 0.13846864256772933865 0.025852598563672477688 -0.089844755826236522012 -0.22050619286614797643 -0.30228583575306217091 -0.30177209975011665133 -0.2193734902558509281 -0.18016551318120446745 -0.28732857595281907637 -0.18926397808673925405 -0.30398195047352227771 -0.12024728616068762477 -0.22891333033256208718 0.14459952834135833544 0.47226025171234292666 -0.29520694394829904983 0.59590113578723113985 -0.002733668713495880729 0.4740806395033724252 -0.39081452733728977433 0.35929115214106754905 0.25954620617284024364 0.097501088569910063231 0.060894345719347854617 0.11529182801834556016 -0.0089447953583845132147 -0.096455617788563804971 -0.0092933005825281203571 0.4376367040203860137 0.036879355367206767546 0.28612781598480846457 -0.04930917544638629274 0.16948272734221342395 -0.33348354846792360728 0.37053803514932709406 -0.20066885074448051474 0.30390684133798595568 -0.22109383082761685513 0.12238205940147048323 -0.065877821207215678245 0.26109322126647654949 0.17496462204122117945 0.09026134075628215736 0.046389169745434874481 0.027359443371376232501 -0.088290579178673000982 -0.12823657978589769746 0.12441671182141736396 0.65220525845760035644 -0.57382261320330152365 -0.5768846155606390802 0.24192107537089663216 0.39770474342760114839 -1.0770867285572007788 -0.76983107877610801317 0.83593567546403735324 0.16706679300129576027 1.2464098488242307816 -0.20030904289402534646 0.70361867963433744055 -0.26001787290958283672 0.72303104077173141473 -0.078273389434925927377 0.78775505389563438285 0.60648471257260028189 0.46893755812012416495 0.429739362395655633 0.42241834207966028059 0.48699708264067192998 0.55953476890095710239 0.49569747805346314751 0.37167488534552617363 -0.36831924529482129582 -0.42808417679470361916 -0.57972407691291805154 -0.40701609871115429495 -0.16203256770539772869 -0.40628773202650164675 -0.51983913313526075584 -0.4352539047113699322 -0.99974347392549101077 0.17653911467549557313 -0.19401436492064247363 -0.8486976325253995368 -0.9640497788970430193 -0.26745651077498105996 0.0041931375320118603398 -0.94328416003341597484 -0.30243434591408868695 0.055838547326070769872 -0.50487374954129482507 0.067968462306592106192 -0.47196052106115110591 0.19933455974036604075 -0.20849372701575871747 0.050688513635586844586 -1.1804277030423200312 0.26096172027726843856 0.063049633445820804645 0.0088921544530267855599 0.3178777194483002333 0.0090256735764434187219 0.41049707581921335287 -0.16248995397169516131 0.30069053050934557714 -0.16937630369513689832 0.14167561148193705267 0.35238801066458447231 0.097028214140012572497 0.2876968982986553014 -0.31617827252098745783 -0.12649896464765655879 -0.3936676152850207 -0.51504781863471305048 0.066062336817328662364 -0.12129539202540981502 0.097591241236482412225 -0.58791730709233458452 -0.21805876995269105056 -0.56743234784726714892 -0.25728615150441019876 -0.48660088680381036186 -0.19954988281768901159 0.57783934669823322494 0.17321015937202688395 -0.26226289168529681728 -0.38680844410663861588 -0.42392553851497533079 -0.33345184444810210822 -0.014207621063086487562 -0.1436707227134189635 -0.4198799790460643333 -0.24417581534036014723 0.14109349836995571659 -0.11685234436366549737 -0.58121290770389588687 -0.065933531280776960792 -0.18203787177649125018 0.158633374605724492 0.18382842045022459998 0.3955391804580880577 0.42662875906469799325 0.31821503217865526603 0.067478580096727469595 0.40039615371808734423 0.3692970304194039266 0.18120624206601029793 0.48446117265396709817 0.22437181699694830339 0.80865404991191691675 0.0079999814351703855964 0.73330566362317095574 0.064107804787965377846 0.67478592831216333003 0.12278594994340379098 -0.22226671679032364293 0.27044183364984003548;0.16033166207942037285 0.11104167068680542707 0.061538718278820701835 -0.28737020361596060658 0.063539433603682166085 -0.16134456542859798578 0.20217207257284341981 -0.2197142861023408944 0.074991301284283495843 0.017751766297335776212 -0.015925949444309465963 0.020433960475482661201 -0.13144018710539151495 -0.082365072170059047685 0.12849873763347430256 -0.12851720183810080855 -0.040955824746587071727 -0.22250090284048917866 -0.022574049697233491973 -0.064488179794113129062 -0.11860805349017339294 -0.040386511327016733075 0.056629509612911070604 0.070318867893906247812 -0.15813515688511128876 -0.027045053811179133735 0.085845722605671886951 -0.1542294909584258078 0.00099468085259327545036 -0.058807412496433161819 -0.06220638235659457782 0.098698937840634062835 -0.054778904227057473308 -0.14722081742861109488 0.17430254367122649528 -0.23025845935598768244 -0.057824799782526484226 -0.11958943653596403045 -0.13817888070239300879 -0.22756162666335402744 0.041632021837132070219 0.10177524451131264582 0.024118060122088502695 0.0246265939254161903 0.036985185550558574707 -0.13191756696456596876 0.070225706283557412513 -0.11590190069509125059 -0.032932756154967893214 -0.33268213728930495776 0.037655063068974890805 -0.14881429995915346209 -0.012759636738563780861 0.041477147513057227579 0.12371524937357920859 -0.17838891471310683312 -0.073747093675049932293 -0.11498773904335640728 0.037375359850767266023 -0.14431367609867748469 -0.049931669115313943863 -0.16306233932943409171 -0.22072355957361539103 -0.17867726636557065834 -0.12194024175710306557 -0.072120706363930628391 -0.076624519257472198386 -0.10040566149280559516 0.10669997970838762669 0.091718741463191116869 0.067199526972034795413 0.041074882461595900451 0.18770208437978061489 0.0084537007883083003373 -0.14825454834041398855 -0.056007154500453813772 -0.065214446337048662117 0.14989491411906707974 0.14973126865287780807 0.058322194287281706182 -0.062575132166071148476 0.1856251195501646134 -0.068907321897294010471 0.045985225602929079292 -0.00081498292662705482895 0.15773314934800308773 0.15405272786199997181 0.029284324117082049382 0.072302371444654470189 0.15970071080619505088 0.29563226829156596942 0.18865091887481277855 -0.036256545185490270111 0.23536908832768638211 -0.13567826323284082335 -0.076158032181557505647 0.0065796117915414720906 0.12252753816288937394 -0.12267590031971534192 0.11770924403684088211 -0.046374243879075814634 -0.066431611542487292721 0.11156950974809633215 -0.16369977781226691116 0.02346872896721408433 -0.11171259075393000226 0.042623966228660992162 -0.094733051004072435508 -0.23500216496655454423 -0.145193127018170276 0.024166579717958918544 -0.036891362298786430085 -0.085061596406518252822 0.01416012307173266857 -0.092512488689814348364 -0.11283028293008905141 0.1854127788384291875 -0.031586048591429168042 0.31291976068754451257 0.29301727003450861453 -0.057609771677582105598 0.25924717581390005483 0.18481700085970728664 0.21767581556334869575 0.24053434519181890461 0.35588665068973557304 0.22270995156958148242 0.042891015396985199271 0.27574757562550211709 0.18526458513747123824 0.19849242452012325066 0.20679946676083793555 0.29282187025574923922 0.105681783444324634 0.044449346753034524315 0.35330817193379937535 -0.059854932983125358481 0.35339567168159286004 -0.077703033454564959803 0.34091211916341718213 0.21851814789401979855 0.24406867651137573172 0.083391364751584637349 0.086962517960661442351 0.11868323099786219632 0.068596999947336853576 0.19986948698586318174 0.16595782866706187964 0.076147916922105388093 0.13247955679845682675 0.12771427447973751623 -0.12615680145099272824 0.2268436690859801097 0.069629046522315801715 0.39477065474783440413 0.0015282222600422710069 0.28771917540057501128 0.1016496265678784594 0.23001905462013888526 0.059140465670534457521 0.10531107540092685126 0.36227951452911916208 0.31028685448687459703 0.1536869671227128753 0.38264589614284577612 0.21328989601077388838 0.062658444962376408371 -0.042863806174517384007 0.12401185908029670191 0.20411327076899962729 0.30293070947513073277 0.17117896797030837663 0.22419616452508150939 0.048307028468138481225 0.28455672976780754801 -0.62713059340116250606 0.26541908297384869675 0.044338971003235590207 0.18816350123988886955 0.10393830808062345938 0.1038809998438192661 -0.01666369390084472546 0.17181263078190767146 0.21240433333509362024 0.062415593248430441264 0.014956756829643248069 0.052902020767345840635 0.096689270407876753977 -0.021253323574696673243 0.17896616532486503415 0.19517609633640656264 -0.054411019896747618574 0.038879885766318622586 0.13001060638398251323 0.13508012110602682365 0.04345363980312648422 0.15242363845444889536 0.0083103645990271098054 0.27282176850320893902 0.16452365961582754439 0.087339744993441048582 0.089092887165335504784 -0.10030751082389557927 0.045661941665339558782 0.147661437028689696 0.0052944109832988826836 -0.02801465701484577922 0.1470307092634001167 -0.13150817777320972235 -0.10323153687107135268 -0.00059807117387840943307 0.022601419121851904631 0.10126117613235571802 0.19107215291527651635 0.17806406707965910519 0.11641389135147311995 0.044618766176452384631 0.088143852950756024223 0.046466220541307681757 0.10281851547087601795 -0.085747594258074447127 0.06028903073958034875 -0.14936479675502128961 0.06760101342462876417 0.037807721912826872113 -0.12981608949949413612 0.30408661261038993917 -0.14151923380373801487 0.18534808716411499407 0.014277807599149596254 0.21248401456013002453 -0.17133130398161408592 0.054846107854890260858 0.070705800914149991021 -0.04248432305242568624 0.19589627808308207602;0.17115057978275480255 0.13108199908620346563 0.12501274040103413365 0.015515663885248972068 0.036410365534387201247 0.14821801153453825761 0.19111010192284097475 0.075644160093844461934 0.19444968934712464348 0.095259299869453445408 0.14635932233946016834 0.047260112049424263247 0.068004322735661162924 0.080264711844238528782 -0.15179009382843533515 0.1408035381154650878 -0.11681062983537897348 -0.20793870198799366267 -0.044251994610079975478 -0.20192319268483838179 -0.091112225899730128753 -0.23570564220003084599 0.12455231109740209916 -0.24095312563577347964 0.13836882211054934988 -0.030500674905324220293 -0.0022021249085427381867 0.11180865703070591577 0.072800319071961397399 0.10338195279445894226 0.21806871923818268999 -0.11209674727877698419 -0.13656923064454593031 -0.073384445639113796145 0.14369509523185794442 -0.16174100263653840015 0.096085216998847255976 0.070043243293455834109 -0.062819445595327719212 -0.059231065881374223014 -0.14610908000033867582 0.02702350140770191228 0.057752936885742976736 6.1256357669239478933e-05 -0.037680069211095360004 0.14715763385226252047 0.071280791453543490555 -0.073147026318988367377 0.061762098580401797454 -0.18772466466056569878 0.27777835633905501034 -0.21176165427048054823 0.093936257134470943497 -0.1242231201247387673 0.049446699223137172141 -0.18409022456401358259 0.010579286685253465328 0.078277023075921825512 0.098450035452958786775 -0.0022176853685613086981 -0.056172653726351114145 -0.12065451060675783101 -0.038276124878378753325 -0.20570716661783780554 -0.13957715342211707288 -0.11966812372851738655 0.16297107616482706116 0.035205372330725535901 -0.09064888312491065081 -0.073014081531030713967 -0.054715994315763710754 0.120769251549018658 -0.01134802210460324895 -0.14606037824608072984 -0.026560790373234572509 0.026544176284773481761 -0.10094677656746049721 -0.33542806763737215148 0.0042426535786750027568 -0.14210675525573604472 -0.24237152867316824612 -0.15605213744490631367 -0.18495664425790020458 -0.088816447984194635268 -0.25447941554652092622 -0.065892289012361354716 0.13901382519118965497 0.17749712724630981042 0.013442098768403784592 0.022639256398780612661 0.1973947056812918599 -0.082864337218973932453 -0.0466984537768947508 -0.047180007964493682338 0.015120952646888429979 -0.078849315702692476804 -0.26121021382738768279 -0.0071726106754066700985 -0.077930943029372978792 -0.034589258406567770232 -0.15583432333089092259 -0.093279544579432646656 0.039976001219726102487 -0.21400513487708111571 -0.026795967388005190873 -0.23005360035428004672 -0.1688924250928557913 -0.00075235996401795354228 -0.016687276424315992951 0.14539017747329188723 -0.1618335750886383817 -0.074950402109247665772 -0.049123936921053962257 -0.12455690514093356591 -0.27142789446289217192 0.011259989975418530431 0.02422733469512821855 0.0095700710745891485326 0.17961067894752452689 -0.026980539773152605737 0.11120583428659418235 0.25665746527611682515 -0.015264263248099430026 0.24125325547941153803 0.24465849970860811813 0.42066016659189225946 0.17353594383928713785 0.23954534493974000142 0.065614935481382988258 0.33128456926621802081 0.028620329271644859293 -0.019886665138407689374 0.12056280007766449758 0.022015713535510593457 0.26559048408986235534 0.15307489797317674896 0.21529399800190807124 0.04402991212254640796 0.29600454074202131594 -0.059433632455959208019 -0.017550409366869489103 -0.042692832064646149548 0.52049189247169336259 0.0051023723223888551789 0.017390859764760218525 0.3551918464951950849 0.30403012106405585824 0.14501672579156651977 0.13222497539064190231 0.28003853837025416418 0.40398248004009568168 -0.23566597443591896788 0.14675349920378702451 0.2160301723582147837 0.16542153581909682658 -0.025541527158211424497 0.22924777728128772902 0.20178413396314578976 -0.0028109821069608569022 0.053271778717448800555 0.31228180185148224357 0.23000724701716687703 0.16312956822138385826 0.25504256116183121605 0.17150090449432661699 0.15374868606231681389 0.11050806907765181597 0.027304120388708618544 0.0959720923134609466 0.16794859184761898319 0.25963375847922276485 0.14415111477609926505 -0.049187683671024537424 -0.035104502412893222318 0.38396814455021377466 -0.43198597503550051346 0.16286893630369642105 -0.046196609440379801659 0.0486670716129938008 0.024838160425511002921 -0.011805926516204759066 0.081606625828419210311 0.079976875784652706747 -0.10501597489228979565 0.085021679295591720549 -0.096232948760449715797 -0.1355261621787479942 -0.14170557596393731914 -0.049281502507415204939 -0.12770043043919726555 -0.23892898071542767457 -0.12573233451862064758 -0.068480427275000005372 -0.089691442996999659609 0.25638291363689980074 0.17945656351395800066 0.25299517447414188176 -0.13751416225827450823 0.37063807485499561389 0.0018980166401356213593 0.31720348624656236058 0.055547753945267862308 0.063636192579137579317 0.0084678882708695817766 0.07588274915855330871 0.13622846702353710868 0.13585456008170521125 -0.033487274395520245929 0.071789234659481476752 0.13271254639613419557 0.18165240976451080268 0.031820153145267635053 0.10010146386178778166 0.02484382869554515802 0.31308142552534784508 -0.023456645796496523176 0.20281685141201513667 0.12167902758359527837 0.037805880843886148501 -0.021225648108929601188 -0.10064365938638512865 0.058119031507330741471 0.035370022497034039888 -0.074776134348007117225 -0.17392057385971132488 -0.039590820555135713965 0.22751588398818320402 0.096500081855049296697 0.084877642903489203263 0.16349114400649422674 0.22278107650743322887 0.20857544774812955546 0.10171585373237763961 -0.061901638780620882319 -0.22235597130769682583 0.010134990098777061154;0.11892178112660220513 0.16996796163082925069 0.0026009890135471496787 0.0029448445614345631835 -0.014761661797473126304 0.15812556286014931017 0.16379713319824201756 0.12141104084238733829 0.17545247107641551154 0.048907305103763495935 0.05075757452908093853 -0.055096401618108914455 0.11237494116366787689 -0.066029560452757082856 0.18735314831412031022 -0.10232936105558543272 -0.0307255664515979042 0.0072960052756142236563 0.19154433904847845138 -0.055662952470388160631 0.03922652442575998849 0.10622324267249905194 0.05314764766477423491 -0.061874331941722017503 0.071866781612780442079 0.12834729202402950232 -0.0636343585502536363 0.16938337221324456516 -0.041093877841544314278 -0.069395954366537657143 0.19601147296837165279 -0.019208657281981313808 -0.0046235210041162015313 0.067605215391994044616 0.15832734877739937374 -0.096030775685356978277 0.20844539941840692365 -0.010095649265943501538 -0.067035893224522177802 -0.046862751886072709362 0.18775872666905080166 -0.11427034562550232588 0.044242635906691821224 0.053014959536525137207 -0.086825680857815210056 -0.11116448255511442167 0.063203144119470491824 -0.059817012570002783822 0.18058672174405815403 -0.14229962547822580521 0.14644848359393411452 -0.11869015999206658507 0.05935456324571489195 -0.08294690497506637672 0.035808809533701461969 -0.17974266003381000889 0.18659970021018917885 0.067309284355398693589 -0.045402538426669858396 0.060519522540562413482 0.084854602351267169325 0.064376884099978048948 0.23596274656131219216 0.02121070913940897168 -0.0019347489117526510492 -0.045992747453378987621 0.039859148351215109574 0.066467112875171679987 0.10474087913469540267 0.065966901315221967983 0.10856764864276771676 -0.0049441890467884783492 -0.06472627069802962263 0.13901537057486298976 0.024780865559763030209 0.20224851951514882797 0.12837528714055160273 -0.0089029667068147508302 -0.021074659033247115925 0.15177700171978222854 0.11729257189926636795 -0.062135588482531652066 -0.14075199378508179704 0.085248161950727083247 0.076636805580108005587 0.22319949583010234573 -0.057762264879970534603 0.1348404506205885256 -0.057913306815265720717 -0.053915701115659776799 0.21823395704669415474 0.045233209806338110781 0.10448901401546577261 0.08883681619258704254 -0.12011296751969088858 0.06299180044696220393 0.012431354361651937926 0.044271434871131866429 -0.074392742232258710078 -0.014811011526424333606 0.10515807105191533888 -0.13634019245436695966 0.037000221950198398935 -0.16062027950282800615 0.11356134198239978272 -0.12063986451952092571 -0.0747629142852522105 -0.01200726096525923936 -0.01184357386865943218 0.090640361016033094144 -0.060729102906065465795 0.07124532200891889322 0.079756525431905797574 -0.0020361676482821035317 -0.094974862473676840979 0.18977256424537125579 -0.12280461769060346811 -0.16636213353118994851 0.046253074973721698682 -0.038063949941032189372 0.0008156042179419685555 0.19659599466186614136 0.083249000660125305195 0.00163890882444603001 0.12044542935984851872 0.019200383462850627303 0.13209768600331533994 0.070780395297429771206 0.050310284908203044274 0.12186825060533144904 -0.094358871939677943508 -0.082774034120659159552 -0.042270275837879879577 -0.053480651637334300497 -0.069502267302724740627 0.17019148006241371918 0.096485798393890945257 0.078032461582001722 0.043666911591753135302 0.11068594516810759121 0.1801463457984568417 -0.06077541041376876424 0.20643150224921300029 0.17165319232003795058 -0.060877899985777923775 0.15758321204549008421 0.22635260096223908111 0.037828214181426095264 0.16441133376900982088 0.19629559643371102817 -0.00088039327973631802474 -0.1030856035435814555 -0.031857712246861777383 -0.040843662405233405188 0.078512793760877289118 0.0022651788157928461065 -0.077306873548641616423 -0.073801238252783479821 0.14223162424568688844 0.082472766669252850491 0.047005090085750399209 -0.12613662486731475054 -0.12837913566734993065 -0.049872002640172809207 -0.051806045317350633839 0.036594186788312582648 -0.10331478906232773041 0.13766334977888536328 -0.013010424957795113654 -0.083516275512969181949 0.21704884238258714824 0.012071474163161411905 0.012821856753067363208 0.060134421267826913826 -0.033329783446697514027 -0.1221719317176196834 -0.084928353730961247958 0.14622253037627486183 -0.0045767329473882104388 0.1776519421266608556 0.19877415643428475445 0.17763007483190476621 0.2158602302816377827 0.22821599748478219039 0.024763619352693236331 0.13765818472431737285 0.25740672975347894669 -0.013432581772936715361 0.25652239614623284503 0.17446017630387888886 0.13770574837565860427 0.10441394750920290901 0.0051451558735277781037 0.25149397842038684336 0.23767052987231993 0.24353282230175260503 -0.053977322202487659775 0.085523935855170860054 0.083491684121166878652 0.16293467046811230259 0.028079226387146882793 -0.02694233904597042456 0.10223831984249678873 0.21815207231952274403 0.15383117664159579041 0.24271874004237087297 0.092369524770921543344 0.057679587276922683614 -0.039457112734057837866 0.025931379372464754413 0.15657819565289321506 0.24107162427456407805 0.058791612531159775923 0.14858146353359180658 -0.020574225675041704631 0.018863451471897017819 0.048796834209127289139 0.15404717215030483413 0.011875143831024358165 0.22797923462131211569 -0.0091752287378345041141 -0.029187985602236760085 0.10556100237616038162 -0.013891834806899030705 0.10298557571273378453 0.25569157631612965398 0.078260054161913394921 0.15540082279945038879 0.15974802090138331967 0.11391258036583956637 0.18134940179788308634 0.18383141006696473996 0.052380505606017181697 0.030888444214152963735 -0.28786777845464861514 0.23734709475751836205;-0.015678295047009183083 0.25707875544662295297 0.092395511543747754768 0.21256982170072893923 0.081315654493131273028 0.47721734555431460922 0.01728378198315592279 0.17127245476419794556 -0.043895337867120680364 -0.0029975596884256974252 -0.096876856686186618717 -0.0099696995136050146902 0.15282590143989713272 0.066963124011164554261 -0.057677459762185356862 -0.043691412276966948292 -0.12022330793476930511 -0.076818466087562098377 -0.37266825692343380494 -0.095231814134242601111 -0.13629645396713410688 0.12980628942009347915 -0.34216427414122752015 -0.12583572401387735362 0.05496652139553023092 -0.17908825283581081278 -0.2446823199640621449 -0.058698635214517472236 -0.12237111864195937549 -0.14152606004781392857 -0.046765403241130029666 -0.18195735496611309401 0.0029253078907344486938 0.23551841041985047132 0.081188886731536083485 -0.34394781112482847307 0.10185201100018434484 0.3959618841849780746 -0.067865259155137497293 -0.34683627450800319503 0.034984370744190633473 0.037262324200581904698 0.16952805984666793893 0.2178305264823297005 -0.0079886427175337604983 0.17467998071504989288 0.28574447028530530757 0.20135533602437133416 0.096065861634718419104 -0.030442941678124044169 0.057583904415880675376 -0.14375090974027715518 -0.015149204230727634363 -0.45302041189954617151 0.030172248732434497204 -0.41395531094090770585 0.11753760914313995944 0.12706371821593218097 0.46593606914879298619 -0.28435214650842705053 0.30540137065171285569 -0.33400176926340052752 0.10907949258300331241 -0.34977588136639198302 0.1004890407482236514 -0.30541840054361935053 0.059721915393682031836 -0.25086504452208430171 0.20199884225829273232 0.031724733573143801268 0.14160592042321060169 -0.0068235090985781432157 0.067991161953600803836 -0.17675643680928521118 -0.16189712051338325804 0.16792989944542602299 -0.0072148433169403249771 -0.57882521627594019087 0.15600768556352428984 0.12530802252123543483 0.11247028771359739163 -0.4171231093813970725 0.016174155942912854522 0.3433905174290811102 -0.037114876425463842746 -0.34252562171312517236 0.12714068852854193414 0.15268343053392027797 -0.09592534139812079752 -0.22428376449863418607 0.10848696611308226989 0.13278175752028203993 -0.24491880244120989296 -0.062443889889210894839 0.35029247317840916942 -0.047407883776449492863 -0.18980665456420064974 -0.1557256381478055729 0.29797482640168498902 0.027312930876851049256 -0.25389202166369595481 0.12119690932307856934 0.1039964083882653767 -0.2645474763208099378 -0.28257770678752086591 0.048227140836171182581 0.11709868401953957284 -0.19684670623756450603 -0.29172791062474928703 -0.011760650334242242487 -0.19894950565950011989 -0.046954670955830599133 -0.36888768590723586271 -0.059622005027121241505 -0.32559451734717403948 0.096630919238604479071 0.055854039100991424716 0.17354116823636658862 0.80735436010542616092 -0.012287160391368621634 0.018238767745376766732 0.30413010065764189971 -0.11715871855784805444 0.058343853102316704795 0.21375993738773022002 0.23808746322306009735 0.19989018892285750906 -0.52786693701074882679 0.29808133601996777973 0.42271840177214731193 -0.18394130733023675295 -0.78009801113844490228 0.99741030043911937941 0.92100219050416665123 -0.89492451104627956937 -0.38783072848888178186 0.46991343063378199219 -0.42931398190216923938 0.57997954879076640822 -0.35315712395163334492 -0.0082031985345514292496 -0.30227474591433234341 0.72039471683084810305 -0.45212235703519398911 -0.47318041077528522065 -0.021744912310712939674 0.26034309055228804786 -0.3859067201045656148 -0.47356634660842605866 0.13527748507293763103 0.22426545243591383683 -0.21206855300712998402 -0.0072983893547784606942 0.73041619520171618962 -0.12017921823276053739 -0.015061877982142677507 -0.079857159434285271415 0.7435792792411491936 -0.073893256826190328868 0.59202811187584492014 -0.55898518049738321611 -0.53094045516659515993 0.44352744541845945392 0.58067201197591478135 -0.57396689694592017972 -0.40564093934516198825 0.74918618071611586817 -0.071811315972354045067 -0.21439580898339366533 0.13797616818454769283 0.41800739856484153689 0.36706825446784546729 -0.27822469401285249146 -0.021740120119846773061 0.38203832797649528441 -0.37460973838036443206 0.78757240067364797653 -0.12245485574012709984 0.53807886699341622716 0.070458567006978306546 0.2692732339802514363 -0.04297675839605610143 0.65575060346276081713 -0.10594549426424129668 0.18838771453902961039 -0.21592350057711867661 -0.1959461546067447768 0.23916264918564902886 -0.090748472619394143779 0.17292653635076524199 -0.020295983469829279727 0.25454448138087182318 0.25704912692436465704 -0.21206813011202937935 0.21754412651235716103 0.40355191811912677347 0.23580297182528414668 0.17431973494396579838 0.095876292324566847469 0.52755464986614386547 0.2142415604116638117 0.13837442375381389659 -0.090527321706034044602 0.056909048951715605902 -0.14627357017197500921 -0.13840175698771001178 0.090884926463164789068 0.20757653227960767839 0.025930380196794607789 -0.21074645121992877095 0.22803131763423928335 0.047211784864101838388 -0.63463956607306826196 0.1275424204077839907 0.14596815707110291638 0.073268492152595454669 -0.26879877129705825878 -0.15101485935069697275 -0.19769900385420227651 -0.14938254103030260134 -0.36573092527818146236 -0.19023543757605357318 -0.043198942114185630292 -0.087944701781662540374 -0.40455400054377493868 0.059776627519653520448 -0.24956255653425588048 0.21857331033121860098 -0.22454402825157646073 -0.34626498626870616526 -0.1774183574804954755 0.094327282715139321168 -0.1594740223515707378 -0.33437599523770483723 0.51980093159610496478 0.0081713533387150066867];

% Layer 2
b2 = [0.78797837449640573126;-0.98140446303877193479;0.33331202071954069144;0.58556986789477760702;0.33016561788415937917;0.62520120629992370631;-0.84972270315743669844;0.99442513370474205914];
LW2_1 = [1.1737349438700899196 -0.27965047620991928534 -1.0651739384808245337 0.42592111135660204457 1.0306193256012268211 -0.3977653127296191804 -0.70265158793829118888 6.3990692575567829081 -0.36612912813959586078 -0.40349250516409995715 -0.35763368123645017382 -3.1252051489456049715;-2.1270896316400498272 0.27152769166498086362 -0.68228907445481934424 0.014307389537687641157 1.6872263076661973003 -1.1264747676570647794 0.32885799912986246607 -1.0992016221596243586 1.0296035206824889485 0.48594975331234957494 -0.22772871739829453341 -1.9188787561217164335;0.4025819169980036083 -0.54484562211832443523 0.73636488586689186064 0.49457272746594838075 0.78765199286920728472 0.81957430260557595503 1.3676278058674382621 -2.2667259571495121939 -2.288154180212360167 -2.2040800558678554921 -0.35397748938505069205 -2.0097183887646368206;-0.9020930805133292596 1.12096540688296753 0.86969081436701489718 -1.8658673838604593609 -0.88317894664689489126 1.639640373772548676 -0.67201073289360602203 0.2713366106373390485 0.95806782264662382342 0.62274105306523463987 0.46860625305496450554 -0.95190251178998197545;0.058110284194308872707 -0.83546943850370103402 -1.6274400295957860418 2.450546268747067824 0.48799468472295243204 0.15378565141532579696 1.0180556201109933756 -0.75776909540119030684 -0.077338505021362372038 0.61725763084363316491 -0.19127111876917160527 5.1275061392343941336;0.3248027308689788728 1.342413903352817961 -1.5636165433691890936 1.3527563706849532466 -2.3016767074232120649 1.1060034787959773794 -1.162255823203080185 -0.77353339259620279567 0.80814768377355872264 -1.3254882487142050085 -0.25348187508560432457 -0.40630357387712540129;0.19568086274221846432 0.13777429776046093424 0.63182061181161175423 -0.42528777919137145114 -0.39886323371093829193 0.006394327353681577078 0.24482919639600758677 1.1151057120798570921 0.0070915611808478624251 -0.46732466897832480868 -0.38002140286100960509 -0.36767156756817648278;0.12014979634385450358 -0.75586947382512814642 2.9394381856431910371 -0.82033222468845379272 -0.41252161350779897875 -0.74632945888687018954 0.058994671490297079242 -0.19404465767630105222 0.82091121901474006783 0.32201560302861698126 0.0085373318619428924942 1.7807987174170203382];

% Output 1
y1_step1.ymin = -1;
y1_step1.gain = [2;2;2;2;2;2;2;2];
y1_step1.xoffset = [0;0;0;0;0;0;0;0];

% ===== SIMULATION ========

% Dimensions
Q = size(x1,2); % samples

% Input 1
xp1 = mapminmax_apply(x1,x1_step1);

% Layer 1
a1 = tansig_apply(repmat(b1,1,Q) + IW1_1*xp1);

% Layer 2
a2 = softmax_apply(repmat(b2,1,Q) + LW2_1*a1);

% Output 1
y1 = mapminmax_reverse(a2,y1_step1);
end

% ===== MODULE FUNCTIONS ========

% Map Minimum and Maximum Input Processing Function
function y = mapminmax_apply(x,settings)
  y = bsxfun(@minus,x,settings.xoffset);
  y = bsxfun(@times,y,settings.gain);
  y = bsxfun(@plus,y,settings.ymin);
end

% Competitive Soft Transfer Function
function a = softmax_apply(n,~)
  if isa(n,'gpuArray')
    a = iSoftmaxApplyGPU(n);
  else
    a = iSoftmaxApplyCPU(n);
  end
end
function a = iSoftmaxApplyCPU(n)
  nmax = max(n,[],1);
  n = bsxfun(@minus,n,nmax);
  numerator = exp(n);
  denominator = sum(numerator,1); 
  denominator(denominator == 0) = 1;
  a = bsxfun(@rdivide,numerator,denominator);
end
function a = iSoftmaxApplyGPU(n)
  nmax = max(n,[],1);
  numerator = arrayfun(@iSoftmaxApplyGPUHelper1,n,nmax);
  denominator = sum(numerator,1);
  a = arrayfun(@iSoftmaxApplyGPUHelper2,numerator,denominator);
end
function numerator = iSoftmaxApplyGPUHelper1(n,nmax)
  numerator = exp(n - nmax);
end
function a = iSoftmaxApplyGPUHelper2(numerator,denominator)
  if (denominator == 0)
    a = numerator;
  else
    a = numerator ./ denominator;
  end
end

% Sigmoid Symmetric Transfer Function
function a = tansig_apply(n,~)
  a = 2 ./ (1 + exp(-2*n)) - 1;
end

% Map Minimum and Maximum Output Reverse-Processing Function
function x = mapminmax_reverse(y,settings)
  x = bsxfun(@minus,y,settings.ymin);
  x = bsxfun(@rdivide,x,settings.gain);
  x = bsxfun(@plus,x,settings.xoffset);
end
