function [y1] = myNeuralNetworkFunction(x1)
%MYNEURALNETWORKFUNCTION neural network simulation function.
%
% Generated by Neural Network Toolbox function genFunction, 05-Mar-2018 08:52:54.
%
% [y1] = myNeuralNetworkFunction(x1) takes these arguments:
%   x = Qx236 matrix, input #1
% and returns:
%   y = Qx8 matrix, output #1
% where Q is the number of samples.

%#ok<*RPMT0>

% ===== NEURAL NETWORK CONSTANTS =====

% Input 1
x1_step1.xoffset = [2.36611163018097e-06;6.15967292105779e-06;0;1.44108253152808e-06;0;7.47331159800524e-06;0;1.40835754791624e-06;0;0;0;0;0;0;0;0;0;8.50533706397982e-06;0;9.55973791860742e-06;0;9.15758937480859e-06;0;9.86513805401046e-06;0;0;0;0;0;0;0;0;0;1.35915188366198e-05;0;3.27552606904646e-06;0;1.37224169520778e-05;0;2.3828026769479e-06;0;0;0;0;0;0;0;0;0;3.65026892268361e-07;0;3.3279630429206e-07;0;4.18571431737291e-07;0;3.46503412629318e-07;0;0.663781046867371;1.93242758541601e-05;0.00430006626993418;0.00398716703057289;1.94980293599656e-05;0.00522243464365602;8.01165970187867e-06;0.00399644672870636;1.20755557873053e-05;0.00510430941358209;8.3883614934166e-06;0.000268587027676404;0.000246082810917869;0.000294617697363719;0.000317060446832329;0.000283187138848007;0.000250171287916601;0.000293648947263137;0.000275280675850809;0.00800213310867548;0.000458560709375888;0.0100244032219052;0.000524006958585232;0.00770387193188071;0.000542004418093711;0.00977464020252228;0.00035087758442387;0.00264834007248282;0.00368258310481906;0.00333695253357291;0.00279042078182101;0.00377882434986532;0.00387700740247965;0.00293437670916319;0.00221307459287345;0.0132055329158902;0.000912936229724437;0.0150348832830787;0.000783838622737676;0.0133163677528501;0.00106638367287815;0.0152610428631306;0.000551369972527027;0.0042122327722609;0.00387744442559779;0.00372824561782181;0.00393587443977594;0.00413413299247622;0.00379088427871466;0.00384085648693144;0.00415701325982809;0.00585309555754066;0.00087124778656289;0.00542754260823131;0.00043481815373525;0.00512476731091738;0.000854048936162144;0.00544861331582069;0.000401832687202841;0.283194124698639;0.0394891425967216;0.00434286007657647;0.00302151613868773;5.60502985536004e-06;0.0025428815279156;4.05736273023649e-06;0.00298736663535237;4.1102321119979e-06;0.00265284930355847;3.95211463910528e-06;0.000303165201330557;0.000349115434801206;0.000362817052518949;0.00031202009995468;0.000332104245899245;0.000364368635928258;0.000376540061552078;0.000309702300000936;0.00789775792509317;0.000429089646786451;0.00778368301689625;0.000464009557617828;0.00808462221175432;0.000451359694125131;0.00817498005926609;0.000447223137598485;0.00606347154825926;0.00553627591580153;0.00546807330101728;0.00513929035514593;0.00575504824519157;0.00594909070059657;0.00548469088971615;0.0055074617266655;0.0223768223077059;0.00187817111145705;0.0243933908641338;0.00189876137301326;0.0225633941590786;0.00196619867347181;0.0253317225724459;0.00198186514899135;0.00172219518572092;0.00142325460910797;0.00138419272843748;0.00197454844601452;0.00186262011993676;0.00136789446696639;0.00142051151487976;0.00169416074641049;0.00254467921331525;0.00176818866748363;0.00245686410926282;0.00194969156291336;0.0025257000233978;0.00199950090609491;0.00267607183195651;0.00177761563099921;0.237952262163162;0.0213675666600466;0.00105298857670277;0.00182034994941205;2.65328235400375e-05;0.00193975516594946;2.04249190574046e-05;0.00177067634649575;2.43980957748136e-05;0.00197124807164073;2.64858117589029e-05;0.000218918838072568;0.000172364379977807;0.000209825171623379;0.000204868862056173;0.000181987707037479;0.000205440010176972;0.000183184194611385;0.000192584950127639;0.00536010647192597;0.000644800718873739;0.00538958935067058;0.000601599866058677;0.00539151346310973;0.000668296765070409;0.00528208632022142;0.000645075517240912;0.000332104857079685;0.000295662030111998;0.000599890714511275;0.000573139463085681;0.000321349303703755;0.000366411346476525;0.000575711543206125;0.000578435079660267;0.00992173328995705;0.000740892719477415;0.0113604003563523;0.000785790558438748;0.0105769652873278;0.000883986882399768;0.0111350808292627;0.000807232747320086;0.000176287459908053;0.000177754991455004;0.000186917488463223;0.000194943233509548;0.000203317977138795;0.000192126637557521;0.000185501281521283;0.000195048851310275;0.00159548001829535;0.000259757420280948;0.00162866443861276;0.000263892725342885;0.00160218635573983;0.000258980493526906;0.00158709706738591;0.000257060950389132;0.818251669406891;0.0170374643057585];
x1_step1.gain = [14.9674022265805;18.4346560345783;517.651857371907;36.2436296708712;545.839810618197;18.8234233544109;531.462747085656;36.5252920864892;507.914034510745;126.564782743634;134.012579867581;126.236563301403;137.395725479267;136.7562749001;126.844525289536;131.973542652238;126.93655216538;14.1804087633981;77.1547333702529;14.2750185570398;84.8077681742753;14.1708952933291;74.7759142212929;14.1142638016825;81.0275361396882;23.8792028495406;24.3740276192808;25.1431236879229;24.9617561828213;23.4635261161578;22.8171977807001;18.9619060838558;23.1791612669693;7.86120658359097;42.037960400899;8.90860128463667;41.6644318969255;7.848365237264;39.2887905985736;6.98909206976536;40.2958919005823;30.7493917659561;35.3038967447439;35.3317911279823;30.4164711310577;34.7277210795686;33.7143602822941;33.8207726988014;35.4206555769179;28.1745833336432;39.9001522070015;28.3334476692699;71.5228235314179;27.0956111382226;40.6649963498746;26.963940963205;72.3751904518349;5.94850463177504;3.40289114299019;6.12189143842815;13.9600910104754;161.354072948516;11.1361758835343;101.461054726435;13.5035978511792;174.945927498709;10.8517342336536;101.941722942169;34.2398589380413;37.1802019606617;27.0128619974099;28.4684420943605;35.6656002979259;39.8363412879175;26.983563023939;28.3990572347072;7.99494112757882;14.4160839724858;11.0515977579933;21.0165924196162;11.2638472938183;13.8167000995355;11.2587553571637;18.4464274460802;6.74432581063201;6.03667872034969;6.89769852593551;8.05661115191627;6.81701734219801;5.95021970331826;3.98251942729032;4.60549637794655;5.99345120532626;14.1320051425376;6.55638900640867;15.0458496785063;5.94994821122872;14.4420390183186;6.8521465706722;9.74940270436734;25.3601860009916;25.4441788188205;25.2937391567911;25.9107586137881;25.8779236560011;24.8966150536295;23.3845600167928;25.3010801151636;24.5912100795666;15.5134325417163;24.3345102203993;10.8223260128636;24.695902552297;15.5869357342893;25.270955518402;10.6740540961708;2.79694082596632;2.91355479640681;5.54069870337155;10.9157444036697;152.217929674031;10.7366940634063;149.465472045772;11.2836448464894;149.188260128806;10.499925632702;143.02894146976;46.4098755445485;44.7159306159459;44.1620191711651;46.1968068103163;48.3305773308021;43.072251283883;43.7021032706752;47.2738917742823;16.1916892248083;29.3576734519408;16.3724484002445;21.3098983925299;15.7293757400142;14.3773261810872;16.2882758092786;24.3517862640769;6.3338257375929;6.36313749578419;6.11014606171399;5.95751087535593;4.55463988674969;6.41462953146677;6.12613106998733;6.00580423239169;8.45022020595525;18.2498237760546;7.98190630232927;16.9562136735277;5.42014318938565;18.1293624535322;7.90342797927553;18.3955715050539;27.883555153735;31.7965554569908;32.4492950150932;28.0976222979666;28.1349529990322;32.4459787601944;31.7324680339358;27.6849276669033;46.8691123202986;11.2313948731078;46.1611818551985;11.5285740948022;46.2763000923146;11.7817044435769;46.8183216781441;11.3410954661408;2.63751534695587;2.78917679568966;17.4733882608289;36.581170555055;451.898932504354;38.751223044603;434.904998523842;36.9196622419168;434.092708363132;38.429472027198;441.112901813702;157.749059727412;178.26331607214;84.6315852954338;177.823925008699;187.301776984628;175.428583336391;187.63070883782;78.5686935791816;23.6242092024526;175.213640740766;29.7738076384838;171.110211935704;29.2728933199792;172.839770593197;29.602428677557;178.687741288468;16.9953097563863;33.2140074631728;38.377930915079;36.1181549684638;36.288744800094;36.9929875220831;25.7621526935931;12.622679104902;18.1826637450453;78.724079093099;19.0828027644336;81.8968758651928;17.2146645657588;78.1721811777859;18.4172341547845;29.2900974899932;70.8349534840934;173.383205848147;181.496916023812;152.692344062559;170.067432797495;80.385132895563;153.546085043789;129.911503562662;49.1920198860741;71.6129239548252;48.6988322257095;57.5673750026161;48.3773553460724;71.7217903260324;48.7969095221946;50.4105102342093;11.0482215042101;3.85850737280578];
x1_step1.ymin = -1;

% Layer 1
b1 = [1.2919894367588697914;-1.0927912817056473216;0.95546175211677597527;-0.72626388783437767493;-0.39124306694164417975;-0.066993929460460580061;-0.19597418458120241525;-0.36316915610262445746;0.55842242311648260245;0.83374696772610246143;1.1341860101391327831;1.3245815375998379881];
IW1_1 = [-0.031825818872745811894 -0.0063931151464566432496 0.11916162667409847808 -0.15629256422165757612 0.059192624862297857358 0.26630656215189324465 -0.15106764304717859582 0.082330149658392456913 -0.13180591590498133558 0.015647162244901209605 -0.16705872996522949658 0.077958862480917878734 -0.028632401316417636916 0.0120760363641787688 -0.12475838384981841056 -0.19509726928606888063 -0.035754940935304235783 -0.082490924443603647065 0.029077443597156221733 -0.22652132020886478481 0.023780542322522493087 -0.09160334660574354082 -0.16195793307047795517 -0.3019546994510682314 -0.02465149956908684048 0.081585675976258389963 -0.017704007938794397159 -0.0064361669377678070933 -0.015373642452803124719 -0.015333015393656159939 0.091993648341258560386 0.068062804532194404183 0.040102377134381111956 0.16118032940394125263 -0.032506112672592159252 0.032402204067121666287 -0.035375182211533885701 0.27083830121999769025 -0.069472884661427175557 -0.035969285506123750695 0.12553022383918710503 -0.051390490492938596667 0.12965792140509913022 -0.04407836321242436517 -0.1624614077917320154 0.052281617588268755603 0.036873531623619143494 -0.035368223510626940753 0.062058493497388317328 -0.14445966694932890761 0.23571216493239080525 -0.091977751030131033039 0.055687919547257852537 -0.16881913996311853632 0.25281480948336737535 -0.2336036194300930291 0.11544287723236758281 -0.015103816323223485246 -0.017644422966194048263 -0.12192376993789934281 -0.4596464182456251879 -0.12071346364024392039 -0.02809557771216997929 -0.088242530350397987982 -0.24110260165220576134 -0.21496042754278857356 0.021585270085561013287 0.035917299288613424579 -0.096512009070038998204 -0.051858454831981058708 0.070618133027574983562 -0.064743107674413075125 -0.084518809941761363635 -0.018893848921727171564 -0.007428741857382546894 -0.085302072295585215644 0.25274584786080833698 -0.14443988657733719538 0.20065912912322725337 -0.12529273473127658378 0.27392897267108284876 -0.10342532079305946646 0.23720753507050665321 0.043831753008476123656 -0.0048781426084552352226 0.070191783137040220097 0.38367747781185435052 0.51413977636134411409 0.085118167091230809151 0.14854702461159863258 0.11486215215743715568 0.3194763778500563367 0.21927059795897377303 0.20094906355213026927 0.48991358915289268117 0.30067299518677897963 0.33927282629594252006 0.12948657363593107927 0.37741137983941086542 0.0024797513707907376142 0.041674639889067964516 0.10953513325089750396 -0.17367769722214343453 0.090336553950400994006 -0.13173136107656083227 0.019368299249821002705 0.031050563513599038074 -0.034347800823191984576 0.17598323030659773769 -0.087388268243871136676 0.39220546312544185552 0.2835574693456054951 0.44655530080690836181 -0.091217676066340111496 0.13833740701215888058 0.33332466741891597639 0.076060411586885298685 -0.52151506347981146927 -0.25558399165845824275 -0.026225748100108269012 -0.08735954074687557469 0.19710026483076575898 -0.30864689017913549129 -0.0090168184787884630982 -0.23932647058520922778 0.20571433941317124328 -0.2321192733139705866 -0.2806222845052683823 0.13830396853224546927 0.0047386351885691981728 -0.01333866955095171225 -0.45526349682675404384 0.22459117267795750128 0.093098192284125330653 -0.40040548626629934859 -0.22385640515278065754 0.19741146610658830141 -0.18336060797677342094 0.38517005742251247957 -0.090172289746080241946 0.18882610987280051829 -0.36957647795628473242 0.12938345944057030867 0.026973180508468769939 0.096912037629289418672 0.4063773542613174361 0.4105766069928060702 0.14817027864377624313 -0.059002565083931174383 0.21228235410422535701 0.50117039057577217331 -0.16371365055272832367 -0.18505283805044892009 0.30784730211867161742 0.10247347077627376455 -0.25840290496137430232 -0.24444654032147111744 0.35969953533840542947 0.11823662611890842222 0.25939585617934790562 -0.18551928048385116221 -0.10587162569573761728 0.054453164234932550924 0.18450493880775789557 -0.19146772665257036361 -0.041552237271748608538 0.22298988271132669237 -0.35991772005243050092 0.19293409865893043631 -0.22370171890466344911 0.27771634206264883549 -0.37616529932677073012 0.076404439534652160426 -0.21449798861048291476 0.13687816792059698257 -0.057072958444773613795 -0.25594312873884417225 -0.56356675206622075525 -0.41458971995021903778 -0.14532700713166932238 -0.29236586319992347027 -0.077048418923743949849 -0.39821600209392776781 -0.09573937298619776548 -0.22710227280523967441 -0.16631466383310980484 -0.10895996976697611136 -0.23304509946579324287 0.050277049356284464476 -0.15266954463864143565 -0.25017109173180340775 -0.15749039201622644368 -0.077472601574558527804 -0.20161106547211654627 -0.1034374593133124548 0.011942114980296753696 -0.032304852287048435588 -0.38436869094388048662 0.053043638218821943797 0.031527673870772481013 -0.19707761964072897931 -0.31261026340960773595 0.21929741905587701867 0.15760963118533627414 0.31703627591532618224 0.38189567110260314031 0.46609016207818898536 0.38785014731841827018 0.07503051078911196492 0.13778496695632741487 0.34339778497512674083 0.078211219273102469685 -0.074812547548214994309 0.12399254478953825043 0.43160691702563425132 0.23352235538634982803 0.057020734224662229794 0.0085842691735451039092 0.075799093714316145842 -0.022484514636473138666 -0.077275870585063452523 0.080784763717632740443 -0.033122864773266709471 0.035355594530317946411 0.050248358541870666305 -0.11107207768004252746 -0.30313691626923128242 0.01126985905978019134 -0.15858044105473440011 -0.018432522347025092485 -0.41902633042428177879 -0.074809081982512959375 -0.12073627554086435731 -0.0091997525206681009247 0.18305966047805805053 -0.064400186216760441082;-0.069072780682639403627 0.035526649996348060034 -0.076100405463852813237 -0.050830085832432023163 -0.22076989129504773213 -0.060817170816360337227 -0.10647895709391393126 0.14975895045983000919 -0.015966769982495826463 -0.10998365979507797319 0.090756899577454530625 -0.0038888185364443473256 -0.035457519475051491042 0.039572192346391477091 -0.08514061640742884296 -0.16639535887376397105 0.07749096771433812425 0.027418294251499646802 -0.15449145162207755799 0.0013691256484241614861 -0.10304298557702175343 0.15615274128519351926 -0.10300467734900189964 0.046274628357920830068 -0.16511144824427026467 0.080454432842450435137 0.041384429595236811583 0.12528045079447031052 0.07140891002049927494 0.045629997862294227606 -0.05755801398945049191 0.11137120222787674773 0.10414162717998781682 -0.019034850959355021499 -0.18154104580315993944 0.1739346357207672833 -0.029371851700155226367 -0.036554519357431258797 0.024623980451764410776 0.20178173865994752934 -0.07896812644827243266 0.0071903507416915665371 0.043568272035959060284 0.18053257287833440747 0.21770794938923440642 0.077431825891260436245 0.037162259011890373672 0.079744346011383471229 0.1847631284850439759 0.089700179901213802913 -0.19548689038112401772 0.10154809076321710815 0.020623480510322367287 0.30424448437888279573 0.029170651336806078385 0.25595584693908179919 -0.030823919485262783052 0.17963426275004687471 -0.08373944284989748299 0.23514404742973252227 0.11662760555808199259 0.016629115510742316364 -0.04867040188233923842 -0.10625514565638158326 0.059951938693166832717 0.0075925580164392329069 -0.098003359530054748316 0.11002621470112848578 -0.059599033697846130753 -0.068783708598894016673 0.072651567342181117004 -0.012126381785268062694 -0.16903553346472330321 0.14407856249393893866 -0.0061566936537934104437 -0.10216610035936339596 0.21271559919661506277 -0.044252929558268316867 0.029980002985210117 0.17379153327635607496 0.14321018249655592669 0.082803573770106775331 0.1235885793263565291 0.15823868564858981078 0.16908594971573012722 -0.10897853635203161304 -0.050975121793031208384 -0.085028543515694526844 -0.048263171219595168981 0.11800910809806335056 -0.07033524269245974847 -0.12607112623267793805 0.046739646726661782106 0.0729677727717866903 0.34308969902932412444 0.10786633605354543908 0.28175198964444042593 -0.015293643310348929709 0.33608904073165418724 0.10948225204041486802 0.16369093043739946225 0.22132378750453859939 0.29370570484739910722 0.16416675841868913488 0.27409061589848143781 0.23208823149072468905 0.20069591136083567151 0.25770788205064304455 0.32852819466750643462 -0.069482545140201260048 0.27884373601689516065 -0.0032312981752239716866 0.18232685191753195131 -0.014430129597456084478 0.38793632867682770193 0.15409792388030177368 -0.075443021867397069835 -0.0064093083916752337584 -0.066723907925032119315 -0.21047669707488803059 0.065703366857636322229 -0.17097830916169740045 0.081383269306647298968 -0.12792119006952137883 0.090718657637284108586 -0.23910924215663292847 0.17924757847804126398 0.086945816645225632024 -0.30732039885327389062 -0.3400029594228487495 -0.084458669524133347939 -0.010610990897001706251 -0.12386196205592914232 -0.3713141457202094875 0.028984580035856719743 -0.10755380744172270135 0.18785430251720475203 -0.26663179941557740849 -0.023882634184803578498 -0.042245842728124163856 -0.070785312831852381654 -0.10217149111368045711 0.20537962130108028402 0.14146508463407314604 -0.12009890429823025237 -0.094272952916948260516 -0.037009617182977010141 -0.14875863652955054195 0.11934116826659882382 -0.17284294164300215146 -0.14843089411208842954 0.1950345666663955424 -0.20070602936009576678 -0.093458656340838941468 -0.2153870137494251491 0.026708892031732638789 -0.18094367400775299148 0.15651650994931240457 -0.20291896766884429115 -0.31361439537449897763 -0.22087012538341416201 -0.12682583982021114477 -0.11515375030924020205 -0.34732260403778475455 -0.031210818913336931674 -0.10308359565519352452 -0.24449694641185004684 -0.0067792522247506724342 -0.12906976199887293388 -0.079757224836641951726 -0.15238437951520747426 -0.14027998242795766681 -0.16390704255471691408 -0.096338977536281941716 -0.039202220972832012291 0.10095522122448673252 -0.1723601559362914204 -0.18452378129432575604 -0.049935363000388276189 -0.078273080835714770043 -0.14848212190125242849 -0.08647004675611279223 -0.17608822893072079152 0.16480355816779965195 0.059301513732221700081 -0.11753187105111295718 0.024612852960419435988 -0.12339105084875742757 -0.17270676195846587642 -0.15685262654045262209 -0.031446316958885854598 0.020965366455327993228 0.042249959889190828732 -0.099295626799126360251 -0.049932694423734116929 -0.14292009763186797056 -0.39715985272180992505 -0.033233270800071511297 -0.34239859641479947205 -0.15107039333346455878 -0.28036216731704510785 -0.090912698569321118147 -0.047205868019248822809 -0.12604442022724418604 -0.26685212573757777221 -0.2166806083974962549 -0.057531791918228804283 -0.13888802225685448199 -0.19631540292805860215 0.047515210505567735677 -0.20027747710427248884 -0.3178829492155564318 -0.091468267545503106897 -0.27905424591977745497 -0.026994575369776688256 -0.26289160202508338182 -0.10653432694431606842 0.0024054683867034019548 -0.13574217250098280507 -0.19343028276918622366 -0.092879252650653429391 -0.22051001201896205939 -0.071502105494125084428 -0.12637317161602332205 -0.07339648321143146803 0.054497037419699335958 0.14892567649257387741 0.009339005396387855748 0.12042629568522114636 -0.084018563716786315299 0.12645364889979787693 -0.081681729072811251613 -0.052740016004895612367 -0.066177060798671499819 -0.089469068243280575059 -0.028412419356946855276;-0.1481653590312556612 -0.0009510173886672669552 0.04655304788955941242 0.010235064644354904817 -0.042396461794781875598 -0.14361760325484598799 -0.13267540206222652732 0.049839561188965771088 -0.12116839018895954327 -0.19661768041866423129 -0.1529149213263023277 0.097365795082750408729 -0.041465810948669065694 -0.077324330676336525126 0.061314590255461889901 -0.20951065574662194879 0.058900361487852104236 -0.064749176324509438718 -0.088873545321210348225 -0.024012685384788658161 -0.11393866175561354059 0.052848950367745464729 -0.12005767401354744406 0.07327695030868888737 -0.051607416340945809485 0.069768049751269226033 -0.13657343292176371552 -0.15433225427125649154 -0.15793084235237903057 0.068528881247077760852 -0.20444244120414584165 -0.17488539613461026589 0.03697053046277753996 -0.11158867346071235649 0.053020944934640303059 -0.14378968302301020632 -0.12040723065409811299 -0.077372631759323629019 -0.012833013934887215271 0.0052939112818554878367 -0.0066620216299166272814 0.094388807818794218107 -0.11459835505255504262 0.098138835815884534197 -0.046845509211234613589 -0.097800388140550156835 0.1043099961834834527 -0.045604880803790937005 -0.01890419265513275382 -0.18419572521137839161 -0.15938739027741682941 0.084986492439943217558 -0.061996732354684794264 -0.15939547373742976588 0.01475391522611863189 -0.021943261767913165711 -0.059320584379686652765 -0.075239678089078013135 -0.18773326635909204363 0.066522779149161451184 -0.081028397292820825148 0.031457859570104752811 -0.15743014444306993593 -0.11131709571358880395 -0.044396124109886046794 -0.096474919783703275145 -0.060517765638361517566 0.072018496128327433303 0.034176569511553546443 -0.11908682185638133633 -0.12008658658616051806 -0.16890646192165445494 -0.13942596248985336671 0.09325076807784367372 -0.11683841192605516623 -0.10326675397351546548 0.069568008378035589567 0.026643864221480358101 0.051051376982363026735 -0.16781162766978591216 0.020317868763713688857 -0.016336462335783386718 0.062236193309463859469 -0.030362711392235283009 0.070679480889803456001 -0.18444172266241010139 0.037467714692357052819 0.026898622948719527054 0.014214449117979232814 -0.032357583404837471364 -0.14170713378145172179 -0.082829347924238905243 -0.09508737341619037664 -0.12390625801412233353 0.054097476250236330164 -0.049537857996746877121 -0.1677106852614446697 -0.020960305133194172961 0.14043381113532199533 -0.17927275823468413751 -0.010005599664828848661 0.10922883171025873916 -0.060208319053092214379 -0.078187974670847329439 0.1328807643944036887 -0.050168305392174913915 0.013624788050500219114 0.14845856999584922109 -0.061834105257420508839 0.001761721691045322908 0.038226525626427941551 -0.15433995617704193704 0.0012829165442945112026 0.054983581623611138545 0.026769182849334882679 -0.11530522686175256886 -0.011382036405715655406 -0.0040683283444392891182 -0.016926488712353103538 0.10905244007522033045 -0.070420923977645807912 -0.049080976062660680581 -0.1815375179420748164 -0.053177531336945062235 0.11945281662802213762 0.14827644685840898897 -0.10676604472621735453 0.030762812082630992816 -0.12888848610105191339 0.035870145550200571716 0.021760459337742336927 -0.10407040077666579458 -0.01362118497543212195 0.021573603032376369171 -0.12874435498911265818 0.031686025591425644177 -0.028864919182275346893 -0.10667420468010892221 0.054013168337465840285 0.13056760267058178937 0.10911369142233701135 0.12737546840064120635 -0.064891846082956977648 0.0085160710069748513096 -0.02487969414212059388 0.12782752995881505043 -0.086983727162214960482 0.022455432896811323984 0.061080391612561152348 -0.030659512217925389416 0.037586656307643649677 -0.16046138013317801096 -0.12949901398993135526 -0.1325589427442831203 -0.029063826113884184271 -0.14542657995940685978 0.15289629751282415859 0.0078701574845663584135 0.087098737692050343107 -0.094502798843494675851 -0.10815194098778427301 -0.085706547400080268506 0.14586444533247358568 0.11936649775939937868 0.14813912286029548571 0.057631146322642164137 -0.019028684616024825471 -0.063042782547454254138 -0.11625412610326744944 -0.061265930043588705256 0.12429589861637170556 2.0447758772079878669e-05 0.014425655812476430653 -0.01796514744742720715 0.02599606095474297357 0.10293511995449083907 0.031871710312229267759 0.040780695353850565654 -0.099519679722951448486 -0.083598537617455018212 -0.14442464794769815928 0.057468170332104884235 -0.030618759327903113249 0.099952130485070983523 -0.11989443491603452019 -0.080892197955206038285 -0.054671183471011255972 0.10618072239005504898 -0.081844844762138171945 -0.17923434030230636638 -0.16098470053886998477 0.098176147132125676786 -0.041112954055715807133 0.0068740001289796627895 -0.064199757702799925552 0.035000431385575889176 -0.0099059022116366711452 -0.060428250383933977685 0.11227605995832454222 -0.13500568607876528571 -0.068335877705346881328 0.11754579592469038829 0.067207599300902962081 -0.089087202765011808125 0.027670125128864103692 -0.093331910250281521768 0.059846536996253300866 0.10148067896881374228 -0.077308289999204110599 0.094537277875362549229 -0.10101538909766248631 -0.0047817581200493520718 0.014444998645066554552 0.090524519860425228801 0.12950527458539554115 0.037939665975411353271 0.08686528262120310484 0.11079551656271434401 0.10569384714273906412 0.095976481007896907727 -0.16293932195368246441 -0.14037471128553005717 -0.076114116256279298889 -0.14599869510375385051 0.096607430621125894854 0.029878818796364961519 0.12042671961340428721 -0.13775008531599441941 0.097565140262288449491 -0.17801105506604295026 -0.00089020505627188941614 -0.0093782650336489883219 0.044342961640188069405 -0.13533266851715025636 0.15654889307358973993 -0.11982514024549996423;0.15780227314362327284 0.072620035936392365872 0.22085686559477898938 0.21403133803257556877 0.016974545895648514293 0.090210999319611906433 0.19665512735707615932 0.01275012899986198607 0.20865456169425045108 0.13842894506651601261 0.031701538405275335453 0.16546908014574740475 -0.030170746465630907118 0.084493658591868678331 -0.0050286442413482708783 -0.067256131305169053469 0.23431628623902642228 0.014399827697943011137 0.079452811714647172958 0.12152128867463822537 0.090231045190550751567 0.15928746514087441244 0.22789173137330018259 -0.07377655349493922321 0.07747898791503100846 0.13009166199020141819 0.040211873299482309152 0.069119927143020218341 0.16987076401226230971 -0.0065488892413261001746 0.16364794477506253156 0.20145130806181554828 0.17998219081232513794 -0.057775270891872482215 0.013107218625008956389 -0.089342509294190311508 0.081050762433982875832 0.11457649478055900727 0.015195893631302977156 -0.12926074245944887964 -0.029912094048361037579 -0.0078919492418731748001 0.15153229564395750972 -0.031309237642149510827 -0.075752741440449286592 0.10436515937612957095 0.010827586354341176347 0.12046490858526384682 -0.043109569237880139558 0.11949414172461908512 0.1657982207564995536 -0.022889842410394496686 0.013400999792097904872 0.11545306428003163091 0.0023875747196749233341 -0.065265045996602571998 0.18035254634620540015 0.056469606475660495681 0.17171737713161527861 -0.03318350785659718305 -0.01073690079075311811 -0.034053944903331703764 0.027498715819347981787 -0.09166662582439719098 -0.099244627613843339198 0.045285112204978633654 -0.066280626429415692713 -0.077432670479257031948 -0.053255835983381627496 -0.12235001865097937246 0.15484746383872455278 0.10956471951241768259 0.07500395848100076257 -0.10696491227542924418 0.075305533863194717981 -0.089600920998270883189 0.051964503639879318364 0.18687578118868303223 -0.052513423284490073906 0.07364426354605570213 0.016618247265751850267 0.020682881541475423709 0.097201794312277906007 -0.015233143840694797835 0.070423517956038697574 -0.098427318476782085788 0.11676929190462347063 0.17032485116930323743 0.14778093660042540547 0.054197915610412844556 0.034579259414182959842 0.035051266266604159949 0.13988414702643603427 0.042195239460722150371 0.03203327109632649744 0.16567240106678013389 -0.057178042473539247847 0.14184091607049201245 -0.036818360533427060832 0.098386271000653113816 0.038032239040344383019 0.039242595060661002171 -0.10883400886282303122 0.073436612910122406328 -0.0035804040647123185417 -0.16924129576071042513 -0.1685196293323667216 -0.15757561201006220486 0.062890047540539936732 -0.043846742886396346262 -0.12782068367958740462 0.067267284413042360836 0.10483861421261421454 0.16083657428224407138 0.069406547176185662273 0.054376006357117354084 -0.01626955670929472117 -0.10589740540113690148 0.00087612074595208133503 0.042636957334101853456 0.079399262944236242978 0.15260284708508636831 0.052084757738451975539 0.090327441030748648054 0.010846593055861133287 0.0952382958316490974 0.067369865065751627364 -0.057338809210103418301 -0.014337437972553374391 -8.0720981490758851444e-05 -0.087959608805230599105 0.10625195585055496883 -0.051850904261094038494 0.099673462892794620349 -0.040016970732028034341 0.053428285613771012152 0.12783284193322169697 0.12406048210199338566 0.10492113879261932841 -0.054095456575655898046 0.18011116659928241845 -0.14277046393321779494 0.079106132628864275769 -0.017870988454227954706 -0.099432229278142283957 -0.15297458818443254724 -0.079154726147799600589 -0.033636709026466669881 0.11738206987513608026 -0.0090587379975142282018 -0.056350402633412580156 0.052751525728851396402 -0.054329136728522152422 0.086131670208831848101 -0.10817348993545577995 -0.088160998683978183954 -0.00092705640919507148554 -0.074059505071164100087 0.090712610607185870104 -0.06955468049534249686 0.14592904631664091464 0.12768578584084011585 -0.15035712518677146754 0.10958533580225260362 -0.15801724600941713383 0.14700503669067196966 -0.015893765573823062653 0.13506796286936226248 -0.13723506365225310311 0.1804021821561362926 0.076890415362168978985 -0.1084310186556508987 -0.11361984371490851942 0.063973617157632486907 -0.064654833629437705178 0.024718229429846354239 -0.0021248594101283694094 0.19621952849263107899 -0.075880920475384944224 0.18641037917082625697 -0.058888486525208422195 0.14828052613523895475 0.0874815254433441436 0.18967782583770101401 0.083810810653629469469 0.12849525229546965299 0.11961727785535106183 0.044784039124046458313 -0.074777824797944536517 -0.057139283854508331195 0.13443676585428795955 0.079861943511963295883 0.099854099026068357525 0.18880889753690990873 0.070349658388411062671 0.081349438715464614247 -0.069569051041509760713 -0.00057515955027937501823 -0.056557704120623809863 0.19052133460463555048 -0.027473085661279181974 0.10377281604155387529 -0.008884695958880268335 0.017556970606384798145 0.079212590056010057094 -0.089941292980679446445 0.12485544955101819664 -0.081610016884267749804 0.065518759078436114573 -0.031994435776288153439 0.15098497118500903147 0.076972973107712991392 -0.012140188144213822849 0.089813163637485912694 0.17595418297839054977 -0.078453439683704079277 0.077987408928521281815 0.19541943116994786589 0.040186802883489948501 0.06144304373068266989 0.10264329334953112283 -0.060607729682324265608 0.20812471995081863185 -0.044772620036963341195 0.087809024547294819985 -0.073961804483449050673 0.052741827560164974975 0.22040624204651626528 0.0081340197741976965479 -0.047734278032791593871 0.11847236536401385687 -0.072184060259338864163 -0.094798635391643987225 0.1424963309248120924 -0.030810883195897267872 -0.014488678299189330922;0.20401616687584855914 0.081540020632101806175 0.23102789790520028568 0.1140872253394084046 0.020895060141516156454 0.27293542219134142579 0.062717314179150801534 0.06245231603843150181 0.034761305656416920107 -0.02447268056387841284 0.081325841610358343137 -0.049666613441111256977 -0.039713711470394305603 0.1226603909752640581 -0.074177941305762884472 0.077453459829499013423 0.048640097471063695189 0.057366761240143601674 -0.084134330734656440076 -0.022603660622736380936 -0.091797436194876083637 0.03715728975106590698 -0.023768564823288852728 0.24017634610587720867 -0.039493992891447990412 0.003482804516969966336 0.13274323158477677187 0.080076258487463844449 0.0591719061076683428 0.13352069965706112042 -0.037931682767099121623 -0.16364503805951360893 -0.12130508997560665585 0.18706267413156096868 -0.035448702580421133368 -0.050747223689616316467 0.074158071410506065657 0.085548857705811734431 0.11396518453764412082 0.14081590184357209439 0.059422022800496111794 -0.01903126580158483877 0.1711516690197472379 -0.060473784958647747168 -0.0056671587106496713188 0.14150190235417201001 0.13205345887464675636 -0.088444109415653782147 0.12454903760896919584 0.1752782713673827486 0.14143508096399359797 0.2152807583175933015 0.13647066554074210876 0.22544380507019265436 0.21750203531529163636 0.0064158009391725428355 -0.11232792997174842475 -0.2262155173436368738 0.16646768470917877591 0.18702325103002517825 0.21125418269775983471 0.23868138324002330375 0.0091426316342201278259 -0.062631046526027786547 0.072669898995560477939 0.15682203904573518982 0.026404146287050341696 0.05039611284774269534 -0.049490288655444712729 0.14746845246462966794 -0.038274610320819017761 0.14632014732087306186 0.1847743565958612777 -0.050697402110877511083 0.2020255182585619369 0.014981337951308357562 -0.19785221227415542011 0.0017398108062837327591 -0.064371506548724019559 -0.121153376310267194 -0.14071134600369236689 0.15069899022645139031 -0.039169053424899819005 -0.067218982617929176615 0.07660853945385527608 -0.13813932296045397519 -0.015428312945113792365 -0.0055318617600462697409 -0.040327591398570755699 -0.022593357182961720103 -0.18657785125373774204 -0.0020187224822287158643 -0.18038618122253019527 -0.07763366450788618256 -0.29709287861984456924 -0.0093892242096293328235 0.031216364403332710897 -0.19018478525188892148 -0.15451721818863517477 -0.17890981041391695872 -0.083161754943214330482 -0.12407355298731041759 -0.032731975301115441568 -0.11484050169127718588 -0.086672104768379790163 -0.08999345895909025006 -0.14563131824893665867 -0.068162422953107218437 0.00053182271194332616984 0.10763125301765957831 0.039570869963547729287 -0.094601254078478927423 0.052090517784562875847 0.21455190146007396823 -0.12839181982698524842 0.073513757815918581717 -0.012317031770350364214 0.26324397650706682361 0.088216278070947354295 -0.005358540107391393699 -0.15228650028220827584 0.11501236187281833889 -0.0039475011264575596628 0.15875400765932951019 -0.12288775954671274371 0.21889879651367422086 -0.11756553610171163737 0.043703611003460929307 0.23384636903318156698 0.060218961039138915736 0.210316793328890278 0.093432947653616288397 0.058615568004095626453 -0.061168328024747961602 0.10893272991705518771 -0.0028857289078377625947 -0.13997648973207940659 0.034978295706394470221 -0.14033530446056011187 0.15186244075934737796 -0.12228505056749140734 0.16771308399216947049 -0.13831728357699013543 -0.089660712020410107681 -0.11314862622826045435 -0.12127944747437434392 -0.22383479306106207618 -0.17596149042339973012 -0.16774568246344956357 -0.28838757285443578082 -0.095370533775710406021 -0.11846112789673905741 0.090440046540070581638 -0.012558727449264797671 -0.14160578156414427298 -0.031956096255713314913 0.079681235892996402082 0.0018508095443853108363 -0.039344783303814440112 0.10776324939016188043 0.24807221311134855513 0.12133831992313511006 0.090981027880822767928 0.27102884652759579032 0.11451955158534155021 0.10086095851773577148 -0.016252193189797155271 -0.10414493365668409108 -0.12347198154133057213 -0.031825336689094589626 0.068164266182221239232 0.0075561933406675186112 -0.14487091120582704096 0.082924574610263118712 0.11458166702906075196 0.13196071587909868894 0.13978806342224225912 0.41335265810621840687 0.21783878104668660813 0.00023816148581419808658 0.32174011178911476883 0.14989461408119403307 0.31067723675369995906 0.12969539373561556062 0.19752555505919699996 0.034962710426485479887 0.092849731216062283967 -0.059501227927336100554 -0.040691760121716102905 0.0046771731671604969971 0.097704779535527835899 0.25225987278090977739 0.087063918395985220866 -0.07292608552331684979 0.15505103207579737368 0.097152090124715206887 0.20444083077842201135 0.18760399517452619467 0.18442029713982641126 0.041141612268880169145 -0.083533550478593704414 0.10286250964665633045 0.047386667993887444938 -0.058405438431388533027 0.073181144803998759985 0.02802001483473493329 0.046558578837880851276 -0.013986269240818525669 -0.14337520370452747076 0.062808390088457954903 0.12319120823570062218 0.11535954666565992333 -0.09878225239524406065 -0.0040717610053114198371 0.047951163067607056878 -0.059121617784019656061 0.028037357521725154996 -0.02198404169513053924 0.12124912522162951956 0.037654581258444223824 0.25071193440776978756 0.23399329670318325114 0.006139248405364125874 -0.075341094447195292028 0.25323945549409193623 0.12175081570419910015 0.096437782049299508591 0.20283356232415877818 -0.070226971841880078684 0.17894561287753280032 -0.0366662794094027647 0.20527391612587259084 -0.1174123417612491227 0.070107482484383656929 -0.48965826277700086333 0.29071140825201363667;0.081408122024787435422 0.038939412167710039936 0.089390441177337451317 -0.01080637547347054403 0.014216571612638952485 -0.082676175909067048386 -0.18072657374124759255 0.0065972572038280651377 -0.18067694200826797668 -0.15954261931104396499 -0.14027258311985821293 -0.11263726468367429856 0.013853394546626355069 -0.045997390477054263258 0.071833272452563712296 -0.17281905976113856593 -0.089191956891557316878 -0.050909993768265299208 -0.064361552257458529147 -0.018528313244782788904 -0.13432739994357037472 -0.076277562585731872868 -0.05411857306324897865 -0.006125801714855186493 -0.043725947143194728028 -0.10447562576292120096 -0.011337061514794037967 -0.032873467154148218461 -0.081587851751883488927 -0.10887172936541185397 -0.12637543990166644203 0.017697902282907240767 -0.084269775665314919366 -0.094470585905868556531 -0.23111606565763637144 -0.0092515799542699159175 -0.16210389097932192959 -0.14250963689345685914 -0.097732091909087492887 -0.20195677391287536473 -0.17462821760798577508 -0.03550462289752629591 -0.22975242393802222662 -0.21338215242870497979 -0.19291384951498599665 0.002921051858628058006 -0.12172514256121150233 -0.19351259388456820698 -0.018458261247780879261 0.075317654236493045139 -0.14622855048289734592 -0.10996385485037839247 -0.096140275415762657674 0.059247114557043838168 0.029463719141638707033 0.081017108453124458967 -0.12887627118744571231 0.17029035351345675475 -0.1854284148792069431 0.12680275712045174785 0.18234448041504772164 0.061198980620174765754 -0.001520717430437413132 -0.040722780198951688546 -0.0010280966046112103175 0.011678327638967410732 -0.06548201334946081309 -0.049651976982869987232 0.16697963098396645387 -0.044502000141559507063 0.035309968124938619083 0.084214696371389022311 0.048857671429632147653 0.1769326995724445073 -0.1537314834027105892 -0.028402479135032819568 0.092552294602959411796 0.10517755350044540041 -0.1576546448708837922 -0.18310405445287589177 0.00035607138346878695672 0.084464225606975529281 0.14743074066221378837 0.0097362412761585158394 0.076310453325375948719 -0.1242418785286051458 -0.046685671675638869271 0.071273753937291128846 0.085258256945331095666 -0.15977784110339990353 -0.03776393032369291386 -0.11097383000830754463 0.052937064837808613105 0.0027736065591779540153 -0.11641759536142856635 -0.022949600434626234863 -0.05995737289037491452 -0.050821461183922465865 -0.015447339709305013197 -0.099665878552763348397 0.02846746934078011812 -0.014558795631757414854 -0.028099032145933403731 -0.041626548923986442241 -0.12683205480254544639 0.040403360311121738757 0.16682085875213809034 -0.0050755065290885945789 -0.05655630058963775908 0.17108127678192822096 -0.15648164426049476772 0.0095517012426019880927 0.084635073514903888525 0.10801266825900769641 0.042576003922713545613 0.049614457940143928683 0.014059176315134730428 0.068383511828809723232 0.16265122226675887696 -0.14661142955987113701 -0.038655248699626179598 0.058547803407960070932 -0.11391256851242251291 -0.046491968321877907844 0.036558933329965209724 -0.14803094957823687006 -0.14503173221928594705 0.14288494693478417941 -0.051554872614616407966 -0.067664555054924233057 0.18157166155911741434 -0.10650166314096889963 0.048799939189044252985 0.012939227488489407972 -0.075815156313373141539 -0.11713447205484217584 -0.18053572278526777706 -0.087734503811825473307 -0.043120884341981920163 0.18014930225800371288 0.1044602687846326039 0.10566716278328415479 -0.12310993600083554311 0.14277585008911167219 -0.061659248741614353095 0.104827015431059406 0.099674982314217730472 -0.0031927355002920512067 0.0023562755787788556942 0.15540340598144525286 0.045330110566883193013 -0.0015670388786047611922 0.11821949949160923121 -0.1675970634389704339 -0.11416703900534855287 -0.13672361874413158089 0.16830604792835252015 0.050508065899099181817 0.035418247993862291001 0.016438769452232278312 0.14089917790147868382 -0.079565341713217163644 0.11129504845736801211 0.12080719610190752966 -0.099345221594664287479 0.10014951993026427468 0.027162842653868556064 -0.0025219671864798107186 0.084103120561390465326 -0.066928416328758622011 -0.096487291495361074412 0.11123770711476134443 0.10265051786014534052 0.035456559648632902937 -0.032821103379821366108 -0.08536787935385282966 0.1168883986871495223 -0.13831912928091741333 0.13654532123154752843 0.057794319251416190197 0.066078979693283995678 -0.073142565614955579179 -0.02553085087427558672 -0.11197348082757080379 0.014881997920911710712 0.086457889823797762219 -0.051328519232483278689 0.11603878866485911603 -0.11329404958277053406 0.0082809921075142345348 -0.11682823553626657531 0.066521640870361081754 -0.090464738882046064061 -0.033404330858974796981 -0.077213793403379096802 -0.044879291967242114503 0.15407504710137065462 -0.038444743918577238551 0.20405506230406442181 0.089835890302179546851 -0.068454004460539397137 -0.10304001470539363161 -6.4982484571446399936e-05 -0.12761990163352252003 -0.20979574855255112009 -0.10898616359661271458 -0.1243416118542245985 -0.09131133063877727718 -0.16484208009837156284 -0.030492988913856333005 -0.0072514987640890848572 0.056572753275136451745 -0.091615253082758543735 -0.026620097839257540751 0.15408635856306535095 -0.14332579457586136495 0.010261204335385390798 -0.03847494182985815997 -0.13296572178444424073 -0.050618089867136610571 0.13233007168605462334 0.1154560253840594547 -0.054410591771433397534 0.11914737698537747335 0.0087876598226791381024 -0.017665049373654220788 0.085899571877049218926 0.13321401283882536304 -0.011248948331890575719 -0.10909671651553017047 -0.12891913638287150201 0.12570016039095818772 -0.084518349496139857924 0.091828802423891076057 0.021715173720708205729 0.16165125722496853644;0.031882610727296700759 -0.029222918830113974592 -0.10424738300762191601 -0.222969204094743495 -0.11554277158675393955 0.23630598203485556064 0.1283122317118167155 -0.0476458618418916513 -0.0024242406388895413466 0.010680421244377871076 0.15296683902508612096 0.076223730224889069129 0.11040986747407501023 -0.08027743487268902689 0.12261565807189490906 -0.070739599617750226201 -0.02314704650699674765 0.018754312752899703065 0.074742167073432591584 0.21744054633189577319 0.010873675887134670592 0.24665829533623920278 -0.025369255448438477601 0.05537909441992931725 0.070031079117505265486 -0.05287492482136511851 -0.077914708343018390657 0.031304111081923415016 -0.057463650489416838452 -0.22934762362581712081 -0.030200365044360220207 -0.17567346529190691617 0.051574994328406537081 0.43963026781628461448 0.068738028923920224678 0.31335399128649199518 0.18081932894185689942 0.54454592188136641262 0.20987915379818794515 0.3629899756858586124 -0.011649092798114865643 0.20677359183800228526 0.024659824929725179116 0.13547648074979348753 0.053297662297121399522 -0.047991561944436891829 0.19990889030498748546 0.23114388316176559535 0.089942777928992648229 0.032632565842325642058 0.2159030320955822313 -0.15762080597407332472 -0.16742819903046057828 0.006623855795454704383 0.063706482405628719889 -0.0030142132968120870229 -0.069801539765921516434 -0.27545042121521423617 -0.045084684231052614412 -0.13742158603147663909 0.39553286822419503332 -0.27661386751878713763 0.22058430091312231092 0.10843418896901003967 0.3195156165359002709 -0.15641134052821825673 0.2294198210853871378 0.1926483129780403869 -0.1067267731601576064 -0.20107794205948170685 0.068358511778122132974 -0.19005229563852332753 -0.3033432000752198654 -0.22160579851460229794 0.062556319289665832106 -0.068687100620934277151 0.1268233371877767468 0.01694249670665097518 -0.011901755236436075552 -0.29975176186851126836 0.13825271752861190144 -0.059849847462830882416 0.18845044093638274596 -0.047191188137022659077 -0.066526836072472450567 -0.045684939356183382198 -0.021617800779882071632 0.079649985970602660279 0.012812957463245799178 0.0267300019953129811 0.22700096317061543849 0.20531021412913996738 -0.0077757518363589404539 -0.48872724927170624332 0.057236728042750241452 -0.49230007662659824863 0.2050431392972125455 -0.37785090852866720645 0.28447715838348092143 -0.2254712970250093429 -0.090898459325098823758 -0.13014463958042776781 -0.27431036365056499227 -0.19251467020015056164 -0.022230601127032439263 0.20707249074661032706 0.20527602826069207831 -0.13549376403663623836 0.086924168733850906698 -0.24089041084379123059 0.27231889765548189519 -0.20955655379899310042 0.51566257781591295917 -0.11433196092751815587 0.33457387115781411779 -0.027898396103251316136 0.33723524237344232324 0.06776290051899490352 -0.5879481801583699152 0.18313283376056044283 -0.30156879748672993369 -0.0085023316588401526978 -0.22244827456743404559 0.090576289631941420133 -0.29182786685495104573 -0.082221109116700552555 -0.2124280315102728689 -0.18308691836859861124 0.58014367894933716041 0.46077760549684548819 0.11581511817715152424 0.079398827243533087739 0.46407986648289345499 0.43090999951360126063 -0.063236839471792677392 -0.12774304071711034547 -0.72700358687771016175 0.22758033173025027374 -0.38566604718196856316 0.018459023924930848676 -0.17748935914106278577 0.17726829765153157004 -0.31132160615551335292 -0.47426387029780753268 -0.38649861273246416404 -0.44795773834819024861 -0.38757627594663945914 -0.14606263784015099949 -0.4387417205574400958 -0.32671189563812752521 -0.37458032282589714956 0.36933423491064498734 0.15732916686009085216 0.34186508892347600153 0.17174103118399264289 0.20158935825543641829 0.21604527507216014781 0.34651402556352384199 0.20647957427725985302 0.81048101801842209468 0.13289274664709030405 0.19047783022742506565 0.72836941990160386506 0.64026223898782386179 0.31226380149563087718 0.32145000341662977039 0.68560958080190148589 0.07964638545077316889 0.071562001024301977181 -0.052596375436627998412 0.23347325060043508382 0.082469164115847121144 0.042580258267119065752 -0.082311787974907929533 0.094258491983198397501 1.3442709197414943745 -0.44093891404342905327 -0.35044618867906157655 -0.29693647374628096003 -0.30048317562816784232 -0.45347261011228895411 -0.26382941758751127237 -0.22909337163587109587 -0.22463566684692062858 -0.55534555843549560095 -0.026185538599075963706 -0.47640611240589247899 -0.24223855190329468545 0.012794499664898898936 -0.10074450427626829851 -0.30524980325292938588 -0.011863500378462095777 0.086523470016874021171 -0.16854547622384172256 0.083113481071433376046 -0.25107672417834986378 0.29888986100699110882 -0.098538370813379377866 0.3758453822162250435 -0.11079891068086629435 0.3268602487642838228 -0.21374887386650381904 -0.055057538272844243343 0.029483208287967833938 0.096744106383292574614 0.27445368622781779466 0.23699440938682697633 0.27376853540917311935 -0.10986036541265614686 0.29304085632296705821 0.21046473892929387639 0.10188225575304556136 0.39789593561042468917 0.12850962034402282907 0.26029037055039222492 -0.009049529197756298049 0.48247359553571006474 0.1894713278095465081 0.25246856180391402669 -0.069128160423675658053 -0.015935797766229251732 0.01229420474542156777 0.29421475254305329283 0.092366430940188246068 -0.24790774921961628019 0.12395283531243542208 -0.38833439269807484839 0.23054880221749374236 -0.49301461514521832674 0.038024938875370596636 -0.35078878768195287385 -0.091268333304890689184 -0.56748669827917008757 0.023291856522303776289 0.10704132747903706557 -0.030947196173491182958;-0.12396194700488599727 0.60142401728800354288 -0.05426975980516213216 -0.11135106634246283441 -0.28624871924967676406 0.53959884432167493085 0.077794439231812270719 -0.14744361657299981383 -0.29283913558758051243 -0.11934099578686628573 -0.11545695711215944734 -0.12542910904857845766 -0.030344408844029707034 0.12026340693072559707 0.095087550207879553699 -0.15744984021403615748 -0.055264167569645632205 0.090718658602083765419 -0.32787543096099480699 0.19243898755297000891 0.14577008967956953112 -0.024516555929245700124 -0.41596039377694349337 0.028071055155473808446 -0.084951746070019193424 0.041047730425294574885 -0.087988828098820720536 -0.077562730105776786504 0.009881647875282076332 -0.088080289283519713761 -0.03895973675156362559 0.061984943374795667403 -0.11975738047906285544 0.55524330055023740638 0.036550408946526599663 -0.70171384933069225198 0.025833337811929441702 0.45889665271232704669 -0.11897237138955500668 -0.56758643398479813325 -0.041770912085417770399 0.11165536829253620843 0.29703058723849529166 0.42099970615032189514 0.022128923835802529613 0.34897627014640875132 0.330852606309563535 0.32888518018797335829 0.42540578058481209878 -0.18442565177566130896 0.24008618812482790394 -0.0055800870333354377767 -0.029248431502052241876 -0.17859448079907699891 0.061748101440137453944 -0.28181507965555563366 -0.18291475332158829703 0.031000256474260811518 0.36016360334122476949 -0.018039417503941709842 0.20496611967046590719 -0.12821447352691403565 0.102895023949399117 -0.055457832140466137294 0.06527994349646683292 -0.3942054552416807689 0.11783856963382345617 -0.24667284376173209681 0.11258914609977960231 -0.10057416240208465197 -0.010948532462278334071 0.12024446744049112346 0.084786021706999198377 -0.1616374311402923869 -0.14203523389164479651 0.19446777759348524151 0.21482236372538507374 -0.36320988196039061258 -0.016880335362120971882 -0.23848736748428045473 0.077286561208803228329 -0.38557572340511853115 0.0019489401383815281588 0.055059784777561952829 0.13283806440179202202 0.045224160559737151821 0.3368302073418208975 0.19838175675123717601 -0.040033744526522578588 -0.1677284880702183123 0.13889091035779202454 0.2456190271688202531 -0.31359119030334009492 -0.21918974466724355787 0.24916741902095695949 -0.16363159465160512229 -0.25774602681170050156 -0.13204122035601625895 0.27784756250809511391 -0.043095280668353427855 -0.33615789902340481587 -0.021428299974568531389 0.18516123164158942993 -0.10861139129059814434 -0.31909951318407947518 0.037091139601797752656 0.056953681475189192607 -0.060777120391354841344 -0.20432707115344894699 -0.1555379203248759834 -0.22696168463419796879 -0.065831395056129726751 -0.068043892580257753222 -0.10904053501842246587 -0.1540883458262279071 0.035941335163197078717 0.064770891023490387295 0.14550225659054752403 0.37458821933553054784 0.047986311915268982375 -0.20634515277754364448 0.2461281721745044726 -0.14397791818397598362 -0.070212295701080604249 0.19928934977342799284 0.21955190678395333781 0.17528013750363516388 -0.23256099595232129773 0.21409636277179580621 0.43345030180501831207 -0.16306493254615769817 -0.71372945990215774792 0.95613972767923172125 0.6225485707537352642 -0.88828981255639172243 -0.26632967819565445122 0.15600610004832773936 -0.10589337587965531873 0.4079177744304758324 -0.22728501234697329192 -0.030399690501258225944 -0.22230370390650189272 0.47146549542940091593 -0.43358952649830290182 -0.57270298787578299837 -0.091507968270847839243 -0.08985996320497670331 -0.42188450456125276 -0.47368713050255772945 -0.027322677315836645107 0.13881706955311037821 -0.24470012233246921096 0.046452122756192038011 0.66180452186816651761 -0.18256368490070709609 -0.13005214930535036189 -0.0307999116400557299 0.55787050400983284604 0.093692545530117438135 0.5244934735209599852 -0.44003874509203416698 -0.62759584407388246952 0.56206259881750197938 0.46990342625699677015 -0.3431183731233146128 -0.011674787487216682635 0.35640728817560834996 -0.064275067458896162353 -0.16858959502383943918 0.054045735048917901977 0.37462087085862461056 0.098009332387450465163 -0.12831566591314294556 -0.084970074446272303437 0.41561901032333131711 -0.19927993789268158564 0.25403448721749904982 -0.14050398076392919822 0.29997000019718855768 0.15301064935450711668 0.26133211790491123194 -0.23896114519153313638 0.57226878107507161975 -0.23703295012380734552 0.2086993574179585309 -0.19251409774398522967 -0.20103877481547977046 0.26669359112027191117 0.013167812330155506326 0.17290231446287027128 0.15759818143759510289 0.074509757303910337245 0.45632368841793569114 -0.042829395993920403585 0.44059688507163563553 0.41311591216951137895 0.26978908036580168117 -0.11442849967849183512 0.57225100754866120578 0.33956939115972678556 0.32197474804808279281 -0.30439640097831888177 -0.082754148854440837124 0.26416078220554906064 -0.090343489925447106881 -0.077113382900120638896 0.13436371356009954581 -0.016415058044319495723 -0.18929616998892750956 -0.17832870575347845032 0.50123863886204322871 -0.18350768054018609665 -0.4616872187753547907 0.0012673144436644674313 0.33951680709023124294 -0.048875712951000474527 -0.15613320989007212214 -0.05266390788110416471 -0.079805058971435971493 -0.20703856772005832521 -0.42753989340234349603 -0.080644045309788942033 -0.06464097600120244369 -0.31385371945471302046 -0.28653259027755551003 -0.091386969840908549578 -0.30797519937429090886 0.095051945974639451276 -0.13137826609617334062 -0.30316911217913644627 -0.22138911673470831887 -0.070779845541623254146 -0.022681636417433526792 -0.072546225880998543856 -0.0089611465777210807387 0.15303115097061897876;0.1350238235620160876 0.16428485357243360898 0.14391534374266920504 0.0040249688385820808073 -0.10476252005471570206 0.20977110152595820902 0.14727043337971809644 0.16327583439588949643 -0.026489433772812612244 -0.10840547321033822126 -0.19687333204870671732 -0.00076531102225771505815 0.081417876548735432229 -0.099064346606859102207 0.081766330721921118285 -0.060198604320207536877 0.21212107529041901444 -0.50180872785041175099 -0.35644832305492668567 -0.44457754155015488662 0.38272220899975800679 -0.31940096388777949876 -0.26822065238308545609 -0.36111022701932604662 0.22799086373510077386 0.18986834288509854551 0.25818073834342197825 0.34282713094074696025 0.42544445121505847229 0.19900375553790367045 0.13891246904206977497 0.18278964261783411938 0.13260341056175731222 -0.39417463332014451849 -0.025897129524695347569 -0.23404723644158739737 0.045733660245193971661 -0.51768715719602387271 0.15405254988632019475 -0.25526264116052588271 0.032784382046346670359 -0.08704759488225195796 -0.17990090707954961569 -0.0054020043118305164503 -0.063643624219103162032 -0.0041824545480584262788 0.091789844106613158181 0.068050590388302509282 0.10641086746021996556 -0.20707010105453821369 0.038468120735656141651 -0.46433823665953533055 0.081266063757462952966 -0.20538760077247456004 -0.059583610384894868106 -0.29974003690201000971 0.036593493049498292125 -0.0060019758054369416397 0.19352896257756105336 0.34466846537928375049 -0.40663123868635581148 0.001376917765477690854 -0.044395501033704432015 -0.05440130696887569145 -0.35835052057660121694 0.14677977079977344577 -0.078970482608273204206 -0.11687621611689934242 -0.18236047317160045123 -0.19776478858725260457 -0.17570783866140601837 -0.02410783141304910504 -0.0057536147433743557722 -0.11591152796109223388 -0.083407686178674708688 -0.050387738773703623363 -0.0032783762322953643141 -0.54365639928264963832 -0.015316453887277597587 -0.23257530416562050002 0.31449676566481127304 -0.39039854148919855836 0.15192721566683206613 -0.60899563786253185782 -0.24825789647211851663 -0.36096270079944170472 -0.29041890665887909462 0.11073585481222618376 -0.070638116250974603005 -0.28365446603895838606 -0.18432474433683565529 0.08394152304306154444 -0.076328481427573882656 0.20310525007792840091 0.12780798707255591751 0.4385232937897608485 0.30102043799015087977 -0.0091595163567677294336 -0.029374260313288016316 0.31553503331130383636 0.059161004165104058572 -0.45610326045567567421 0.22670617055038613796 0.12015720840451209195 0.12419166639788167816 -0.23664251952105394561 -0.46720718939666217029 -0.11977023237585046611 -0.22184395129044062744 -0.17613583792082684876 0.021597670652780627532 -0.059157354577191588463 -0.082771334862276141342 -0.34864677066354787804 -0.066693137614918254763 -0.052030741572288943808 -0.29210073051065266192 0.24703782635349982866 -0.43983499446454565884 0.39599597884228121547 -0.23524143345889675372 0.1037704614360469707 -0.48871520250628691651 0.065662148735026251711 -0.0067341510925223464074 -0.23624900068053189539 -0.1270756249634689139 0.87012371636809882069 -0.37059399337838216937 -0.084815887984287116619 0.37074508523934202042 0.23407063707437089639 -0.4823432458855199112 -0.50421018253753602245 0.59177902687799299741 -0.10790929237625902781 0.93460610094665919068 -0.61476124122250819237 0.80754450832523783088 -0.58567216559339141391 0.34032330961274626091 -0.51010301466381313684 0.95246418651431097313 0.48784283029611874571 0.34567518026962029687 0.25283259453346484946 0.35790708065652077075 0.48155257804005308087 0.27408831395858590518 0.30149011543844445038 0.15060074534079170849 -0.4342750534042101318 -0.509360612043189942 -0.180452512252442826 -0.1309823060618216517 -0.25039506137800543462 -0.59520922355303329532 -0.16803865500712628078 -0.54755227069075940172 -0.54501582923960312232 0.29504422037333111195 0.0099653324152872077568 -0.73084289347092690203 -0.68617956402289304041 -0.040904986522633211832 0.1287772933228092942 -0.69774116027142174534 -0.10607866851396431651 0.49074940737194472362 -0.11320026101382248129 -0.059743279230294508986 -0.12485398927977510442 0.47598407419487726022 -0.058566799639027937452 -0.14017004948902397898 -0.73129669332779922986 -0.23260890706576664577 0.0058770395547670089414 0.11417290600555914104 0.20638620478180721984 0.1852672532424237406 0.16670789423287704634 -0.042872552818106146599 0.23114355606282824263 0.15257823194870531736 0.14009037371053945087 0.24069657738176042372 -0.11280332891311407872 0.20852352230710560765 -0.4245683548598377377 -0.39657887405602959552 -0.46857440788181464741 -0.39522353350276107076 0.13085912288719792063 0.13092852744967206635 -0.037972322347577913693 -0.45416579561461539738 -0.35936422887954155847 0.067744696199606019293 -0.33398255217964778474 -0.5129239458660806994 -0.35753477287615864633 0.27018195043769382968 -0.052513114996236967547 -0.49720201599629254563 -0.2416899049183510173 -0.31790544879033311165 -0.45332924478745101338 0.13098693739904687661 0.066815685734341698221 0.23883626397970236788 -0.32104507439183910256 0.25596200421805931358 -0.2760024940810920091 0.044662551881629264372 -0.15703648393041777509 0.32825438398539558138 -0.060239712484478770416 0.22558912645881884496 -0.051057957395419087399 0.081750003997287309931 0.10431405757115640165 0.013509981265388337074 0.32469684309353019636 0.28351369862401654132 0.042536049947434123597 0.025856819381908310168 0.027882281944426705322 0.49350385490639153696 0.13901637348236658975 0.0090658599966386907432 0.27174795336342832952 0.56874662754476523752 0.045642111143157665376 -0.58007500166881365011 0.42923017877958674626;0.036584920261936208774 -0.057369318402510631472 -0.13343008707123607537 -0.044354464397475694415 -0.21663063862501916179 -0.081612908862643149255 -0.090458980211882339395 -0.14074700289037170298 -0.12845799432584742439 -0.22459130725759401948 -0.038407222865356610564 -0.01448613436070289931 -0.039328108851385552847 -0.079131150103589772971 0.039152412209285045175 -0.1495276645214332345 -0.18917568407261728392 0.12633314592677100108 -0.1762776307129524378 0.21467786954700937563 -0.042547244923826436913 0.1841670962650847343 -0.043243358546331947534 0.098602077823868330975 -0.052777943725538754849 -0.06844347192734985541 -0.054770699619533201596 -0.13255991260663765874 -0.12484617810850431874 -0.074426359697243510416 -0.075560172074050788171 -0.063636397067458938537 0.023469497258541270612 0.29200284076746840789 -0.20718116751740792147 0.43146584936692117251 -0.084695558427993797301 0.23283984834537413411 -0.092513288200619006596 0.099524205004392074514 -0.15040488525696890654 0.2742850628874974328 -0.091923167344721071204 0.18633638581307276905 0.08137301625900360269 0.15335685584529404335 0.17902806101992019272 0.096194971609735058227 0.037143523793810660771 0.41776197840571177577 -0.071439287679688878718 0.2807526669887800419 -0.064033829479190937373 0.22188674519436787924 0.077599389277162936218 0.41118115233608898418 0.033685865409469224752 -0.093390070593539528665 -0.091142491228278388338 0.074297148783137034744 0.024544912693418349109 0.2698602179818578306 0.14779075318764525737 0.083764559252128820144 -0.018743758331876875928 0.030332732592218018819 0.073445920215171239809 0.051404047447959538841 -0.18013767817873116428 0.094115370457177854879 -0.047224821773088225541 0.057756095676109571457 0.099003318136493059787 -0.06269766614218678924 0.18920238641781855771 0.14814697384254765788 0.007111197427621136942 0.13878368651921460519 0.085285714114429866939 -0.090795843347406979262 0.022205365916609796223 0.20386180015709984281 -0.040675607418327791587 0.055637850513914309525 -0.032712986013603659319 -0.09266819614333354771 -0.1465062121076014523 -0.12121850702059658311 0.15566876807946491978 -0.18130318377902707172 -0.13095797963445965362 0.1153594835323642348 0.19167966095849703345 -0.22128711587741184408 0.13969838510203366755 0.011897678246209318631 0.050320842548845431952 -0.18499733914929819556 0.096062687793830175975 -0.0051189475131866541899 0.29562660216038139094 0.0029935993841459667721 0.17149085863470250879 0.23312907184497105861 0.0085818950083639058968 0.19663830037030116671 0.18452385805767215765 0.024225639866520223831 0.1568812842149471809 0.011356385510610867914 0.27381233589715192611 -0.070095475475149313094 0.44654636112690271332 0.093175715302309183863 0.18119488613205406158 -0.031249162216039152312 0.028619255848090777855 0.08545236566806997669 -0.30897013102285891817 -0.23194366940543112432 -0.17666766004437828297 -0.20841831092770929379 -0.098172063602660092352 -0.12286913468213800371 -0.33441115655625280878 -0.23560983270642682497 -0.2233875095838168956 -0.10373127500417343716 -0.35697216977932572091 -0.44579132561656170664 -0.071923576141498565817 -0.045651112710586021215 -0.25172055717254698815 -0.26377236323381203498 -0.081955024691553843286 -0.092473838714700121177 -0.16061576179849479384 -0.21384201395956989322 -0.087902283152663004961 0.0054708337983260064627 -0.12004137850353145678 -0.25381224448039380048 -0.15834536268259832847 -0.23612739853301192849 -0.26566636695567907855 -0.21431528297363397484 -0.37887282011351069988 -0.066527700255288049758 -0.24391341299064200898 -0.27169523112182486502 -0.16458011972542402335 0.29376535008253035208 -0.18333085259884421281 -0.1253719432327352612 -0.42807426029018286195 0.046723080117057655403 -0.19568571208856086474 0.021373453662484255544 -0.14133262018878298139 -0.013832844089836430351 -0.042151499990724657085 -0.0042657711512514295826 -0.20275362602968174941 -0.07981153311994157451 -0.1566020372988839171 -0.056600935589196051112 -0.29184321601870161222 0.17847103546691142628 -0.079104346418100296434 0.02345963976154206293 -0.17046437392263294464 0.17933025785342252001 -0.22496470964380382851 0.085775568947052238666 -0.33890854181573409898 0.95450798708181983088 -0.28274802062451304119 -0.031937518037491716139 -0.16976436126903690638 0.045251392082243616088 -0.27227239493816662863 -0.1014865110743569665 -0.167828120893431465 -0.11760175760801420963 0.054383106572732299588 -0.10020179312249409553 0.1394728135136335534 -0.10660842904388588559 -0.016798405333405749817 0.024387793471396912448 -0.16681787661113495203 -0.15201885704624396034 -0.10221296023043383028 -0.032596159686482641116 -0.30975785819153284217 -0.16680671841636418584 -0.2503568711840992167 -0.18765080510703402439 -0.38112497184995902666 -0.099524730502717234648 -0.073743977628637075172 -0.26012561721949556404 0.022517170074361825272 0.12666222402793769763 0.068871358265337495608 0.20090962677429291539 -0.021770828026467695104 0.066370454790615152074 0.089688800271274751741 0.10833716992124466094 0.094294215881915624533 -0.0091692046820733216772 0.26528051338229224898 -0.17640673789889374512 0.029130957700305673552 -0.10361442457746640466 0.075210983358789590403 0.067417468303991062717 0.17734905805936609924 0.22716792496325000084 0.24235150783086764625 0.049179135260858201917 0.15247233906749535493 0.17123007047236171729 0.06848770331052804472 0.018878439540521246148 0.12396171060728146396 0.19463995124079580545 0.08683945680462820671 0.2050952707785941298 0.037650469801636540779 0.13668412197643120543 -0.13764474250981748038 0.0062837884939090761852 -0.21316347991319412047 0.19729882735788956127;0.072314219529015927312 0.08565884636330135804 0.12408783436289190505 0.11889201113444483604 -0.11384284933001043161 -0.091682675057004309194 0.088531594618941319985 0.21355277624313351303 0.026157400906234511834 0.18831035104320387186 -0.097578303566381849321 0.013556283055638227233 -0.085869399293940731899 0.092447736591785678595 -0.084731852925448561398 0.01013618375870337443 -0.037089412965858471749 0.088417005538022203082 0.064338167129433715408 0.14312077884571516861 0.16856972251746615843 0.12649859403147728498 0.16058446245512794648 0.0012989970235664023875 -0.052464176670965319282 -0.12398443530786859568 0.03829924504249403866 0.055813120765898407982 0.14621482513064809616 -0.11001960046918302094 -0.054496154395486141875 -0.0062911028514552342489 0.012096243915333527302 0.040108622414720282445 0.062195935463196787285 -0.071875806779240783428 0.12183727191768871367 0.12721916536332295022 -0.034386624347970996818 0.1206318982584208277 0.10109615982912172061 0.069525434333655183883 -0.065861435485891614561 -0.036900083706195747901 0.059480338173555191705 0.14281586434371554284 -0.039331723864462472817 0.18083541265830158085 0.13233450482642611368 -0.0012657082346575747756 0.10949500848551489696 -0.057815982948215507986 0.0082830769899486216684 0.036464732718030093417 -0.13554733381445005502 -0.11614857775383825855 -0.07639444219916605161 -0.069685703221616795977 0.080227805916323627344 -0.0019002309007569166861 0.069742373624706477386 -0.080502218462306499025 -0.15758658028410887919 0.1499070736448941954 0.058416415581532495083 -0.030785305104501593798 -0.02200468237230131241 0.0093590207537921459024 -0.067504657146489357999 0.13348242183650524395 -0.085137153870367257569 -0.046070127257354744066 -0.11211818116598933071 0.13120985710922247747 -0.12134042352925614172 -0.12141476102784073965 -0.11990292450522328782 0.058727477044552008068 0.15152796506805518706 0.10295746342463853173 0.18599150512402318203 -0.065717162004208157233 0.014862488231958239163 0.046542441607590141761 0.0029940871330845389257 0.088370274574811030766 0.18571481180373866637 -0.10300755538526376598 0.09781368901158639384 -0.033795856564626872154 -0.012267578001365447155 0.15704187678869188649 -0.15505648651486400591 -0.067438411284672761248 -0.075857605309124068182 0.13463165291165310467 0.069953069965266206909 0.096929916279317684946 -0.063062124409708569805 0.054903523801539781679 0.010985931497200729368 0.13858141130247736417 0.026884848127754774894 -0.046346237305617578317 0.18733019038337669904 0.14307690303227182937 -0.031979704724276594718 -0.050942833120109790035 -0.021162223858840152613 -0.058136408655853226424 0.034442803883795128361 0.072101288926255849288 0.023902226878149693962 -0.14434866902126941568 0.01602630567448642962 -0.07655556278475786347 0.13550804169621263884 -0.015791571822690617793 0.1347765018690005312 0.11342730907521071659 0.05157763646089569276 -0.036378309172596309806 0.057687860278203093034 -0.019469292590349268623 -0.025650187548925409975 0.0019093576750098210232 -0.12171850340460432793 0.2025759830424769814 0.10641497609582614703 0.19667269369076298413 0.16418003119055732397 0.019227726204302315188 0.067744551095075530855 0.15819821110163762024 0.16499823780927236339 -0.081573558184332692345 0.086621785383199687014 -0.0087883481543285582593 -0.053647565326138700603 -0.064018463019387503166 -0.035563530647191102241 -0.03762236177930457226 -0.094572840984119693752 -0.13305782643353439298 -0.0091273584433412633526 -0.20125607762291414238 -0.13569615903745591012 0.015442783437446637798 -0.051688698533919649747 0.07618756616070389287 -0.0750828633733192502 -0.1433796345422275742 0.13525271339356334521 -0.25028908453967141368 0.18554836280321165831 -0.16689112678395559564 -0.051719405636255329217 -0.13090393332921612668 0.12028663536338710105 -0.020436410751606334801 0.20405106929069438682 0.25354420277498890268 0.13825050243750053314 -0.043057398524389278727 0.21220136728171570817 0.062077035938733975129 0.095047195776956916458 0.039310405853693997091 0.0073472840637257173443 0.024084455857430072528 0.055823854742682178787 -0.16350259867507013767 -0.0004382460071455795839 -0.010878381842277247415 0.03073651520459857317 -0.062539924909452579427 0.12172222870407020667 -0.12920166066585325737 -0.14908974606821018272 -0.011331797988065911431 -0.017401851216476211387 0.0056136554946063510485 -0.16805810362098017041 0.06156585381129039275 -0.037447000655139062175 -0.074071418346354139794 -0.026968039562066260795 -0.20887314199409012794 -0.14822292025326833098 0.076549056907280574324 -0.24032997414494980393 -0.082889780376631472247 -0.056768212341266437171 -0.080410359241194065416 -0.047985107948644641074 0.0014108139617795231215 -0.013816738896533306211 -0.19530146526056171852 0.22408384438935374794 0.12335605570290393562 0.041614781859331130554 -0.095681438924829512183 0.069470550199246763889 0.10175877106939319738 -0.10577350292238987817 0.011341392849730187742 0.022141133106664115382 0.09149208052230968502 0.056142227884238213309 -0.036890164897127701582 0.12750180182123546646 0.13376733118066355677 -0.083815999832808574244 -0.082610091176110692079 0.16555886837373151588 -0.11248847680064255616 -0.12764566747903977051 0.18299077456479931336 -0.03413121633521785242 -0.12699573930177796011 -0.099503639440824478979 -0.099872532076126327438 0.10518092777609364119 -0.033767341333161310368 0.036783471587546426318 -0.032378636508425873153 0.22763679500758302043 -0.12137512249164662814 0.1761424093304724825 0.057460148220694867716 0.08696048083612381574 -0.077035789273657118148 0.068798452465738652029 0.045787633872890379227 0.044995933196474074967 0.014322258802622821541;0.24679525851436473483 0.2106583488974239915 0.12255143769480676685 -0.0067913692471744981083 0.039524047110581078668 0.05403368472815070489 0.010493666493229593037 0.1606578825702978941 -0.037391988233810714848 -0.031732136944769444298 0.16720823041836227474 0.00029655618851657258948 -0.036743015792502803363 0.1715982054305404958 -0.082947604709054975625 0.022330447593175494631 0.10876025199839038649 -0.032587254720174506362 0.013166379452508491371 0.097812065931996899915 0.1732137535115901017 0.2057143822660540966 0.045638965579263057748 0.19675356568104310218 0.17097906459444051075 -0.051872812844888836759 0.11404766695762313944 0.14273153186149709071 0.11478320141208547822 0.17453026118944045542 -0.082044568380070764801 -0.091289165237310385126 0.031712408373637361592 0.17688862927217977039 0.13738153693614132966 0.051916020935018132587 0.18280054597387423998 -0.00065537228562520327083 -0.07654119582744824124 0.1565353387419242126 0.22114849743387660075 0.0087008213514071629929 0.13386235265831941676 0.089622046883629083447 -0.03539247160074349835 0.14983557540458361523 0.1140878256249144157 0.10708124819468983757 0.10189722080951595096 0.06991609319318757565 0.15999813162591439153 0.14431107884589472468 -0.010746137848318286501 0.099584428406526828703 0.18939472863757153553 -0.078882544303535195862 0.098834124990742663885 -0.16411230172728710763 0.083475078110813907828 -0.10894497261279863232 -0.042663626681275851338 0.041894038397167203402 0.10303474249714686395 0.11019038733582060818 0.12170449654001438966 -0.091888017098063337618 -0.037627169250626618657 0.0162833189842913513 0.16522223999857277299 0.031628984685729638615 0.11641331158206069674 0.014037156833524992369 0.15996201307697649474 -0.018730068370946199863 0.10013751877798517109 0.10522479224451565527 -0.10089107906872937792 -0.071165835572686214627 -0.13054351379820211543 0.12245892230565212644 -0.025826007447749325246 0.20797853853719708295 0.14531930215548169438 -0.052181825370295802091 -0.10312435870640319913 0.072028724253524759047 -0.006657042668349144425 0.14599446241864638685 0.15981579400476544905 -0.077149183692046000016 0.065800780494646854413 0.066311340657685582944 -0.06950661083682672936 -0.050260104353885691475 0.0086711484868408818943 0.17029408596982203994 -0.0086023763276368344494 0.109889582025275101 0.04218372872803053536 0.050761884610260162021 -0.16112662319643852871 0.082688863448479241192 0.00018838011104275819525 0.007008247707629743431 -0.11534041604108356827 -0.046220075770831522965 -0.014035993571028391319 -0.073575713580596516228 0.046014956190508209122 0.11149096399606080177 -0.11639852420660048993 0.12604495823367098395 0.021231897471937113964 -0.055004648566438753277 -0.16981285575083562844 -0.10965255623394061513 -0.12641441155058585899 0.10033708605597911612 0.03053871911702489908 -0.066385306267685170734 0.12981326131893061726 -0.02478112273266338747 0.20054964569910005423 0.15329351709766719791 0.13076123467870259809 -0.035523286952495326807 0.15003902191652065956 0.11909582438008167737 0.06020230913124040989 -0.013091558034070272312 -0.0056520405034283906567 0.093088965887206137628 0.00074815184208231388582 0.012938769357546392805 0.041120444225874873412 -0.14153994878363634902 -0.015478969102998540661 0.099695418676080185816 0.1862698813192354419 0.025784597685367938863 0.21975310542011131099 0.033400504995128345309 -0.12751268367850804308 -0.025433207385721023908 -0.048505182141832976772 -0.16239009646668361997 -0.104977252723827158 0.18744125997621186031 -0.12210651295331975685 -0.16001817417191216419 0.10272516172464316031 0.13093052391637971521 0.060117667629024831855 0.13594819874117156089 -0.022676630581021924721 0.032295903473398716865 0.10097034543624335001 0.038206714564218459407 -0.0126058663335918298 0.06019279368475638492 0.12318452031108632905 0.069496983368577361362 0.13978495545443975212 -0.077998130528510248305 -0.0026961293325561781417 0.023471562819103234526 0.012876623469562092569 -0.056140944347983764984 0.0037626610869008745609 -0.05744768459035008018 -0.073828752406206024639 0.0057159733340777663796 -0.025572665922302867392 -0.037904748684640644785 -0.051498879529235291885 -0.067832870906194761562 -0.056835191771951502904 0.18599992494533643117 0.13224840840327564684 0.11730315198681126598 0.0056560876411107718562 0.098390285036744060121 0.0031268547108028411571 0.0041941095361845278852 0.052013878813093300524 0.13171075472589111044 0.18653820652047045647 -0.025447611763678070623 -0.083014289292848583712 -0.038945584929871858437 -0.036210903538418222347 0.1303658220477690588 -0.070362472461826378045 0.1542068906360252456 -0.07162591752945798862 0.150035885931503854 0.14929493852930708631 -0.086788276569178798847 0.058343029202182275506 0.04123859421222353383 0.18107341762346174097 0.1229573466567686485 0.18096502224836524819 0.012816724288176869345 0.032250768772262926321 -0.051098486125333561492 0.030682983252342838076 -0.082641070831594581891 0.035769511513712402839 0.10525257976639018631 -0.045993546809178706414 0.10276463191660592522 0.13886325075776681515 0.075095939009794443475 0.11095407750126837221 0.20017191715256529849 0.011749554737185644721 0.066766187983054656185 -0.020223507091548617587 0.22313466128558698265 -0.024311849977765316588 0.12453246363044290224 0.21525057877041164911 0.16672447946081658809 -0.085765071050689506427 0.059897337608328216074 0.067098177547581502878 0.045796239703391562748 -0.010165570591973770859 0.23211245637959113108 0.010884799183639434078 -0.084113422946979654604 0.00025324535053612414002 -0.03554389613720386476 0.073383487919032389102 0.22374481001627830046];

% Layer 2
b2 = [-0.58318234472067043139;-0.4799112575945762571;-0.96510972043214682259;0.43455505655080162164;-0.86441808074438442056;-0.75466674161126756637;0.6109578099247054972;0.32045655811394913037];
LW2_1 = [0.040138545167643008282 1.2361273098819094418 -0.38429054456673333862 0.60654601575773858801 -0.059168125748379644946 0.38397084991695218381 -2.6206679638010417221 -3.6832266539654501258 4.4360588578599644549 -0.99840534121258806 0.19987893682411436713 0.41396469540152897038;2.4216353797964504935 -0.76386437062574075174 -0.28938555766668733193 -0.60328502949381157539 0.3470215530646983404 -0.83603406042959782507 2.1042049203372550359 -2.3104612220695410763 0.020797030495387294757 -1.2539488781008427676 0.76674824743216007938 0.67257642440587217525;0.7483731776821127557 1.7120397359666925663 -0.63380388265999776376 -0.90703606014149995573 -0.16229099298290411424 -1.0820916745947442017 2.0739045158702658078 -2.6326004338605488719 -1.4572177072900918127 3.15303774410557347 -0.47574327466318994118 -0.83708782267748993444;-2.2827272118995347583 0.67390679330117431167 0.08065486207761668469 0.83092704603140365993 0.76147016902751329948 0.45781279082753134624 -0.0063540108411280042666 0.89677588813405373358 1.1399652517540306285 1.8980185766161263849 -0.91712639309797372444 -0.30684313707698118723;2.2630286071959342387 -0.14688892982727722036 0.86696704887078412938 0.12338848354036081878 -0.95854096689658840891 -0.62097960946364127999 -0.14299732372399315272 4.6714583162529468296 0.5146189051250592561 -1.6198220279423520829 -0.81753632087891969782 -0.78712940466359149205;-0.90672712409837530334 0.56164437829382740652 -0.22155463967491306754 -1.1037288184231188737 -0.61660156283581957215 0.99381489966244584977 -1.0539019096018544808 -0.85851035149154453219 -3.168217353264644931 -0.10800943811504214176 -0.78681779830486897609 0.16618482203339757231;-0.52915702396555441833 -0.19066728890369055716 -0.61058647901950691139 0.45032689549103799287 -0.81705728017154666265 0.34866364930656063015 -0.99844091037335580552 -0.36519755268845799367 -0.94869373145142410486 -0.6853989532024257203 0.34805811381354079259 0.45193240852582050593;-1.7321590051927531206 -0.61491383282815359479 -0.40508149913131180631 1.1121742361397202181 2.5589451377403080734 0.42658152597348597546 -0.053601855989219356069 1.2053215941414361367 -2.3827337786511519901 -0.99603440475034243917 -0.33670751311157864905 0.41646830034393889086];

% ===== SIMULATION ========

% Dimensions
Q = size(x1,1); % samples

% Input 1
x1 = x1';
xp1 = mapminmax_apply(x1,x1_step1);

% Layer 1
a1 = tansig_apply(repmat(b1,1,Q) + IW1_1*xp1);

% Layer 2
a2 = softmax_apply(repmat(b2,1,Q) + LW2_1*a1);

% Output 1
y1 = a2;
y1 = y1';
end

% ===== MODULE FUNCTIONS ========

% Map Minimum and Maximum Input Processing Function
function y = mapminmax_apply(x,settings)
y = bsxfun(@minus,x,settings.xoffset);
y = bsxfun(@times,y,settings.gain);
y = bsxfun(@plus,y,settings.ymin);
end

% Competitive Soft Transfer Function
function a = softmax_apply(n,~)
if isa(n,'gpuArray')
    a = iSoftmaxApplyGPU(n);
else
    a = iSoftmaxApplyCPU(n);
end
end
function a = iSoftmaxApplyCPU(n)
nmax = max(n,[],1);
n = bsxfun(@minus,n,nmax);
numerator = exp(n);
denominator = sum(numerator,1);
denominator(denominator == 0) = 1;
a = bsxfun(@rdivide,numerator,denominator);
end
function a = iSoftmaxApplyGPU(n)
nmax = max(n,[],1);
numerator = arrayfun(@iSoftmaxApplyGPUHelper1,n,nmax);
denominator = sum(numerator,1);
a = arrayfun(@iSoftmaxApplyGPUHelper2,numerator,denominator);
end
function numerator = iSoftmaxApplyGPUHelper1(n,nmax)
numerator = exp(n - nmax);
end
function a = iSoftmaxApplyGPUHelper2(numerator,denominator)
if (denominator == 0)
    a = numerator;
else
    a = numerator ./ denominator;
end
end

% Sigmoid Symmetric Transfer Function
function a = tansig_apply(n,~)
a = 2 ./ (1 + exp(-2*n)) - 1;
end
